-0.160182133316993713378906250000 0.140786916017532348632812500000 0.152605682611465454101562500000 0.197047069668769836425781250000 0.177192643284797668457031250000 0.187547117471694946289062500000 0.198445394635200500488281250000 0.172889024019241333007812500000 0.175631448626518249511718750000 0.191336274147033691406250000000 0.216400772333145141601562500000 0.166615217924118041992187500000 0.196208968758583068847656250000 0.055439032614231109619140625000 0.097535677254199981689453125000 0.192616596817970275878906250000 0.139916867017745971679687500000 0.126166090369224548339843750000 0.088016331195831298828125000000 0.176429405808448791503906250000 0.129462108016014099121093750000 0.104209147393703460693359375000 0.154319226741790771484375000000 0.153794765472412109375000000000 0.152543693780899047851562500000 0.121248200535774230957031250000 0.005671323277056217193603515625 0.068942300975322723388671875000 0.123597003519535064697265625000 0.127163618803024291992187500000 0.142350628972053527832031250000 0.081739030778408050537109375000 0.079368911683559417724609375000 0.105701304972171783447265625000 0.132024422287940979003906250000 0.158369526267051696777343750000 0.085607685148715972900390625000 0.039548505097627639770507812500 0.108397133648395538330078125000 0.034368913620710372924804687500 0.156222850084304809570312500000 0.034003071486949920654296875000 0.084200456738471984863281250000 0.135569050908088684082031250000 0.160006985068321228027343750000 0.154317215085029602050781250000 0.144864156842231750488281250000 0.166266709566116333007812500000 0.123645111918449401855468750000 0.032566655427217483520507812500 0.124229438602924346923828125000 0.063972949981689453125000000000 0.107559159398078918457031250000 0.081463091075420379638671875000 0.073445066809654235839843750000 0.149384379386901855468750000000 0.149569958448410034179687500000 0.098506070673465728759765625000 -0.061582528054714202880859375000 0.113759830594062805175781250000 0.095764204859733581542968750000 0.065527610480785369873046875000 0.042330920696258544921875000000 0.086148180067539215087890625000 0.012156122364103794097900390625 0.097072541713714599609375000000 0.047662023454904556274414062500 0.048668634146451950073242187500 0.103402927517890930175781250000 0.054243609309196472167968750000 0.041145712137222290039062500000 0.085531279444694519042968750000 0.108832113444805145263671875000 0.103364385664463043212890625000 0.045224986970424652099609375000 -0.075597837567329406738281250000 -0.032640282064676284790039062500 0.115116119384765625000000000000 0.050954133272171020507812500000 0.075606040656566619873046875000 0.108367264270782470703125000000 0.088974498212337493896484375000 0.022901257500052452087402343750 0.070743203163146972656250000000 0.063494928181171417236328125000 0.059023112058639526367187500000 0.144181251525878906250000000000 0.120346747338771820068359375000 0.062397941946983337402343750000 0.095555134117603302001953125000 0.070185817778110504150390625000 0.071422666311264038085937500000 0.093761265277862548828125000000 0.084427878260612487792968750000 0.062462918460369110107421875000 0.058002401143312454223632812500 0.116248391568660736083984375000 0.098603896796703338623046875000 0.016928639262914657592773437500 0.033605214208364486694335937500 0.094245202839374542236328125000 0.067345060408115386962890625000 0.083072483539581298828125000000 0.122394025325775146484375000000 0.102740027010440826416015625000 0.068324804306030273437500000000 0.017882026731967926025390625000 0.082236975431442260742187500000 0.091379985213279724121093750000 0.025686813518404960632324218750 0.109114266932010650634765625000 0.046705115586519241333007812500 0.034635711461305618286132812500 0.128269761800765991210937500000 0.042417522519826889038085937500 -0.013841015286743640899658203125 0.039685443043708801269531250000 0.090434603393077850341796875000 0.077708028256893157958984375000 0.070271372795104980468750000000 0.035170260816812515258789062500 0.146115303039550781250000000000 0.021976480260491371154785156250 0.077128417789936065673828125000 0.023256339132785797119140625000 0.059561334550380706787109375000 0.070563092827796936035156250000 0.040431637316942214965820312500 0.075880289077758789062500000000 0.096245363354682922363281250000 0.079054735600948333740234375000 0.098628163337707519531250000000 0.096770934760570526123046875000 -0.050523281097412109375000000000 0.079934060573577880859375000000 0.095941372215747833251953125000 0.106292657554149627685546875000 0.107336372137069702148437500000 0.057703856378793716430664062500 0.050890102982521057128906250000 0.076133422553539276123046875000 0.032495398074388504028320312500 0.044158156961202621459960937500 0.094506047666072845458984375000 0.084046244621276855468750000000 0.063333809375762939453125000000 0.077920392155647277832031250000 -0.002132799010723829269409179688 0.139472678303718566894531250000 -0.008154252544045448303222656250 0.014516797848045825958251953125 0.074185863137245178222656250000 0.027020649984478950500488281250 0.061548955738544464111328125000 0.109699308872222900390625000000 0.055144049227237701416015625000 0.108599908649921417236328125000 0.077874504029750823974609375000 -0.000198815076146274805068969727 0.073952578008174896240234375000 0.033065412193536758422851562500 0.052197054028511047363281250000 -0.010794381611049175262451171875 -0.053732361644506454467773437500 0.093236349523067474365234375000 0.091738931834697723388671875000 -0.053168591111898422241210937500 0.069248437881469726562500000000 0.048826783895492553710937500000 0.053525425493717193603515625000 0.114244148135185241699218750000 0.117541104555130004882812500000 0.050796471536159515380859375000 -0.018897959962487220764160156250 0.092778183519840240478515625000 0.047355614602565765380859375000 -0.005041290074586868286132812500 0.081308893859386444091796875000 0.039490088820457458496093750000 0.051726143807172775268554687500 0.050766058266162872314453125000 -0.016562310978770256042480468750 0.027277601882815361022949218750 0.053644020110368728637695312500 0.017397401854395866394042968750 0.023461701348423957824707031250 0.047595351934432983398437500000 0.135945260524749755859375000000 0.015741623938083648681640625000 0.068376086652278900146484375000 0.021218191832304000854492187500 0.017038445919752120971679687500 0.013322432525455951690673828125 0.079771921038627624511718750000 0.117284089326858520507812500000 0.120926387608051300048828125000 0.068655699491500854492187500000 0.054215710610151290893554687500 0.001880577765405178070068359375 0.082545518875122070312500000000 0.040961325168609619140625000000 0.104049168527126312255859375000 0.015514758415520191192626953125 0.043345212936401367187500000000 0.043503496795892715454101562500 0.069139078259468078613281250000 0.094234012067317962646484375000 0.036899905651807785034179687500 0.066544376313686370849609375000 0.008951532654464244842529296875 -0.013596940785646438598632812500 0.074066191911697387695312500000 0.084400251507759094238281250000 0.094023242592811584472656250000 0.018646163865923881530761718750 -0.009625086560845375061035156250 0.051133539527654647827148437500 0.034638382494449615478515625000 0.109499283134937286376953125000 -0.033557668328285217285156250000 0.027699448168277740478515625000 0.069875322282314300537109375000 0.096539035439491271972656250000 0.084033511579036712646484375000 0.055364739149808883666992187500 0.055551592260599136352539062500 0.065652281045913696289062500000 0.071913696825504302978515625000 0.070415347814559936523437500000 0.064372889697551727294921875000 0.035941541194915771484375000000 0.062802389264106750488281250000 0.028818666934967041015625000000 0.031532287597656250000000000000 0.059973794966936111450195312500 0.051491566002368927001953125000 -0.000226008502067998051643371582 0.067927263677120208740234375000 0.098742276430130004882812500000 0.086328350007534027099609375000 -0.002443639095872640609741210938 0.042310286313295364379882812500 0.073857985436916351318359375000 0.052366010844707489013671875000 0.055565644055604934692382812500 -0.012696459889411926269531250000 0.074567951261997222900390625000 0.002050301292911171913146972656 0.015349857509136199951171875000 -0.004189491737633943557739257812 0.033443573862314224243164062500 0.029374178498983383178710937500 0.049341060221195220947265625000 0.054003186523914337158203125000 -0.118633896112442016601562500000 -0.007718395907431840896606445312 0.076759018003940582275390625000 -0.074169814586639404296875000000 -0.025175478309392929077148437500 0.030839933082461357116699218750 0.116381607949733734130859375000 0.008998983539640903472900390625 0.069737911224365234375000000000 0.104920938611030578613281250000 -0.012319615110754966735839843750 0.032500535249710083007812500000 0.031826090067625045776367187500 0.097419366240501403808593750000 0.067806534469127655029296875000 0.034602466970682144165039062500 0.130744844675064086914062500000 0.097084850072860717773437500000 0.001109274802729487419128417969 0.025457307696342468261718750000 -0.007761514279991388320922851562 0.043092075735330581665039062500 0.005469887983053922653198242188 0.024303333833813667297363281250 0.011234160512685775756835937500 0.098795972764492034912109375000 0.056942153722047805786132812500 0.024440269917249679565429687500 -0.027946276590228080749511718750 -0.016236402094364166259765625000 0.086064219474792480468750000000 0.038980185985565185546875000000 0.049353037029504776000976562500 0.047437235713005065917968750000 -0.029956780374050140380859375000 -0.010272870771586894989013671875 0.066041521728038787841796875000 0.001740944222547113895416259766 0.029750147834420204162597656250 0.073107972741127014160156250000 0.092404805123805999755859375000 -0.013383977115154266357421875000 0.081153556704521179199218750000 0.074009001255035400390625000000 0.078715257346630096435546875000 0.062049794942140579223632812500 0.020390663295984268188476562500 0.048638731241226196289062500000 0.062456920742988586425781250000 0.018893405795097351074218750000 0.103083550930023193359375000000 0.084696613252162933349609375000 0.032959096133708953857421875000 0.041714292019605636596679687500 0.021312531083822250366210937500 0.091715253889560699462890625000 0.041767064481973648071289062500 0.015269198454916477203369140625 0.071362823247909545898437500000 0.039451315999031066894531250000 0.029692117124795913696289062500 0.044380016624927520751953125000 0.017238404601812362670898437500 -0.146342590451240539550781250000 0.006092435680329799652099609375 -0.026495097205042839050292968750 0.046522498130798339843750000000 0.092514604330062866210937500000 0.059520374983549118041992187500 0.021540308371186256408691406250 0.055855069309473037719726562500 0.032036792486906051635742187500 0.010534657165408134460449218750 0.070308521389961242675781250000 -0.036742057651281356811523437500 0.062431793659925460815429687500 -0.005620522424578666687011718750 0.001766036497429013252258300781 0.053583856672048568725585937500 0.021603932604193687438964843750 -0.044885784387588500976562500000 -0.033093225210905075073242187500 0.035618662834167480468750000000 0.053609520196914672851562500000 -0.017270026728510856628417968750 0.006290420424193143844604492188 0.063284888863563537597656250000 0.059012986719608306884765625000 0.069019041955471038818359375000 0.028537824749946594238281250000 0.057122595608234405517578125000 0.016485664993524551391601562500 0.086835406720638275146484375000 0.032415982335805892944335937500 0.088971070945262908935546875000 0.061266735196113586425781250000 -0.013488274998962879180908203125 0.015388881787657737731933593750 -0.041116014122962951660156250000 0.054216120392084121704101562500 0.005533152725547552108764648438 0.077661693096160888671875000000 0.060621656477451324462890625000 -0.062491320073604583740234375000 0.068153657019138336181640625000 0.048144228756427764892578125000 0.003515274496749043464660644531 0.073661118745803833007812500000 0.097160533070564270019531250000 0.057700518518686294555664062500 0.077906906604766845703125000000 0.092396005988121032714843750000 0.065539039671421051025390625000 0.075394444167613983154296875000 0.129260390996932983398437500000 0.027305029332637786865234375000 0.077319085597991943359375000000 0.049091894179582595825195312500 0.036273993551731109619140625000 0.038682177662849426269531250000 0.041026368737220764160156250000 0.023934479802846908569335937500 -0.021384440362453460693359375000 0.101909436285495758056640625000 0.040069129317998886108398437500 0.036190662533044815063476562500 0.041242301464080810546875000000 -0.000970084860455244779586791992 0.018531706184148788452148437500 0.051940727978944778442382812500 0.074998259544372558593750000000 -0.039287272840738296508789062500 0.079280056059360504150390625000 0.009143289178609848022460937500 0.090849578380584716796875000000 0.058963105082511901855468750000 0.014551074244081974029541015625 0.031854905188083648681640625000 0.062782444059848785400390625000 0.003615274792537093162536621094 0.023562802001833915710449218750 0.082475811243057250976562500000 0.086121059954166412353515625000 0.036024898290634155273437500000 0.026961905881762504577636718750 0.040435370057821273803710937500 0.058515179902315139770507812500 0.005775575060397386550903320312 0.029394762590527534484863281250 -0.023334691300988197326660156250 0.038951974362134933471679687500 0.035507418215274810791015625000 0.012899767607450485229492187500 0.029304992407560348510742187500 0.000065824191551655530929565430 0.111592203378677368164062500000 -0.019585946574807167053222656250 0.094511210918426513671875000000 -0.010842290706932544708251953125 -0.027836853638291358947753906250 0.033849567174911499023437500000 0.009341993369162082672119140625 -0.004931608214974403381347656250 0.020498139783740043640136718750 0.028168387711048126220703125000 0.086111873388290405273437500000 0.026797980070114135742187500000 -0.002787231467664241790771484375 0.047395411878824234008789062500 0.059519518166780471801757812500 0.035774797201156616210937500000 -0.011578939855098724365234375000 0.033990483731031417846679687500 0.067147105932235717773437500000 -0.020114870741963386535644531250 0.001986199058592319488525390625 0.035767197608947753906250000000 -0.019560469314455986022949218750 0.014952240511775016784667968750 0.028815248981118202209472656250 0.004469680599868297576904296875 0.083907507359981536865234375000 0.027839271351695060729980468750 0.089318670332431793212890625000 0.014977860264480113983154296875 -0.001496094278991222381591796875 0.052477836608886718750000000000 0.025234360247850418090820312500 0.024974906817078590393066406250 -0.030620474368333816528320312500 0.059843171387910842895507812500 -0.045059598982334136962890625000 0.050931293517351150512695312500 0.044725850224494934082031250000 0.072946414351463317871093750000 0.040000263601541519165039062500 0.019515214487910270690917968750 0.025287732481956481933593750000 0.082003846764564514160156250000 -0.009359600953757762908935546875 0.012128757312893867492675781250 -0.037745852023363113403320312500 0.045258924365043640136718750000 -0.054612182080745697021484375000 0.071891970932483673095703125000 0.048070438206195831298828125000 0.015242098830640316009521484375 0.050345573574304580688476562500 -0.044130172580480575561523437500 0.067329324781894683837890625000 0.029483150690793991088867187500 -0.046557880938053131103515625000 0.050419107079505920410156250000 -0.043140288442373275756835937500 -0.023613588884472846984863281250 0.015521860681474208831787109375 0.031466808170080184936523437500 0.033467676490545272827148437500 0.053192757070064544677734375000 0.057344164699316024780273437500 -0.000968999229371547698974609375 0.053895559161901473999023437500 0.077587671577930450439453125000 -0.028372155502438545227050781250 0.025761978700757026672363281250 -0.014390159398317337036132812500 -0.020868159830570220947265625000 0.042900148779153823852539062500 -0.053283426910638809204101562500 0.009205305948853492736816406250 0.037972103804349899291992187500 0.015699626877903938293457031250 0.020220438018441200256347656250 0.076729439198970794677734375000 -0.042628452181816101074218750000 -0.104892045259475708007812500000 -0.015023205429315567016601562500 -0.044344663619995117187500000000 0.085409104824066162109375000000 -0.086837291717529296875000000000 0.067133955657482147216796875000 -0.020322123542428016662597656250 0.032185040414333343505859375000 0.005544237326830625534057617188 0.073570258915424346923828125000 -0.009707923978567123413085937500 0.066157042980194091796875000000 0.091446340084075927734375000000 -0.005159754771739244461059570312 0.011157571338117122650146484375 -0.044824685901403427124023437500 0.078274846076965332031250000000 0.077854722738265991210937500000 -0.052316125482320785522460937500 0.053091831505298614501953125000 0.080924458801746368408203125000 0.083321586251258850097656250000 0.116497568786144256591796875000 0.056337475776672363281250000000 -0.018216943368315696716308593750 -0.061229176819324493408203125000 -0.062883339822292327880859375000 0.054510846734046936035156250000 0.011385099962353706359863281250 0.067215047776699066162109375000 0.016309160739183425903320312500 0.003078510519117116928100585938 0.012281079776585102081298828125 0.086002394556999206542968750000 0.003876592498272657394409179688 0.014150958508253097534179687500 0.048034340143203735351562500000 0.051733653992414474487304687500 0.008188648149371147155761718750 0.007695151958614587783813476562 -0.009629737585783004760742187500 0.023525271564722061157226562500 0.008098486810922622680664062500 0.027775559574365615844726562500 0.051189873367547988891601562500 0.060993205755949020385742187500 0.036005035042762756347656250000 -0.067960657179355621337890625000 -0.001737130107358098030090332031 -0.000807092408649623394012451172 -0.006913396995514631271362304688 -0.032987091690301895141601562500 0.025930618867278099060058593750 -0.036609105765819549560546875000 0.055802799761295318603515625000 0.035297181457281112670898437500 0.053255070000886917114257812500 -0.052720531821250915527343750000 -0.017565406858921051025390625000 -0.047294966876506805419921875000 0.044375427067279815673828125000 0.027319526299834251403808593750 0.047444332391023635864257812500 0.059292107820510864257812500000 0.016136467456817626953125000000 0.073118731379508972167968750000 -0.001690508332103490829467773438 0.030861089006066322326660156250 0.030112912878394126892089843750 0.029143482446670532226562500000 0.022089628502726554870605468750 0.080299608409404754638671875000 0.027352299541234970092773437500 0.088470168411731719970703125000 0.046507909893989562988281250000 -0.016814989969134330749511718750 0.024301923811435699462890625000 0.013810832053422927856445312500 -0.053432676941156387329101562500 0.067852891981601715087890625000 0.081310786306858062744140625000 -0.011888695880770683288574218750 0.123983740806579589843750000000 -0.044018976390361785888671875000 0.031192911788821220397949218750 0.028216136619448661804199218750 0.034995038062334060668945312500 0.020914280787110328674316406250 -0.011253551580011844635009765625 -0.000616316916421055793762207031 -0.014128796756267547607421875000 -0.024023005738854408264160156250 0.025422807782888412475585937500 0.040730595588684082031250000000 0.049022804945707321166992187500 -0.041243199259042739868164062500 0.017282340675592422485351562500 0.047525405883789062500000000000 -0.037207070738077163696289062500 0.006572406738996505737304687500 -0.019061876460909843444824218750 -0.006531449966132640838623046875 -0.020560925826430320739746093750 0.044939476996660232543945312500 0.028260957449674606323242187500 0.018760705366730690002441406250 -0.029815942049026489257812500000 0.031707931309938430786132812500 0.053426764905452728271484375000 0.003486155765131115913391113281 0.065495863556861877441406250000 -0.001633114530704915523529052734 0.037898842245340347290039062500 0.020894043147563934326171875000 -0.034977633506059646606445312500 0.076361805200576782226562500000 0.043598324060440063476562500000 -0.024306071922183036804199218750 0.009304938837885856628417968750 0.040302012115716934204101562500 -0.037448335438966751098632812500 -0.059052933007478713989257812500 0.038825560361146926879882812500 -0.013111676089465618133544921875 -0.013217043131589889526367187500 0.029916215687990188598632812500 0.035693190991878509521484375000 0.071711629629135131835937500000 0.020621160045266151428222656250 -0.030829828232526779174804687500 0.065542139112949371337890625000 0.023563133552670478820800781250 0.007983685471117496490478515625 0.008836730383336544036865234375 -0.024093259125947952270507812500 0.014373860321938991546630859375 -0.017232153564691543579101562500 0.034132163971662521362304687500 -0.011070906184613704681396484375 -0.007877937518060207366943359375 0.008146458305418491363525390625 -0.011134865693747997283935546875 -0.023281890898942947387695312500 -0.004114268813282251358032226562 0.002882395405322313308715820312 0.023755371570587158203125000000 -0.007664764765650033950805664062 0.040589034557342529296875000000 0.063401028513908386230468750000 0.025990035384893417358398437500 0.073066979646682739257812500000 0.084939055144786834716796875000 -0.017845928668975830078125000000 0.015659827739000320434570312500 0.041241139173507690429687500000 -0.022446842864155769348144531250 -0.003535305149853229522705078125 -0.056784927845001220703125000000 -0.026272363960742950439453125000 -0.001276616123504936695098876953 0.054260533303022384643554687500 -0.029500756412744522094726562500 -0.024155559018254280090332031250 0.062123183161020278930664062500 0.002932658186182379722595214844 0.014247734099626541137695312500 -0.035174839198589324951171875000 -0.073837876319885253906250000000 0.045951522886753082275390625000 -0.029233934357762336730957031250 -0.025599354878067970275878906250 0.053375773131847381591796875000 0.092485487461090087890625000000 -0.075021892786026000976562500000 0.023428004235029220581054687500 -0.034634400159120559692382812500 0.030329875648021697998046875000 0.027247373014688491821289062500 -0.028409158810973167419433593750 0.054399471729993820190429687500 0.014205819927155971527099609375 -0.013886604458093643188476562500 0.001050667953677475452423095703 0.003321621567010879516601562500 0.025616601109504699707031250000 -0.036942351609468460083007812500 0.027211606502532958984375000000 0.022370249032974243164062500000 0.018391655758023262023925781250 -0.053924437612295150756835937500 0.045908328145742416381835937500 -0.006877321749925613403320312500 0.040207408368587493896484375000 -0.024721395224332809448242187500 0.031259130686521530151367187500 0.070215404033660888671875000000 0.026109054684638977050781250000 0.026392178609967231750488281250 0.028333935886621475219726562500 0.060672588646411895751953125000 -0.064643897116184234619140625000 -0.001519356272183358669281005859 0.029861958697438240051269531250 -0.020131271332502365112304687500 0.022677639499306678771972656250 -0.070531331002712249755859375000 0.026736507192254066467285156250 -0.031014915555715560913085937500 0.001609354978427290916442871094 -0.027908759191632270812988281250 -0.125550046563148498535156250000 -0.080127559602260589599609375000 0.001852558925747871398925781250 -0.027177989482879638671875000000 -0.039803232997655868530273437500 -0.025723883882164955139160156250 0.016716314479708671569824218750 0.034827936440706253051757812500 0.014008526690304279327392578125 -0.033564504235982894897460937500 0.000381084100808948278427124023 -0.049086119979619979858398437500 -0.013143773190677165985107421875 0.008244623430073261260986328125 -0.016646360978484153747558593750 -0.020917417481541633605957031250 -0.047664199024438858032226562500 -0.033789992332458496093750000000 -0.007136126514524221420288085938 -0.046555098146200180053710937500 -0.064978852868080139160156250000 -0.043214943259954452514648437500 -0.026825957000255584716796875000 -0.001881685224361717700958251953 0.020258011296391487121582031250 -0.075851052999496459960937500000 0.023249639198184013366699218750 -0.013064788654446601867675781250 0.000028804570320062339305877686 0.070448957383632659912109375000 0.019287766888737678527832031250 0.045414049178361892700195312500 -0.006172179244458675384521484375 -0.041445571929216384887695312500 -0.063426271080970764160156250000 0.036186553537845611572265625000 -0.024658180773258209228515625000 0.006455030292272567749023437500 0.003949530422687530517578125000 -0.021519584581255912780761718750 -0.047062207013368606567382812500 0.031714320182800292968750000000 0.023572316393256187438964843750 0.073656678199768066406250000000 0.060815904289484024047851562500 -0.013667970895767211914062500000 0.009239221923053264617919921875 0.019519476220011711120605468750 0.055074777454137802124023437500 -0.036148596554994583129882812500 0.022233784198760986328125000000 0.001886124373413622379302978516 -0.029377445578575134277343750000 0.068383708596229553222656250000 0.001663058996200561523437500000 -0.049236528575420379638671875000 0.047474637627601623535156250000 -0.017831673845648765563964843750 0.038527194410562515258789062500 0.011897392570972442626953125000 -0.010221765376627445220947265625 0.012974255718290805816650390625 -0.040367707610130310058593750000 -0.043346285820007324218750000000 -0.015903620049357414245605468750 0.086985461413860321044921875000 0.053494904190301895141601562500 -0.018611129373311996459960937500 0.009666113182902336120605468750 0.002861208282411098480224609375 -0.003863298334181308746337890625 -0.052155204117298126220703125000 -0.006596778985112905502319335938 0.026178104802966117858886718750 0.036884699016809463500976562500 0.066529586911201477050781250000 -0.020835705101490020751953125000 0.064645722508430480957031250000 0.015229871496558189392089843750 -0.027109785005450248718261718750 0.053606219589710235595703125000 0.007443927694112062454223632812 0.012200001627206802368164062500 -0.000746802543289959430694580078 0.005353998392820358276367187500 -0.033244766294956207275390625000 0.017062349244952201843261718750 -0.039572790265083312988281250000 0.033560384064912796020507812500 -0.016204077750444412231445312500 0.050618343055248260498046875000 -0.082845695316791534423828125000 0.031336612999439239501953125000 0.028559502214193344116210937500 -0.054580409079790115356445312500 0.056398238986730575561523437500 0.011286813765764236450195312500 -0.052273407578468322753906250000 -0.026608966290950775146484375000 0.078551791608333587646484375000 -0.020189426839351654052734375000 0.029455307871103286743164062500 0.029475880786776542663574218750 -0.029241200536489486694335937500 -0.009030465036630630493164062500 -0.004787384998053312301635742188 0.098253898322582244873046875000 -0.013749942183494567871093750000 0.075368732213973999023437500000 -0.027248123660683631896972656250 -0.055400136858224868774414062500 -0.018315473571419715881347656250 -0.028359090909361839294433593750 -0.007386512123048305511474609375 -0.028896261006593704223632812500 -0.095660299062728881835937500000 -0.010922068729996681213378906250 0.011668819002807140350341796875 -0.063511736690998077392578125000 -0.015572162345051765441894531250 -0.066435925662517547607421875000 0.016861140727996826171875000000 0.003547952044755220413208007812 -0.054148241877555847167968750000 -0.015410998836159706115722656250 -0.036250885576009750366210937500 0.047685071825981140136718750000 -0.044518806040287017822265625000 0.036838304251432418823242187500 -0.045011013746261596679687500000 -0.012288080528378486633300781250 0.024626286700367927551269531250 -0.020663224160671234130859375000 0.013273144140839576721191406250 0.031909331679344177246093750000 -0.002945497399196028709411621094 -0.021195450797677040100097656250 -0.034176547080278396606445312500 -0.000331005605403333902359008789 0.036272656172513961791992187500 0.007172106299549341201782226562 -0.016412239521741867065429687500 0.020736055448651313781738281250 -0.068683661520481109619140625000 0.002555880928412079811096191406 -0.007838713936507701873779296875 -0.025314958766102790832519531250 0.023236712440848350524902343750 -0.008687624707818031311035156250 0.020780697464942932128906250000 -0.024246875196695327758789062500 0.039159446954727172851562500000 0.062314882874488830566406250000 0.020484501495957374572753906250 -0.029147295281291007995605468750 -0.032382018864154815673828125000 -0.041735127568244934082031250000 0.029033394530415534973144531250 0.073641538619995117187500000000 0.001270498964004218578338623047 0.042132448405027389526367187500 0.011746515519917011260986328125 0.037117220461368560791015625000 0.009278704412281513214111328125 0.029489744454622268676757812500 -0.061670955270528793334960937500 0.002477320376783609390258789062 -0.050465200096368789672851562500 -0.051428314298391342163085937500 -0.063093647360801696777343750000 -0.012013013474643230438232421875 0.025348130613565444946289062500 0.001115294639021158218383789062 0.012793098576366901397705078125 -0.095858931541442871093750000000 -0.043157503008842468261718750000 -0.147305190563201904296875000000 -0.029749637469649314880371093750 0.043384823948144912719726562500 -0.030985543504357337951660156250 -0.082268945872783660888671875000 0.005738651845604181289672851562 -0.059001322835683822631835937500 0.000046965215005911886692047119 -0.053086481988430023193359375000 -0.040845543146133422851562500000 -0.053654469549655914306640625000 -0.036568224430084228515625000000 -0.002575266174972057342529296875 0.040929976850748062133789062500 -0.069466099143028259277343750000 0.015561272390186786651611328125 -0.060609057545661926269531250000 -0.012270261533558368682861328125 0.005580794066190719604492187500 0.012609725818037986755371093750 -0.049535155296325683593750000000 0.011301704682409763336181640625 0.047349978238344192504882812500 0.052893519401550292968750000000 -0.012434400618076324462890625000 0.048839267343282699584960937500 0.039874814450740814208984375000 0.010801766999065876007080078125 0.003186139510944485664367675781 -0.044173676520586013793945312500 -0.000895293778739869594573974609 -0.019079253077507019042968750000 0.033823180943727493286132812500 -0.013096187263727188110351562500 -0.026688734069466590881347656250 -0.060419060289859771728515625000 0.034299623221158981323242187500 -0.017124235630035400390625000000 0.009631235152482986450195312500 -0.020749472081661224365234375000 -0.042719375342130661010742187500 -0.034105755388736724853515625000 -0.025131873786449432373046875000 -0.020517081022262573242187500000 -0.001556628616526722908020019531 0.041998613625764846801757812500 0.024554550647735595703125000000 -0.053582668304443359375000000000 0.043875433504581451416015625000 0.060799270868301391601562500000 0.011308943852782249450683593750 0.010028100572526454925537109375 0.038906484842300415039062500000 0.012702428735792636871337890625 -0.009208652190864086151123046875 -0.007309492211788892745971679688 -0.002771403640508651733398437500 0.002863888163119554519653320312 -0.066230751574039459228515625000 -0.059681985527276992797851562500 -0.047534782439470291137695312500 -0.048340484499931335449218750000 0.006145481951534748077392578125 0.020433012396097183227539062500 0.008756656199693679809570312500 -0.024184422567486763000488281250 0.014808952808380126953125000000 -0.015694912523031234741210937500 -0.028069380670785903930664062500 -0.090059943497180938720703125000 0.031222673133015632629394531250 0.038057509809732437133789062500 0.004421081859618425369262695312 0.045725367963314056396484375000 -0.035844866186380386352539062500 -0.085269428789615631103515625000 -0.039982959628105163574218750000 -0.013844317756593227386474609375 -0.017050042748451232910156250000 -0.008354095742106437683105468750 0.037308011204004287719726562500 -0.072402462363243103027343750000 0.053112875670194625854492187500 -0.139903366565704345703125000000 -0.047142282128334045410156250000 -0.053015239536762237548828125000 0.016406236216425895690917968750 0.013257491402328014373779296875 -0.005804229527711868286132812500 -0.032862327992916107177734375000 0.009363621473312377929687500000 -0.027576968073844909667968750000 0.024483103305101394653320312500 -0.015529654920101165771484375000 -0.006735289003700017929077148438 0.003617215901613235473632812500 -0.025022102519869804382324218750 0.019858928397297859191894531250 -0.036414645612239837646484375000 0.055103030055761337280273437500 -0.015736183151602745056152343750 -0.062846615910530090332031250000 -0.100099787116050720214843750000 0.012667267583310604095458984375 -0.022382391616702079772949218750 -0.036664143204689025878906250000 -0.011805426329374313354492187500 0.044771537184715270996093750000 0.001889756880700588226318359375 -0.079663157463073730468750000000 -0.057159021496772766113281250000 -0.009115383028984069824218750000 -0.001704323454760015010833740234 0.016395092010498046875000000000 -0.020099570974707603454589843750 -0.013281354680657386779785156250 0.025515496730804443359375000000 -0.020629335194826126098632812500 -0.071864150464534759521484375000 0.008720009587705135345458984375 -0.040128890424966812133789062500 -0.037291146814823150634765625000 -0.011409532278776168823242187500 -0.015350801870226860046386718750 0.030864074826240539550781250000 0.024773040786385536193847656250 0.065404966473579406738281250000 -0.033760368824005126953125000000 -0.040336985141038894653320312500 0.008935263380408287048339843750 -0.062123883515596389770507812500 0.035701498389244079589843750000 -0.013313470408320426940917968750 0.032422732561826705932617187500 0.004574859514832496643066406250 -0.008464065380394458770751953125 -0.006936286576092243194580078125 0.034207716584205627441406250000 0.041425861418247222900390625000 -0.005207749549299478530883789062 -0.015645612031221389770507812500 0.074437528848648071289062500000 0.011291885748505592346191406250 -0.012252992019057273864746093750 0.015212203375995159149169921875 0.012013713829219341278076171875 -0.005209095776081085205078125000 -0.007879670709371566772460937500 0.026320740580558776855468750000 0.049224488437175750732421875000 0.012469663284718990325927734375 -0.006078660022467374801635742188 -0.027364235371351242065429687500 -0.016885725781321525573730468750 0.015469870530068874359130859375 0.022584551945328712463378906250 -0.078830413520336151123046875000 -0.040502570569515228271484375000 -0.008775897324085235595703125000 -0.054005615413188934326171875000 -0.067598745226860046386718750000 -0.059467095881700515747070312500 0.006072680931538343429565429688 0.032036431133747100830078125000 -0.012598025612533092498779296875 -0.036447569727897644042968750000 -0.044088102877140045166015625000 -0.058063004165887832641601562500 0.004039423074573278427124023438 -0.006502771284431219100952148438 -0.077921047806739807128906250000 -0.025682507082819938659667968750 -0.027198571711778640747070312500 -0.011765919625759124755859375000 -0.045348446816205978393554687500 -0.073405027389526367187500000000 -0.018644377589225769042968750000 -0.010112271644175052642822265625 -0.002378421602770686149597167969 -0.031014867126941680908203125000 0.013513270765542984008789062500 -0.074327945709228515625000000000 -0.047871984541416168212890625000 -0.144046887755393981933593750000 -0.008609877899289131164550781250 -0.061566740274429321289062500000 -0.039698615670204162597656250000 -0.073722995817661285400390625000 0.012430099770426750183105468750 -0.027538949623703956604003906250 -0.046742308884859085083007812500 -0.010988798923790454864501953125 -0.033388573676347732543945312500 -0.034747701138257980346679687500 0.055878080427646636962890625000 0.002140668919309973716735839844 0.016194304451346397399902343750 -0.012078141793608665466308593750 -0.010992242954671382904052734375 0.001257971744053065776824951172 0.021666074171662330627441406250 -0.022119259461760520935058593750 -0.033268779516220092773437500000 -0.048575360327959060668945312500 -0.032207034528255462646484375000 -0.028342323377728462219238281250 -0.041104078292846679687500000000 0.068659439682960510253906250000 0.000534266931936144828796386719 -0.053484428673982620239257812500 0.043095801025629043579101562500 0.032960008829832077026367187500 -0.016144029796123504638671875000 -0.003309117397293448448181152344 -0.036938410252332687377929687500 -0.045262537896633148193359375000 -0.038316015154123306274414062500 0.011468666605651378631591796875 -0.040980610996484756469726562500 0.062402348965406417846679687500 -0.017565848305821418762207031250 0.053807090967893600463867187500 -0.035235617309808731079101562500 0.063571713864803314208984375000 -0.019658619537949562072753906250 -0.024529376998543739318847656250 0.075772583484649658203125000000 -0.048301503062248229980468750000 -0.048040699213743209838867187500 -0.001489516114816069602966308594 -0.102885797619819641113281250000 -0.003143637906759977340698242188 0.027622066438198089599609375000 0.005445498041808605194091796875 0.030625017359852790832519531250 -0.056429333984851837158203125000 -0.082546710968017578125000000000 -0.014501770026981830596923828125 -0.038423169404268264770507812500 -0.050794746726751327514648437500 0.020626483485102653503417968750 -0.041502699255943298339843750000 0.034989763051271438598632812500 0.017407473176717758178710937500 -0.014875609427690505981445312500 -0.057393230497837066650390625000 -0.058481380343437194824218750000 -0.040345229208469390869140625000 -0.035261146724224090576171875000 -0.019343566149473190307617187500 -0.060525853186845779418945312500 -0.074515067040920257568359375000 -0.037975568324327468872070312500 -0.023078514263033866882324218750 -0.018383443355560302734375000000 -0.018417879939079284667968750000 -0.062297575175762176513671875000 -0.022705899551510810852050781250 -0.003004797967150807380676269531 -0.000327920482959598302841186523 -0.038211084902286529541015625000 -0.024011647328734397888183593750 0.031472869217395782470703125000 -0.059435799717903137207031250000 -0.019177211448550224304199218750 0.039550989866256713867187500000 -0.103596068918704986572265625000 0.014134756289422512054443359375 -0.088010601699352264404296875000 0.021765196695923805236816406250 -0.004149305168539285659790039062 -0.061783775687217712402343750000 -0.023426195606589317321777343750 -0.033505681902170181274414062500 -0.041372288018465042114257812500 0.019281988963484764099121093750 -0.036192245781421661376953125000 -0.008739143610000610351562500000 -0.015160742215812206268310546875 -0.022261215373873710632324218750 0.007576340343803167343139648438 -0.129378184676170349121093750000 -0.009644647128880023956298828125 -0.035572666674852371215820312500 0.034349869936704635620117187500 -0.004185962490737438201904296875 -0.027324611321091651916503906250 -0.016589093953371047973632812500 -0.041314888745546340942382812500 -0.032567046582698822021484375000 -0.037303626537322998046875000000 -0.061474826186895370483398437500 0.029858324676752090454101562500 -0.058754138648509979248046875000 -0.024839634075760841369628906250 -0.032753549516201019287109375000 -0.011970188468694686889648437500 -0.050502646714448928833007812500 -0.031236628070473670959472656250 -0.066989064216613769531250000000 -0.069374851882457733154296875000 -0.087672322988510131835937500000 -0.048407375812530517578125000000 -0.025354139506816864013671875000 0.032527949661016464233398437500 -0.027779031544923782348632812500 0.004854269325733184814453125000 -0.037052754312753677368164062500 -0.025122117251157760620117187500 -0.035013575106859207153320312500 0.009618462994694709777832031250 0.014622239395976066589355468750 -0.001581876305863261222839355469 -0.011827058158814907073974609375 -0.003678519045934081077575683594 -0.001536437193863093852996826172 0.023868408054113388061523437500 -0.022921012714505195617675781250 0.023949531838297843933105468750 -0.013263181783258914947509765625 -0.048777204006910324096679687500 -0.001147022820077836513519287109 -0.071509405970573425292968750000 -0.016853263601660728454589843750 -0.031254041939973831176757812500 -0.074347712099552154541015625000 -0.082263402640819549560546875000 -0.057873960584402084350585937500 -0.040414597839117050170898437500 0.040652714669704437255859375000 0.021678727120161056518554687500 -0.021702589467167854309082031250 0.001050268416292965412139892578 -0.052407018840312957763671875000 0.026291053742170333862304687500 0.024456936866044998168945312500 -0.093155629932880401611328125000 -0.010555600747466087341308593750 -0.005096025299280881881713867188 -0.093695260584354400634765625000 0.013435549102723598480224609375 -0.029686860740184783935546875000 0.034387510269880294799804687500 -0.002378115430474281311035156250 -0.100822955369949340820312500000 -0.044074658304452896118164062500 0.036980886012315750122070312500 -0.012158296070992946624755859375 0.023806221783161163330078125000 -0.028893893584609031677246093750 0.005599373020231723785400390625 0.004591250326484441757202148438 -0.004821324720978736877441406250 0.031944785267114639282226562500 -0.049030121415853500366210937500 -0.043037269264459609985351562500 -0.055968023836612701416015625000 -0.010565524920821189880371093750 -0.031563028693199157714843750000 -0.026021741330623626708984375000 0.008970596827566623687744140625 -0.026416869834065437316894531250 -0.035804353654384613037109375000 -0.027962494641542434692382812500 -0.032116703689098358154296875000 0.006319817155599594116210937500 -0.031741391867399215698242187500 0.017589556053280830383300781250 -0.091160863637924194335937500000 -0.024941831827163696289062500000 -0.046205867081880569458007812500 0.022558636963367462158203125000 -0.058900825679302215576171875000 0.024007158353924751281738281250 0.002055063145235180854797363281 -0.061585363000631332397460937500 -0.044773224741220474243164062500 -0.038766041398048400878906250000 -0.001742186956107616424560546875 -0.044396191835403442382812500000 -0.094294197857379913330078125000 -0.029510488733649253845214843750 -0.093080349266529083251953125000 0.011477244086563587188720703125 -0.029026539996266365051269531250 0.035532142966985702514648437500 0.021472206339240074157714843750 -0.030094917863607406616210937500 0.014840176329016685485839843750 -0.068385392427444458007812500000 -0.037574693560600280761718750000 -0.106274276971817016601562500000 0.004708583466708660125732421875 -0.032789159566164016723632812500 -0.037717320024967193603515625000 -0.084665551781654357910156250000 -0.105352751910686492919921875000 -0.007368785794824361801147460938 -0.043302875012159347534179687500 -0.015221859328448772430419921875 -0.055700004100799560546875000000 -0.060918036848306655883789062500 -0.067228905856609344482421875000 0.017647752538323402404785156250 -0.074704967439174652099609375000 -0.017142593860626220703125000000 -0.069097727537155151367187500000 0.001507314038462936878204345703 0.001272408291697502136230468750 -0.036059096455574035644531250000 0.006014314014464616775512695312 -0.054459948092699050903320312500 -0.160588711500167846679687500000 -0.020953020080924034118652343750 -0.061825834214687347412109375000 -0.045866392552852630615234375000 0.049806959927082061767578125000 0.004054570104926824569702148438 -0.164439678192138671875000000000 -0.043072760105133056640625000000 -0.025773830711841583251953125000 0.013752425089478492736816406250 -0.021936295554041862487792968750 -0.063202016055583953857421875000 -0.015447602607309818267822265625 -0.026104856282472610473632812500 0.080015487968921661376953125000 0.022231187671422958374023437500 -0.029865726828575134277343750000 -0.021493120118975639343261718750 0.031737741082906723022460937500 0.014516687020659446716308593750 0.050830744206905364990234375000 -0.059592384845018386840820312500 -0.023539131507277488708496093750 -0.011012613773345947265625000000 0.005201173946261405944824218750 0.014142980799078941345214843750 -0.082709416747093200683593750000 -0.004752139560878276824951171875 -0.013286082074046134948730468750 -0.050764959305524826049804687500 0.011391700245440006256103515625 -0.043924707919359207153320312500 -0.029656488448381423950195312500 0.003645738586783409118652343750 0.065684832632541656494140625000 -0.007096726447343826293945312500 -0.073428854346275329589843750000 -0.052756059914827346801757812500 -0.121757797896862030029296875000 -0.024684935808181762695312500000 0.027888454496860504150390625000 -0.028735751286149024963378906250 0.008701049722731113433837890625 -0.033192206174135208129882812500 -0.098577857017517089843750000000 -0.080521591007709503173828125000 0.012859102338552474975585937500 0.046812493354082107543945312500 -0.025957688689231872558593750000 -0.055940549820661544799804687500 -0.030325263738632202148437500000 0.008008755743503570556640625000 -0.063043162226676940917968750000 -0.010085927322506904602050781250 -0.059912774711847305297851562500 -0.030164046213030815124511718750 -0.026814082637429237365722656250 0.039293106645345687866210937500 -0.062714613974094390869140625000 -0.087542921304702758789062500000 -0.018835201859474182128906250000 0.008452397771179676055908203125 0.002803099108859896659851074219 -0.086206451058387756347656250000 -0.079359598457813262939453125000 -0.014778597280383110046386718750 -0.038486771285533905029296875000 -0.039942432194948196411132812500 -0.023241560906171798706054687500 -0.087378636002540588378906250000 -0.050584595650434494018554687500 -0.047488234937191009521484375000 -0.117202237248420715332031250000 -0.069794237613677978515625000000 -0.122068181633949279785156250000 0.011895871721208095550537109375 -0.050952762365341186523437500000 -0.002717660041525959968566894531 -0.063213929533958435058593750000 -0.058908097445964813232421875000 -0.016948705539107322692871093750 0.006708661559969186782836914062 -0.022328171879053115844726562500 -0.078627362847328186035156250000 -0.015542005188763141632080078125 -0.020702527835965156555175781250 -0.056916140019893646240234375000 -0.046746637672185897827148437500 -0.054095592349767684936523437500 -0.032989941537380218505859375000 -0.061732780188322067260742187500 -0.044917151331901550292968750000 -0.060418773442506790161132812500 -0.007327613886445760726928710938 -0.077376201748847961425781250000 -0.034158639609813690185546875000 -0.099830582737922668457031250000 -0.059350736439228057861328125000 -0.054498855024576187133789062500 -0.079427316784858703613281250000 -0.055587314069271087646484375000 -0.096195191144943237304687500000 0.004331248812377452850341796875 -0.071463331580162048339843750000 0.004046191461384296417236328125 -0.026494894176721572875976562500 -0.071867823600769042968750000000 -0.004841065034270286560058593750 -0.072090759873390197753906250000 0.016695892438292503356933593750 0.005539592821151018142700195312 -0.083244614303112030029296875000 0.012833355925977230072021484375 0.065126612782478332519531250000 -0.067271336913108825683593750000 0.003437041537836194038391113281 0.006702016573399305343627929688 -0.002369693014770746231079101562 -0.013789143413305282592773437500 0.028372379019856452941894531250 -0.065716147422790527343750000000 -0.063491970300674438476562500000 0.005502086598426103591918945312 -0.062674693763256072998046875000 0.023821676149964332580566406250 -0.021395919844508171081542968750 -0.017610512673854827880859375000 -0.030755357816815376281738281250 -0.025422800332307815551757812500 -0.021801447495818138122558593750 -0.011130773462355136871337890625 -0.031777147203683853149414062500 0.025887396186590194702148437500 -0.016200048848986625671386718750 -0.015677148476243019104003906250 -0.030934240669012069702148437500 -0.054763067513704299926757812500 -0.110615372657775878906250000000 -0.071968816220760345458984375000 -0.020293673500418663024902343750 -0.039507515728473663330078125000 0.008613738231360912322998046875 -0.020778570324182510375976562500 -0.003508508205413818359375000000 -0.006692749448120594024658203125 -0.046647921204566955566406250000 -0.018749656155705451965332031250 -0.014576989226043224334716796875 -0.015994887799024581909179687500 -0.027544692158699035644531250000 -0.006671755574643611907958984375 -0.006635216064751148223876953125 -0.057544305920600891113281250000 -0.059661429375410079956054687500 -0.045710135251283645629882812500 -0.038391254842281341552734375000 -0.079216413199901580810546875000 -0.037928726524114608764648437500 -0.023699227720499038696289062500 0.012951166369020938873291015625 -0.066679358482360839843750000000 -0.042271886020898818969726562500 0.017052849754691123962402343750 -0.048520348966121673583984375000 -0.000254617072641849517822265625 -0.033165235072374343872070312500 -0.113917171955108642578125000000 -0.070201635360717773437500000000 -0.023737629875540733337402343750 -0.044942811131477355957031250000 -0.048792466521263122558593750000 -0.025973848998546600341796875000 -0.079334974288940429687500000000 -0.003796296427026391029357910156 -0.003012524684891104698181152344 -0.035104658454656600952148437500 0.036454644054174423217773437500 -0.026677902787923812866210937500 -0.070981696248054504394531250000 -0.064947441220283508300781250000 -0.053172707557678222656250000000 -0.130142316222190856933593750000 -0.136548236012458801269531250000 -0.020892975851893424987792968750 -0.028835261240601539611816406250 -0.036071293056011199951171875000 -0.059708375483751296997070312500 -0.048329625278711318969726562500 -0.041517119854688644409179687500 0.000415912829339504241943359375 0.046433772891759872436523437500 -0.035063020884990692138671875000 -0.060687303543090820312500000000 -0.070777490735054016113281250000 -0.042533196508884429931640625000 -0.081935591995716094970703125000 -0.044630594551563262939453125000 -0.074536338448524475097656250000 -0.006792003754526376724243164062 -0.047483198344707489013671875000 -0.066500172019004821777343750000 -0.077942416071891784667968750000 -0.032772161066532135009765625000 -0.009162721224129199981689453125 -0.020152600482106208801269531250 -0.021345874294638633728027343750 -0.044179107993841171264648437500 -0.088661134243011474609375000000 -0.000496360007673501968383789062 0.000372759241145104169845581055 -0.076417721807956695556640625000 -0.026874404400587081909179687500 -0.035008016973733901977539062500 0.009053977206349372863769531250 -0.092732787132263183593750000000 -0.008645647205412387847900390625 -0.018901851028203964233398437500 -0.074124351143836975097656250000 0.026593822985887527465820312500 -0.042107518762350082397460937500 -0.016800262033939361572265625000 -0.048636525869369506835937500000 -0.061972808092832565307617187500 -0.017069574445486068725585937500 -0.065466515719890594482421875000 -0.025504477322101593017578125000 -0.043806768953800201416015625000 -0.071606822311878204345703125000 -0.015145929530262947082519531250 -0.059273194521665573120117187500 0.003302040975540876388549804688 -0.001041707815602421760559082031 -0.002290658187121152877807617188 -0.041064769029617309570312500000 -0.047037810087203979492187500000 -0.013623091392219066619873046875 0.031218212097883224487304687500 0.006263998802751302719116210938 -0.043326150625944137573242187500 -0.057277992367744445800781250000 -0.048992265015840530395507812500 -0.030546020716428756713867187500 -0.013470147736370563507080078125 -0.032814487814903259277343750000 -0.063076771795749664306640625000 -0.033857382833957672119140625000 0.000544036214705556631088256836 -0.030608501285314559936523437500 -0.069245859980583190917968750000 -0.037317629903554916381835937500 -0.079197406768798828125000000000 -0.102495871484279632568359375000 -0.058217976242303848266601562500 -0.001015716465190052986145019531 -0.043085776269435882568359375000 -0.043874915689229965209960937500 -0.038347095251083374023437500000 -0.016698796302080154418945312500 -0.037578925490379333496093750000 -0.046995870769023895263671875000 -0.048249416053295135498046875000 -0.044235486537218093872070312500 -0.027872160077095031738281250000 -0.041289336979389190673828125000 -0.096041664481163024902343750000 -0.049471758306026458740234375000 -0.002225078875198960304260253906 -0.056270338594913482666015625000 -0.035721309483051300048828125000 -0.025759564712643623352050781250 -0.055810432881116867065429687500 0.041049394756555557250976562500 -0.055947352200746536254882812500 -0.070175655186176300048828125000 0.033686440438032150268554687500 -0.028705947101116180419921875000 -0.029190838336944580078125000000 -0.022898014634847640991210937500 -0.034586936235427856445312500000 0.020676823332905769348144531250 -0.061365757137537002563476562500 -0.106942795217037200927734375000 -0.061386309564113616943359375000 -0.002673299983143806457519531250 -0.049827355891466140747070312500 -0.037100534886121749877929687500 0.008435831405222415924072265625 -0.037541538476943969726562500000 -0.070358477532863616943359375000 -0.101510696113109588623046875000 -0.010445712134242057800292968750 -0.090747572481632232666015625000 -0.054425515234470367431640625000 -0.051166489720344543457031250000 -0.089807957410812377929687500000 0.004704529885202646255493164062 -0.071055769920349121093750000000 -0.009871330112218856811523437500 -0.027500502765178680419921875000 -0.053298186510801315307617187500 -0.020864732563495635986328125000 -0.022816745564341545104980468750 -0.017875133082270622253417968750 -0.119912773370742797851562500000 -0.055891212075948715209960937500 -0.035900041460990905761718750000 -0.034575402736663818359375000000 -0.034240290522575378417968750000 -0.023865623399615287780761718750 -0.073313958942890167236328125000 0.009427794255316257476806640625 -0.047374546527862548828125000000 -0.159553959965705871582031250000 -0.033098325133323669433593750000 -0.039052568376064300537109375000 -0.040502436459064483642578125000 -0.047250945121049880981445312500 -0.002079465892165899276733398438 -0.035938210785388946533203125000 -0.022072566673159599304199218750 -0.013354597613215446472167968750 -0.033336400985717773437500000000 -0.112760163843631744384765625000 -0.035921134054660797119140625000 -0.074856609106063842773437500000 -0.032686952501535415649414062500 -0.074175372719764709472656250000 -0.035343702882528305053710937500 -0.037369806319475173950195312500 -0.083460800349712371826171875000 -0.056077089160680770874023437500 -0.057173680514097213745117187500 -0.091755457222461700439453125000 -0.001558388117700815200805664062 -0.088233500719070434570312500000 -0.100676722824573516845703125000 -0.052893020212650299072265625000 -0.053229998797178268432617187500 -0.022021733224391937255859375000 -0.090542905032634735107421875000 -0.049714408814907073974609375000 -0.031386900693178176879882812500 -0.051534790545701980590820312500 -0.027133284136652946472167968750 -0.004912896547466516494750976562 -0.002106309868395328521728515625 0.002909144852310419082641601562 -0.032637275755405426025390625000 -0.006176725961267948150634765625 -0.029916869476437568664550781250 -0.095658913254737854003906250000 -0.054710537195205688476562500000 -0.002662071026861667633056640625 0.011564049869775772094726562500 0.008697037585079669952392578125 -0.032911635935306549072265625000 -0.065436042845249176025390625000 -0.094474367797374725341796875000 -0.034403901547193527221679687500 -0.064039967954158782958984375000 0.003351027844473719596862792969 -0.088024474680423736572265625000 -0.021431580185890197753906250000 0.033846236765384674072265625000 -0.033583462238311767578125000000 -0.073210470378398895263671875000 -0.042264655232429504394531250000 -0.045414239168167114257812500000 -0.092907600104808807373046875000 -0.008786574937403202056884765625 -0.058356899768114089965820312500 -0.035999998450279235839843750000 -0.038507677614688873291015625000 -0.047656197100877761840820312500 -0.071504823863506317138671875000 -0.062113560736179351806640625000 -0.034753270447254180908203125000 -0.030793529003858566284179687500 -0.010182558558881282806396484375 -0.010491231456398963928222656250 0.022017404437065124511718750000 0.003294027876108884811401367188 -0.046000100672245025634765625000 -0.057680319994688034057617187500 -0.084386937320232391357421875000 -0.064814031124114990234375000000 -0.040808580815792083740234375000 -0.082392029464244842529296875000 -0.008548915386199951171875000000 -0.080317646265029907226562500000 -0.006518535781651735305786132812 -0.016982519999146461486816406250 -0.129697620868682861328125000000 -0.012689669616520404815673828125 -0.075190775096416473388671875000 -0.047152802348136901855468750000 -0.041782855987548828125000000000 -0.111839629709720611572265625000 -0.016031339764595031738281250000 -0.038228124380111694335937500000 -0.091132141649723052978515625000 -0.081886723637580871582031250000 -0.038713082671165466308593750000 -0.037300243973731994628906250000 -0.014041683636605739593505859375 -0.089717388153076171875000000000 -0.094088360667228698730468750000 -0.079955093562602996826171875000 -0.052661124616861343383789062500 -0.074751824140548706054687500000 -0.020395185798406600952148437500 -0.004673879593610763549804687500 -0.045413412153720855712890625000 -0.107149459421634674072265625000 -0.078522436320781707763671875000 -0.028426241129636764526367187500 -0.093961991369724273681640625000 -0.033869966864585876464843750000 -0.063658818602561950683593750000 -0.046826176345348358154296875000 -0.098166517913341522216796875000 -0.020206470042467117309570312500 0.005781320389360189437866210938 -0.036636289209127426147460937500 -0.071618169546127319335937500000 -0.074664443731307983398437500000 -0.086644932627677917480468750000 -0.038069605827331542968750000000 -0.048950050026178359985351562500 -0.021885752677917480468750000000 -0.067556351423263549804687500000 -0.048249162733554840087890625000 -0.051231235265731811523437500000 -0.074022375047206878662109375000 -0.019899008795619010925292968750 -0.056516185402870178222656250000 -0.036213126033544540405273437500 -0.152160316705703735351562500000 -0.065821729600429534912109375000 -0.096785798668861389160156250000 -0.017687212675809860229492187500 -0.031763199716806411743164062500 -0.054078403860330581665039062500 -0.129655271768569946289062500000 -0.112482555210590362548828125000 -0.067866593599319458007812500000 0.016955373808741569519042968750 -0.104650445282459259033203125000 -0.186148703098297119140625000000 -0.094991900026798248291015625000 -0.055952008813619613647460937500 -0.076426580548286437988281250000 -0.013482218608260154724121093750 0.006573811173439025878906250000 -0.031030904501676559448242187500 -0.046929776668548583984375000000 -0.094833441078662872314453125000 -0.069828867912292480468750000000 -0.003750856500118970870971679688 -0.054431654512882232666015625000 -0.010536069050431251525878906250 -0.056448057293891906738281250000 -0.027461931109428405761718750000 -0.102287262678146362304687500000 -0.048351563513278961181640625000 -0.021799603477120399475097656250 -0.015925347805023193359375000000 0.036606047302484512329101562500 0.023006318137049674987792968750 0.000872630800586193799972534180 -0.027385011315345764160156250000 -0.063065484166145324707031250000 -0.161202043294906616210937500000 -0.103334441781044006347656250000 -0.097095556557178497314453125000 -0.097787961363792419433593750000 -0.005045973230153322219848632812 -0.062076482921838760375976562500 -0.023401809856295585632324218750 -0.022339159622788429260253906250 -0.062509953975677490234375000000 -0.071825839579105377197265625000 -0.051288802176713943481445312500 -0.078343547880649566650390625000 -0.041001632809638977050781250000 -0.163402467966079711914062500000 -0.134702429175376892089843750000 -0.035723783075809478759765625000 -0.072355650365352630615234375000 0.031029507517814636230468750000 -0.008052626624703407287597656250 -0.097857892513275146484375000000 -0.091745823621749877929687500000 -0.060733877122402191162109375000 -0.063650324940681457519531250000 0.003808077890425920486450195312 -0.045007247477769851684570312500 -0.063861750066280364990234375000 -0.087946824729442596435546875000 0.015341100282967090606689453125 -0.047998342663049697875976562500 -0.027691537514328956604003906250 -0.153868719935417175292968750000 -0.099613055586814880371093750000 -0.079847730696201324462890625000 -0.033494222909212112426757812500 -0.050616029649972915649414062500 -0.089355930685997009277343750000 -0.050641652196645736694335937500 -0.045576684176921844482421875000 -0.010833763517439365386962890625 -0.050239328294992446899414062500 -0.063982248306274414062500000000 -0.000743052980396896600723266602 -0.046847194433212280273437500000 -0.021806893870234489440917968750 -0.021698458120226860046386718750 -0.115315280854701995849609375000 -0.059410717338323593139648437500 -0.061129692941904067993164062500 -0.081137403845787048339843750000 -0.079223774373531341552734375000 -0.110096082091331481933593750000 -0.041189562529325485229492187500 -0.073270753026008605957031250000 -0.048937927931547164916992187500 -0.079325586557388305664062500000 -0.009316262789070606231689453125 -0.015551825985312461853027343750 -0.067615002393722534179687500000 -0.075323209166526794433593750000 0.024545006453990936279296875000 -0.060853641480207443237304687500 -0.045646447688341140747070312500 -0.079875178635120391845703125000 -0.034240439534187316894531250000 -0.071751087903976440429687500000 -0.048412684351205825805664062500 -0.014695943333208560943603515625 -0.066309094429016113281250000000 0.005418429616838693618774414062 -0.042615938931703567504882812500 -0.061767276376485824584960937500 -0.093929290771484375000000000000 -0.072356253862380981445312500000 0.003046402242034673690795898438 -0.039240114390850067138671875000 -0.060885492712259292602539062500 -0.078568331897258758544921875000 -0.003001932520419359207153320312 -0.028455387800931930541992187500 -0.061282109469175338745117187500 -0.051502123475074768066406250000 -0.089893363416194915771484375000 -0.133367851376533508300781250000 -0.082480102777481079101562500000 -0.017399648204445838928222656250 -0.066385790705680847167968750000 -0.086049072444438934326171875000 -0.072895102202892303466796875000 -0.022184427827596664428710937500 -0.073731757700443267822265625000 -0.053669780492782592773437500000 -0.110257476568222045898437500000 -0.047973360866308212280273437500 -0.068017795681953430175781250000 -0.062671452760696411132812500000 -0.066804260015487670898437500000 -0.000076798009104095399379730225 0.024741865694522857666015625000 -0.046080078929662704467773437500 -0.033919189125299453735351562500 -0.037127498537302017211914062500 -0.028305057436227798461914062500 -0.093455784022808074951171875000 -0.069739282131195068359375000000 -0.103380121290683746337890625000 -0.049581035971641540527343750000 -0.083807408809661865234375000000 -0.075376197695732116699218750000 -0.066078491508960723876953125000 -0.011674790643155574798583984375 -0.028012029826641082763671875000 -0.053719472140073776245117187500 -0.020258760079741477966308593750 -0.092039316892623901367187500000 -0.095650851726531982421875000000 -0.055927354842424392700195312500 0.008296350017189979553222656250 -0.013626259751617908477783203125 -0.043106526136398315429687500000 -0.043135315179824829101562500000 -0.050619121640920639038085937500 -0.095189586281776428222656250000 -0.074996411800384521484375000000 -0.094013564288616180419921875000 -0.025763096287846565246582031250 -0.064599655568599700927734375000 -0.081721544265747070312500000000 0.000983493984676897525787353516 -0.127732068300247192382812500000 -0.076809644699096679687500000000 -0.048322364687919616699218750000 -0.063594982028007507324218750000 -0.045641858130693435668945312500 -0.036055725067853927612304687500 -0.050681803375482559204101562500 -0.018763404339551925659179687500 -0.042238108813762664794921875000 -0.068069174885749816894531250000 -0.058593705296516418457031250000 -0.003220563754439353942871093750 -0.038901116698980331420898437500 -0.091364949941635131835937500000 -0.067718058824539184570312500000 -0.077486433088779449462890625000 0.007664618082344532012939453125 -0.124465800821781158447265625000 -0.091388948261737823486328125000 -0.041870433837175369262695312500 -0.094781488180160522460937500000 -0.081817902624607086181640625000 -0.049827154725790023803710937500 -0.066416651010513305664062500000 -0.050927922129631042480468750000 -0.002977863652631640434265136719 0.006572439800947904586791992188 -0.036397553980350494384765625000 -0.012587165459990501403808593750 -0.050621885806322097778320312500 -0.051060907542705535888671875000 -0.046565435826778411865234375000 0.006957671605050563812255859375 -0.056902334094047546386718750000 -0.054847307503223419189453125000 -0.070663414895534515380859375000 -0.158968195319175720214843750000 -0.089553512632846832275390625000 -0.078311726450920104980468750000 0.016728417947888374328613281250 -0.126880392432212829589843750000 -0.080144479870796203613281250000 -0.079784318804740905761718750000 -0.072887904942035675048828125000 -0.050215207040309906005859375000 -0.094030924141407012939453125000 -0.122880801558494567871093750000 -0.107777804136276245117187500000 -0.039755161851644515991210937500 -0.123130969703197479248046875000 -0.038840066641569137573242187500 -0.049210179597139358520507812500 -0.119759358465671539306640625000 -0.085522942245006561279296875000 -0.089558243751525878906250000000 -0.069244258105754852294921875000 -0.023704739287495613098144531250 -0.046148251742124557495117187500 -0.152263954281806945800781250000 -0.085952334105968475341796875000 -0.029252218082547187805175781250 -0.055051539093255996704101562500 -0.050156012177467346191406250000 -0.100859567523002624511718750000 -0.074279285967350006103515625000 -0.036118023097515106201171875000 -0.079774916172027587890625000000 -0.061139717698097229003906250000 -0.091215774416923522949218750000 -0.028728382661938667297363281250 -0.077880263328552246093750000000 -0.101757347583770751953125000000 -0.072089977562427520751953125000 -0.048993796110153198242187500000 -0.005412794183939695358276367188 -0.004327485803514719009399414062 -0.072491869330406188964843750000 -0.000480281101772561669349670410 -0.009348706342279911041259765625 -0.062491364777088165283203125000 -0.071099810302257537841796875000 -0.061552602797746658325195312500 -0.009349546395242214202880859375 -0.077210061252117156982421875000 -0.078427337110042572021484375000 -0.064728580415248870849609375000 -0.071669422090053558349609375000 -0.040979955345392227172851562500 0.012955904006958007812500000000 -0.060410521924495697021484375000 -0.060900881886482238769531250000 -0.070791639387607574462890625000 -0.043068043887615203857421875000 -0.060079615563154220581054687500 -0.027636453509330749511718750000 -0.066742300987243652343750000000 -0.026522681117057800292968750000 -0.054436393082141876220703125000 -0.094848997890949249267578125000 -0.097746834158897399902343750000 -0.062257021665573120117187500000 -0.009054842405021190643310546875 -0.089379452168941497802734375000 -0.070265538990497589111328125000 -0.065515652298927307128906250000 -0.038538929075002670288085937500 -0.059097275137901306152343750000 -0.049725007265806198120117187500 -0.074287272989749908447265625000 -0.026842435821890830993652343750 -0.058243542909622192382812500000 -0.026544410735368728637695312500 -0.041968014091253280639648437500 -0.043141700327396392822265625000 -0.085774414241313934326171875000 -0.127404347062110900878906250000 -0.028266781941056251525878906250 -0.093817390501499176025390625000 -0.029902365058660507202148437500 -0.015597247518599033355712890625 -0.001672384678386151790618896484 -0.064504668116569519042968750000 -0.049369338899850845336914062500 -0.030483841896057128906250000000 0.032810930162668228149414062500 -0.056639127433300018310546875000 -0.054995168000459671020507812500 -0.014720317907631397247314453125 -0.055226363241672515869140625000 -0.056104436516761779785156250000 -0.034790143370628356933593750000 -0.052309777587652206420898437500 -0.075292602181434631347656250000 -0.018733015283942222595214843750 -0.044720619916915893554687500000 -0.058806765824556350708007812500 -0.101539976894855499267578125000 -0.034606181085109710693359375000 -0.088910020887851715087890625000 -0.102399758994579315185546875000 -0.033429343253374099731445312500 -0.097185574471950531005859375000 -0.031492557376623153686523437500 -0.042357578873634338378906250000 -0.017338955774903297424316406250 -0.066961050033569335937500000000 -0.041338752955198287963867187500 -0.124189868569374084472656250000 -0.010711015202105045318603515625 -0.058154176920652389526367187500 -0.037672989070415496826171875000 -0.018593937158584594726562500000 -0.019740052521228790283203125000 -0.016868362203240394592285156250 -0.026847528293728828430175781250 -0.048020485788583755493164062500 -0.063893057405948638916015625000 -0.016276586800813674926757812500 -0.140645533800125122070312500000 0.030584376305341720581054687500 -0.099729456007480621337890625000 -0.007212657481431961059570312500 -0.095009796321392059326171875000 -0.058120641857385635375976562500 -0.050092320889234542846679687500 -0.164579674601554870605468750000 -0.079486005008220672607421875000 -0.044652674347162246704101562500 -0.059283088892698287963867187500 0.002380392281338572502136230469 -0.017180239781737327575683593750 -0.066807284951210021972656250000 -0.033216722309589385986328125000 -0.037512898445129394531250000000 -0.081919014453887939453125000000 -0.026659194380044937133789062500 -0.024353714659810066223144531250 -0.066514268517494201660156250000 -0.047982107847929000854492187500 -0.102366141974925994873046875000 -0.085348419845104217529296875000 -0.051486782729625701904296875000 -0.170321136713027954101562500000 -0.048093326389789581298828125000 -0.094212427735328674316406250000 -0.058708548545837402343750000000 -0.088898763060569763183593750000 -0.074729144573211669921875000000 -0.145020186901092529296875000000 -0.068662710487842559814453125000 -0.045182049274444580078125000000 -0.072486735880374908447265625000 -0.141708105802536010742187500000 -0.082904420793056488037109375000 -0.026218183338642120361328125000 -0.069842696189880371093750000000 -0.055148996412754058837890625000 -0.074762307107448577880859375000 -0.033011008054018020629882812500 -0.038791313767433166503906250000 -0.055361356586217880249023437500 -0.097819194197654724121093750000 -0.078686825931072235107421875000 -0.046508397907018661499023437500 -0.090879783034324645996093750000 -0.047128450125455856323242187500 -0.061791352927684783935546875000 -0.030654415488243103027343750000 -0.062164582312107086181640625000 -0.048007078468799591064453125000 -0.047939818352460861206054687500 -0.104382686316967010498046875000 -0.077545300126075744628906250000 -0.061929840594530105590820312500 -0.068350806832313537597656250000 -0.065431490540504455566406250000 -0.078228838741779327392578125000 -0.088402695953845977783203125000 -0.067161090672016143798828125000 -0.112234622240066528320312500000 -0.093368142843246459960937500000 -0.088715180754661560058593750000 -0.094180382788181304931640625000 0.012521688826382160186767578125 -0.038995239883661270141601562500 -0.034043092280626296997070312500 -0.041917901486158370971679687500 -0.068492591381072998046875000000 -0.044013164937496185302734375000 -0.074612185359001159667968750000 -0.058052301406860351562500000000 -0.098549231886863708496093750000 -0.082425102591514587402343750000 -0.066503338515758514404296875000 -0.071467347443103790283203125000 -0.157834440469741821289062500000 -0.055648390203714370727539062500 -0.091330528259277343750000000000 -0.122599795460700988769531250000 -0.036359809339046478271484375000 -0.053432680666446685791015625000 -0.134905904531478881835937500000 -0.055271688848733901977539062500 -0.037515755742788314819335937500 -0.046023949980735778808593750000 -0.058486677706241607666015625000 -0.076374426484107971191406250000 -0.020110722631216049194335937500 -0.075496502220630645751953125000 -0.099309250712394714355468750000 -0.073177516460418701171875000000 -0.026011200621724128723144531250 -0.104965522885322570800781250000 -0.056916631758213043212890625000 -0.064769595861434936523437500000 -0.034366469830274581909179687500 -0.072460174560546875000000000000 -0.052255548536777496337890625000 -0.078385822474956512451171875000 -0.084129527211189270019531250000 -0.046915244311094284057617187500 -0.053839869797229766845703125000 -0.109954223036766052246093750000 -0.061866015195846557617187500000 -0.032357439398765563964843750000 -0.048429593443870544433593750000 -0.044985324144363403320312500000 0.010037961415946483612060546875 -0.039387609809637069702148437500 -0.043082673102617263793945312500 -0.025693431496620178222656250000 -0.127929955720901489257812500000 -0.089414559304714202880859375000 -0.073944047093391418457031250000 -0.124702215194702148437500000000 -0.074114382266998291015625000000 -0.013989279977977275848388671875 -0.067177571356296539306640625000 -0.093467690050601959228515625000 -0.038795307278633117675781250000 -0.104536764323711395263671875000 -0.071617797017097473144531250000 -0.056338209658861160278320312500 -0.040750939399003982543945312500 -0.036840409040451049804687500000 -0.063383199274539947509765625000 -0.023929351940751075744628906250 -0.090862676501274108886718750000 -0.083944849669933319091796875000 -0.057291518896818161010742187500 -0.073027648031711578369140625000 -0.088589727878570556640625000000 0.007932036183774471282958984375 -0.104956544935703277587890625000 -0.037921197712421417236328125000 -0.067432098090648651123046875000 0.024390531703829765319824218750 -0.052515737712383270263671875000 -0.119371406733989715576171875000 -0.033814463764429092407226562500 -0.071811206638813018798828125000 -0.082589127123355865478515625000 -0.051401581615209579467773437500 -0.036834016442298889160156250000 -0.050030708312988281250000000000 -0.073720924556255340576171875000 -0.075734250247478485107421875000 -0.072809219360351562500000000000 -0.072992980480194091796875000000 -0.085417948663234710693359375000 -0.043945997953414916992187500000 -0.067528791725635528564453125000 -0.061176903545856475830078125000 0.021867210045456886291503906250 -0.044697117060422897338867187500 -0.015184952877461910247802734375 -0.106917500495910644531250000000 -0.027452619746327400207519531250 -0.093867629766464233398437500000 -0.112271033227443695068359375000 -0.006631456315517425537109375000 -0.048684515058994293212890625000 -0.029747581109404563903808593750 -0.018894113600254058837890625000 -0.070003792643547058105468750000 -0.080974020063877105712890625000 -0.070353850722312927246093750000 -0.002005760325118899345397949219 -0.051683317869901657104492187500 -0.053776077926158905029296875000 -0.110141716897487640380859375000 -0.039226230233907699584960937500 -0.097168616950511932373046875000 -0.070948034524917602539062500000 -0.145315080881118774414062500000 -0.164792314171791076660156250000 -0.061321333050727844238281250000 -0.103379607200622558593750000000 -0.046387474983930587768554687500 -0.045539889484643936157226562500 -0.087776497006416320800781250000 -0.043958585709333419799804687500 -0.035941693931818008422851562500 -0.006223927717655897140502929688 -0.081736207008361816406250000000 -0.098281189799308776855468750000 -0.093666352331638336181640625000 -0.017448687925934791564941406250 -0.064953096210956573486328125000 -0.105602048337459564208984375000 -0.118941485881805419921875000000 -0.044642493128776550292968750000 -0.041628103703260421752929687500 -0.146466344594955444335937500000 -0.123550787568092346191406250000 -0.038132499903440475463867187500 0.019483918324112892150878906250 -0.082691714167594909667968750000 -0.121623694896697998046875000000 -0.045627489686012268066406250000 -0.085670888423919677734375000000 -0.026706963777542114257812500000 -0.086001388728618621826171875000 -0.065546497702598571777343750000 -0.085324078798294067382812500000 -0.077272623777389526367187500000 -0.082009814679622650146484375000 -0.138601809740066528320312500000 -0.045565750449895858764648437500 -0.081110201776027679443359375000 -0.005117665044963359832763671875 -0.075719691812992095947265625000 -0.106109321117401123046875000000 -0.055247206240892410278320312500 -0.128857046365737915039062500000 -0.085305161774158477783203125000 -0.087859794497489929199218750000 -0.120979808270931243896484375000 -0.066093653440475463867187500000 0.000677808595355600118637084961 -0.068083815276622772216796875000 -0.079050272703170776367187500000 -0.077011696994304656982421875000 -0.084744445979595184326171875000 -0.051654219627380371093750000000 -0.020945174619555473327636718750 -0.021372588351368904113769531250 -0.128943637013435363769531250000 -0.048130348324775695800781250000 -0.069642245769500732421875000000 -0.053615886718034744262695312500 -0.079130463302135467529296875000 -0.104506805539131164550781250000 -0.054800122976303100585937500000 -0.102226391434669494628906250000 -0.083618901669979095458984375000 -0.062419191002845764160156250000 -0.084194622933864593505859375000 -0.030272405594587326049804687500 -0.005121137946844100952148437500 -0.045487429946660995483398437500 -0.037404220551252365112304687500 -0.085346683859825134277343750000 -0.042345855385065078735351562500 -0.047032017260789871215820312500 -0.071778781712055206298828125000 -0.018911004066467285156250000000 -0.118461757898330688476562500000 -0.102563798427581787109375000000 -0.048472322523593902587890625000 -0.088025301694869995117187500000 -0.103922575712203979492187500000 -0.074833922088146209716796875000 -0.093338474631309509277343750000 -0.049778230488300323486328125000 -0.102184444665908813476562500000 -0.109114162623882293701171875000 -0.005288881249725818634033203125 -0.055179864168167114257812500000 -0.097301661968231201171875000000 0.001991580007597804069519042969 -0.006411533337086439132690429688 -0.095704719424247741699218750000 -0.048896841704845428466796875000 -0.066738523542881011962890625000 -0.089208550751209259033203125000 0.010951322503387928009033203125 -0.117408424615859985351562500000 -0.059806432574987411499023437500 -0.060729466378688812255859375000 -0.064754553139209747314453125000 -0.118265993893146514892578125000 -0.125283986330032348632812500000 -0.102798290550708770751953125000 -0.106995187699794769287109375000 -0.095224045217037200927734375000 -0.031461205333471298217773437500 -0.085350692272186279296875000000 -0.156757712364196777343750000000 -0.055969215929508209228515625000 -0.026106338948011398315429687500 0.000214529485674574971199035645 -0.048949923366308212280273437500 -0.120267637073993682861328125000 -0.076907731592655181884765625000 -0.004354998935014009475708007812 -0.076932966709136962890625000000 -0.098997175693511962890625000000 -0.111816503107547760009765625000 -0.107261791825294494628906250000 -0.046003457158803939819335937500 0.023376125842332839965820312500 -0.085892692208290100097656250000 0.012890893034636974334716796875 -0.034207217395305633544921875000 -0.037904933094978332519531250000 -0.049614768475294113159179687500 0.002266642637550830841064453125 -0.055216327309608459472656250000 -0.101664915680885314941406250000 -0.028738744556903839111328125000 -0.078004501760005950927734375000 -0.071800418198108673095703125000 -0.046039529144763946533203125000 -0.059947840869426727294921875000 -0.066518291831016540527343750000 -0.027900189161300659179687500000 -0.020105384290218353271484375000 -0.084649346768856048583984375000 -0.021607242524623870849609375000 -0.035929176956415176391601562500 -0.036366153508424758911132812500 -0.073376677930355072021484375000 -0.127835512161254882812500000000 -0.094723634421825408935546875000 -0.070229962468147277832031250000 -0.019941566511988639831542968750 -0.067384637892246246337890625000 -0.131416514515876770019531250000 -0.080871902406215667724609375000 -0.007400379516184329986572265625 -0.062644794583320617675781250000 -0.036349110305309295654296875000 -0.121082931756973266601562500000 -0.027999026700854301452636718750 -0.039795774966478347778320312500 -0.036342572420835494995117187500 -0.104055486619472503662109375000 -0.095366179943084716796875000000 -0.071878217160701751708984375000 -0.016761764883995056152343750000 -0.064814031124114990234375000000 -0.047924812883138656616210937500 -0.081652529537677764892578125000 -0.068229787051677703857421875000 -0.105056248605251312255859375000 -0.059996329247951507568359375000 -0.088025093078613281250000000000 -0.022542841732501983642578125000 -0.073809690773487091064453125000 -0.073138043284416198730468750000 -0.098531901836395263671875000000 -0.072810217738151550292968750000 -0.104866333305835723876953125000 -0.078178040683269500732421875000 -0.121034860610961914062500000000 -0.112763710319995880126953125000 -0.072278797626495361328125000000 -0.063590921461582183837890625000 -0.050805129110813140869140625000 -0.054311510175466537475585937500 -0.090755276381969451904296875000 0.013697992078959941864013671875 -0.085936799645423889160156250000 -0.083128288388252258300781250000 -0.057300049811601638793945312500 -0.107009351253509521484375000000 -0.067108616232872009277343750000 -0.081174470484256744384765625000 -0.086387239396572113037109375000 -0.082716494798660278320312500000 -0.091520220041275024414062500000 -0.116377249360084533691406250000 -0.022826489061117172241210937500 -0.056300163269042968750000000000 -0.079021081328392028808593750000 -0.088220767676830291748046875000 -0.027661286294460296630859375000 -0.037488885223865509033203125000 -0.047844097018241882324218750000 0.004591017961502075195312500000 -0.123134173452854156494140625000 -0.061819270253181457519531250000 -0.046595536172389984130859375000 -0.133826613426208496093750000000 -0.077717557549476623535156250000 -0.114392518997192382812500000000 -0.061146564781665802001953125000 -0.060851842164993286132812500000 -0.039070270955562591552734375000 -0.042268201708793640136718750000 -0.050798818469047546386718750000 -0.060373656451702117919921875000 -0.029206577688455581665039062500 -0.088631480932235717773437500000 -0.043591372668743133544921875000 -0.097521901130676269531250000000 -0.041814781725406646728515625000 -0.070867113769054412841796875000 -0.049769803881645202636718750000 -0.049439162015914916992187500000 -0.097634911537170410156250000000 -0.118986375629901885986328125000 -0.039523992687463760375976562500 -0.073776356875896453857421875000 -0.085455238819122314453125000000 -0.130025148391723632812500000000 -0.060178305953741073608398437500 -0.108998820185661315917968750000 -0.076637372374534606933593750000 -0.093152545392513275146484375000 -0.047135084867477416992187500000 -0.069908082485198974609375000000 -0.078950181603431701660156250000 -0.041684389114379882812500000000 -0.063411064445972442626953125000 -0.053996648639440536499023437500 -0.004990004934370517730712890625 -0.070739313960075378417968750000 -0.007508155424147844314575195312 -0.073407858610153198242187500000 -0.050924308598041534423828125000 -0.070744022727012634277343750000 -0.087825298309326171875000000000 -0.062835127115249633789062500000 -0.012969745323061943054199218750 -0.076252907514572143554687500000 -0.078355886042118072509765625000 -0.089577466249465942382812500000 0.004832468926906585693359375000 -0.074251547455787658691406250000 -0.053559038788080215454101562500 -0.081354416906833648681640625000 -0.082086607813835144042968750000 -0.050408344715833663940429687500 -0.055933311581611633300781250000 -0.107519358396530151367187500000 -0.058105878531932830810546875000 -0.164625152945518493652343750000 -0.068175844848155975341796875000 -0.029584262520074844360351562500 -0.128710955381393432617187500000 -0.099365025758743286132812500000 -0.056839622557163238525390625000 -0.086814492940902709960937500000 -0.067619040608406066894531250000 -0.032391447573900222778320312500 -0.006127730943262577056884765625 -0.091540709137916564941406250000 -0.026788851246237754821777343750 -0.104621671140193939208984375000 -0.044452656060457229614257812500 0.026458533480763435363769531250 -0.083178050816059112548828125000 -0.099159859120845794677734375000 -0.114150196313858032226562500000 -0.088438019156455993652343750000 -0.134124800562858581542968750000 -0.059336327016353607177734375000 -0.022884767502546310424804687500 -0.011896636337041854858398437500 -0.108954645693302154541015625000 -0.078289180994033813476562500000 -0.101927816867828369140625000000 -0.047959297895431518554687500000 -0.103030011057853698730468750000 -0.047238394618034362792968750000 -0.074267148971557617187500000000 -0.127029180526733398437500000000 -0.106691561639308929443359375000 -0.107207037508487701416015625000 -0.007370503153651952743530273438 -0.064444132149219512939453125000 -0.107492260634899139404296875000 -0.080166369676589965820312500000 -0.051469631493091583251953125000 -0.096991911530494689941406250000 -0.088786363601684570312500000000 -0.109783932566642761230468750000 -0.097362428903579711914062500000 -0.066438853740692138671875000000 -0.024834262207150459289550781250 -0.092026241123676300048828125000 -0.040523033589124679565429687500 -0.061271972954273223876953125000 -0.133051782846450805664062500000 -0.045262198895215988159179687500 -0.068420819938182830810546875000 -0.093554027378559112548828125000 -0.107797339558601379394531250000 -0.097054764628410339355468750000 -0.060417272150516510009765625000 -0.077300004661083221435546875000 -0.148243606090545654296875000000 -0.060481797903776168823242187500 -0.134032815694808959960937500000 -0.058459017425775527954101562500 -0.071426950395107269287109375000 -0.054842598736286163330078125000 -0.105495810508728027343750000000 -0.064075395464897155761718750000 -0.053524617105722427368164062500 -0.050635918974876403808593750000 -0.058773651719093322753906250000 -0.043171439319849014282226562500 -0.003665511962026357650756835938 -0.063791796565055847167968750000 -0.047895189374685287475585937500 -0.080920673906803131103515625000 -0.112438112497329711914062500000 -0.163672238588333129882812500000 -0.106179594993591308593750000000 -0.139699175953865051269531250000 -0.042097341269254684448242187500 -0.069466032087802886962890625000 -0.084601171314716339111328125000 -0.057738274335861206054687500000 -0.055441550910472869873046875000 -0.135105296969413757324218750000 -0.095415227115154266357421875000 -0.084453172981739044189453125000 -0.109389871358871459960937500000 -0.040716566145420074462890625000 -0.087379068136215209960937500000 -0.058961566537618637084960937500 -0.068549908697605133056640625000 -0.108833730220794677734375000000 -0.001174458884634077548980712891 -0.111947335302829742431640625000 -0.080588862299919128417968750000 -0.081243991851806640625000000000 -0.083084665238857269287109375000 -0.133271783590316772460937500000 -0.043140165507793426513671875000 -0.051855601370334625244140625000 -0.037016954272985458374023437500 -0.066344484686851501464843750000 -0.028619345277547836303710937500 -0.038796883076429367065429687500 -0.050041712820529937744140625000 -0.043361425399780273437500000000 -0.068159982562065124511718750000 -0.054056242108345031738281250000 -0.055835191160440444946289062500 -0.124377548694610595703125000000 -0.091634415090084075927734375000 -0.090788193047046661376953125000 -0.065940670669078826904296875000 -0.048032831400632858276367187500 -0.118905372917652130126953125000 -0.025435876101255416870117187500 -0.059489917010068893432617187500 -0.136436298489570617675781250000 -0.027377733960747718811035156250 -0.058360230177640914916992187500 -0.048342417925596237182617187500 -0.042035978287458419799804687500 -0.077739529311656951904296875000 -0.017794927582144737243652343750 -0.093080431222915649414062500000 -0.029360730201005935668945312500 -0.077296130359172821044921875000 -0.099701620638370513916015625000 -0.072322241961956024169921875000 -0.067771866917610168457031250000 0.019787434488534927368164062500 -0.088263355195522308349609375000 -0.053322933614253997802734375000 -0.082356512546539306640625000000 -0.063744820654392242431640625000 -0.106725662946701049804687500000 -0.066253200173377990722656250000 -0.079565152525901794433593750000 -0.069029368460178375244140625000 -0.079323351383209228515625000000 -0.130471169948577880859375000000 -0.091223351657390594482421875000 -0.165907889604568481445312500000 -0.083942353725433349609375000000 -0.057427097111940383911132812500 -0.053186707198619842529296875000 -0.108890317380428314208984375000 -0.020222479477524757385253906250 -0.071770720183849334716796875000 -0.048154529184103012084960937500 -0.087640315294265747070312500000 -0.064498148858547210693359375000 -0.076927922666072845458984375000 -0.100405387580394744873046875000 -0.100531361997127532958984375000 -0.092947110533714294433593750000 -0.047342240810394287109375000000 -0.016579261049628257751464843750 -0.069871574640274047851562500000 -0.080405339598655700683593750000 -0.150957614183425903320312500000 -0.028073083609342575073242187500 -0.047006361186504364013671875000 -0.081237792968750000000000000000 -0.108002699911594390869140625000 -0.047940053045749664306640625000 -0.105847120285034179687500000000 -0.018247870728373527526855468750 -0.055995091795921325683593750000 -0.116157628595829010009765625000 -0.030692297965288162231445312500 -0.053866531699895858764648437500 -0.060692846775054931640625000000 -0.065150670707225799560546875000 -0.067102536559104919433593750000 -0.072004184126853942871093750000 -0.048458520323038101196289062500 -0.017172602936625480651855468750 -0.087392769753932952880859375000 -0.038636330515146255493164062500 -0.026794804260134696960449218750 -0.089153498411178588867187500000 -0.102723769843578338623046875000 -0.062920354306697845458984375000 -0.103277035057544708251953125000 -0.034631825983524322509765625000 -0.093901030719280242919921875000 -0.060748767107725143432617187500 -0.122717775404453277587890625000 -0.031052524223923683166503906250 -0.010961234569549560546875000000 -0.062955722212791442871093750000 -0.099326454102993011474609375000 -0.073302172124385833740234375000 -0.079368069767951965332031250000 -0.068659916520118713378906250000 -0.064462982118129730224609375000 -0.039413586258888244628906250000 -0.019933301955461502075195312500 -0.089863963425159454345703125000 -0.057930529117584228515625000000 -0.108977586030960083007812500000 -0.121501646935939788818359375000 -0.096692934632301330566406250000 -0.019062435254454612731933593750 -0.085146315395832061767578125000 -0.010933968238532543182373046875 -0.028156835585832595825195312500 -0.027130339294672012329101562500 -0.036229196935892105102539062500 -0.098184242844581604003906250000 -0.078386522829532623291015625000 -0.183949962258338928222656250000 -0.089343681931495666503906250000 -0.102804660797119140625000000000 -0.158499300479888916015625000000 -0.040462519973516464233398437500 -0.029070593416690826416015625000 -0.061490185558795928955078125000 -0.058885693550109863281250000000 -0.072917021811008453369140625000 -0.018887870013713836669921875000 -0.074455790221691131591796875000 -0.078874185681343078613281250000 -0.028159702196717262268066406250 -0.084170073270797729492187500000 -0.054945893585681915283203125000 -0.097463481128215789794921875000 -0.085823319852352142333984375000 -0.026049418374896049499511718750 -0.083459459245204925537109375000 -0.091450355947017669677734375000 -0.059200152754783630371093750000 -0.081468246877193450927734375000 -0.079680606722831726074218750000 -0.089274831116199493408203125000 -0.134498178958892822265625000000 -0.044019147753715515136718750000 -0.084330230951309204101562500000 -0.042293041944503784179687500000 -0.072219274938106536865234375000 -0.105713792145252227783203125000 -0.093966804444789886474609375000 -0.085984691977500915527343750000 -0.045012932270765304565429687500 -0.090887323021888732910156250000 -0.092626109719276428222656250000 -0.094844155013561248779296875000 -0.059336364269256591796875000000 -0.126039877533912658691406250000 -0.096141889691352844238281250000 -0.084978900849819183349609375000 -0.063875935971736907958984375000 -0.080828629434108734130859375000 -0.025334291160106658935546875000 -0.055538382381200790405273437500 -0.130624890327453613281250000000 -0.076919592916965484619140625000 -0.048155043274164199829101562500 -0.078813187777996063232421875000 -0.124797046184539794921875000000 -0.074749015271663665771484375000 -0.075451277196407318115234375000 -0.114571005105972290039062500000 -0.102061875164508819580078125000 -0.031778968870639801025390625000 -0.064155839383602142333984375000 -0.067222543060779571533203125000 -0.116325631737709045410156250000 -0.079526543617248535156250000000 -0.068263873457908630371093750000 -0.076484911143779754638671875000 -0.160435050725936889648437500000 -0.088551290333271026611328125000 -0.027990214526653289794921875000 -0.100612416863441467285156250000 -0.099628865718841552734375000000 -0.106739021837711334228515625000 -0.074106208980083465576171875000 -0.116223119199275970458984375000 -0.088545836508274078369140625000 -0.036936298012733459472656250000 -0.102753594517707824707031250000 0.026289653033018112182617187500 -0.097488574683666229248046875000 -0.078910253942012786865234375000 -0.054583754390478134155273437500 -0.014651493169367313385009765625 -0.055561497807502746582031250000 -0.060298591852188110351562500000 -0.150997966527938842773437500000 -0.038643553853034973144531250000 -0.080958828330039978027343750000 -0.049327600747346878051757812500 -0.164657101035118103027343750000 -0.132222324609756469726562500000 -0.089400827884674072265625000000 -0.082976117730140686035156250000 -0.127252668142318725585937500000 -0.027826221659779548645019531250 -0.112476468086242675781250000000 -0.094238735735416412353515625000 -0.104827500879764556884765625000 -0.061295554041862487792968750000 -0.090718507766723632812500000000 -0.067873671650886535644531250000 -0.092054411768913269042968750000 -0.087522752583026885986328125000 -0.032465271651744842529296875000 -0.106908254325389862060546875000 -0.104095622897148132324218750000 -0.122284136712551116943359375000 -0.067220531404018402099609375000 -0.077965855598449707031250000000 -0.067669168114662170410156250000 -0.117447480559349060058593750000 -0.116901308298110961914062500000 -0.104533098638057708740234375000 -0.091969795525074005126953125000 -0.045951101928949356079101562500 -0.035847183316946029663085937500 -0.083888173103332519531250000000 -0.029395271092653274536132812500 -0.101169005036354064941406250000 -0.109584756195545196533203125000 -0.096893839538097381591796875000 -0.157569110393524169921875000000 -0.065629623830318450927734375000 -0.100411608815193176269531250000 -0.042383883148431777954101562500 -0.091294981539249420166015625000 -0.102786265313625335693359375000 -0.101876139640808105468750000000 -0.084114991128444671630859375000 -0.117936968803405761718750000000 -0.112179197371006011962890625000 -0.100127689540386199951171875000 -0.089071638882160186767578125000 -0.103143684566020965576171875000 -0.096091061830520629882812500000 -0.079155385494232177734375000000 -0.105131991207599639892578125000 -0.121554948389530181884765625000 -0.106630735099315643310546875000 -0.144364282488822937011718750000 -0.068052664399147033691406250000 -0.181828588247299194335937500000 -0.061692982912063598632812500000 -0.078496403992176055908203125000 -0.072096057236194610595703125000 -0.052934024482965469360351562500 -0.085935249924659729003906250000 -0.115668192505836486816406250000 -0.036603640764951705932617187500 -0.120133377611637115478515625000 -0.128269344568252563476562500000 -0.109642036259174346923828125000 -0.109649486839771270751953125000 -0.010798059403896331787109375000 -0.030731385573744773864746093750 -0.083412624895572662353515625000 -0.055746901780366897583007812500 -0.023087382316589355468750000000 -0.135577052831649780273437500000 -0.064350299537181854248046875000 -0.110920555889606475830078125000 -0.032852668315172195434570312500 -0.138445153832435607910156250000 -0.074768193066120147705078125000 -0.090083181858062744140625000000 -0.065470628440380096435546875000 -0.088631644845008850097656250000 -0.044816534966230392456054687500 -0.097884237766265869140625000000 -0.049137588590383529663085937500 -0.036187369376420974731445312500 -0.090122438967227935791015625000 -0.068750277161598205566406250000 -0.069690726697444915771484375000 -0.077521733939647674560546875000 -0.046052403748035430908203125000 -0.138774111866950988769531250000 -0.083803787827491760253906250000 -0.032591015100479125976562500000 0.011705370619893074035644531250 -0.091774269938468933105468750000 -0.053371526300907135009765625000 -0.120886191725730895996093750000 -0.085195600986480712890625000000 -0.084534235298633575439453125000 -0.117376051843166351318359375000 -0.105474479496479034423828125000 -0.086969807744026184082031250000 -0.047815319150686264038085937500 0.002830206649377942085266113281 -0.090550236403942108154296875000 -0.060437776148319244384765625000 -0.117546796798706054687500000000 -0.058749668300151824951171875000 -0.064179867506027221679687500000 -0.048445452004671096801757812500 -0.034610014408826828002929687500 -0.100620791316032409667968750000 -0.072306714951992034912109375000 -0.063156321644783020019531250000 -0.095311731100082397460937500000 -0.043042335659265518188476562500 -0.051657982170581817626953125000 -0.101547151803970336914062500000 -0.112881019711494445800781250000 -0.059844490140676498413085937500 -0.088047794997692108154296875000 -0.013356270268559455871582031250 -0.164706721901893615722656250000 -0.068499647080898284912109375000 -0.017502883449196815490722656250 -0.087343983352184295654296875000 -0.066440284252166748046875000000 -0.006566240917891263961791992188 -0.072014428675174713134765625000 -0.088602729141712188720703125000 -0.108987115323543548583984375000 -0.098433621227741241455078125000 -0.131298303604125976562500000000 -0.122189931571483612060546875000 -0.067376643419265747070312500000 -0.081806540489196777343750000000 -0.033297259360551834106445312500 -0.093034543097019195556640625000 -0.026518037542700767517089843750 -0.044356767088174819946289062500 -0.074081189930438995361328125000 -0.135299175977706909179687500000 -0.115367263555526733398437500000 -0.048400498926639556884765625000 -0.106730207800865173339843750000 -0.093810275197029113769531250000 -0.064886018633842468261718750000 -0.095300734043121337890625000000 -0.064537301659584045410156250000 0.046594224870204925537109375000 -0.072914391756057739257812500000 -0.086825743317604064941406250000 -0.041555978357791900634765625000 -0.155019372701644897460937500000 -0.066110208630561828613281250000 -0.105249680578708648681640625000 -0.088709674775600433349609375000 -0.103904098272323608398437500000 -0.024944048374891281127929687500 -0.077868789434432983398437500000 -0.071242690086364746093750000000 -0.020656844601035118103027343750 -0.048388414084911346435546875000 -0.122204191982746124267578125000 -0.088670723140239715576171875000 -0.035434734076261520385742187500 -0.016697961837053298950195312500 0.005114733707159757614135742188 -0.108785860240459442138671875000 -0.100998088717460632324218750000 -0.112133800983428955078125000000 -0.117897562682628631591796875000 -0.098264403641223907470703125000 -0.137736067175865173339843750000 -0.107579074800014495849609375000 -0.028751401230692863464355468750 -0.052020862698554992675781250000 -0.082694098353385925292968750000 0.010643195360898971557617187500 -0.063480027019977569580078125000 -0.026060419157147407531738281250 -0.122394859790802001953125000000 -0.068272620439529418945312500000 -0.090068347752094268798828125000 -0.095602221786975860595703125000 -0.076496742665767669677734375000 -0.094843424856662750244140625000 -0.085249394178390502929687500000 -0.088520646095275878906250000000 -0.160896763205528259277343750000 -0.084805548191070556640625000000 -0.116942711174488067626953125000 -0.087885126471519470214843750000 -0.109547145664691925048828125000 -0.079641960561275482177734375000 -0.095229700207710266113281250000 -0.073632717132568359375000000000 -0.050827253609895706176757812500 -0.084892898797988891601562500000 -0.129568904638290405273437500000 -0.131327122449874877929687500000 -0.108556561172008514404296875000 -0.060369633138179779052734375000 