-0.194906920194625854492187500000 -0.177188828587532043457031250000 -0.529606401920318603515625000000 0.150515839457511901855468750000 -0.161083385348320007324218750000 -0.158317193388938903808593750000 -0.329558968544006347656250000000 -0.246618017554283142089843750000 -0.031107798218727111816406250000 0.234963655471801757812500000000 -0.155148908495903015136718750000 0.219119995832443237304687500000 -0.457800418138504028320312500000 0.406408667564392089843750000000 -0.172706678509712219238281250000 -0.336505413055419921875000000000 -0.121145293116569519042968750000 -0.189468353986740112304687500000 -0.325171828269958496093750000000 0.318324625492095947265625000000 0.190514549612998962402343750000 -0.161262333393096923828125000000 0.029820466414093971252441406250 0.258553475141525268554687500000 -0.073987893760204315185546875000 0.001739626633934676647186279297 -0.299009948968887329101562500000 0.154663205146789550781250000000 0.075043179094791412353515625000 0.359336048364639282226562500000 -0.240935057401657104492187500000 -0.168394729495048522949218750000 0.159920305013656616210937500000 -0.157152995467185974121093750000 -0.084013693034648895263671875000 0.489127993583679199218750000000 -0.401869386434555053710937500000 0.089699223637580871582031250000 -0.137587025761604309082031250000 0.197132572531700134277343750000 -0.108260430395603179931640625000 0.020661154761910438537597656250 0.069159962236881256103515625000 -0.181004062294960021972656250000 0.104605168104171752929687500000 0.141246169805526733398437500000 -0.126334190368652343750000000000 0.412785619497299194335937500000 -0.135339364409446716308593750000 -0.031459689140319824218750000000 0.339359164237976074218750000000 0.087215386331081390380859375000 -0.313072293996810913085937500000 -0.098321020603179931640625000000 -0.031833559274673461914062500000 0.235213682055473327636718750000 -0.361463516950607299804687500000 0.143661767244338989257812500000 0.232712879776954650878906250000 -0.040049299597740173339843750000 -0.240373715758323669433593750000 0.179054006934165954589843750000 0.387631565332412719726562500000 0.227393135428428649902343750000 -0.288877546787261962890625000000 -0.117034189403057098388671875000 -0.145292356610298156738281250000 0.143774181604385375976562500000 0.342878699302673339843750000000 0.037513680756092071533203125000 -0.216804742813110351562500000000 0.411698967218399047851562500000 0.204267144203186035156250000000 0.042808979749679565429687500000 -0.128903716802597045898437500000 -0.096217975020408630371093750000 -0.237570434808731079101562500000 -0.364110320806503295898437500000 0.429651707410812377929687500000 0.086619772017002105712890625000 -0.159124404191970825195312500000 -0.016805771738290786743164062500 0.006281552370637655258178710938 0.069586127996444702148437500000 -0.017601188272237777709960937500 -0.284010797739028930664062500000 -0.310309708118438720703125000000 0.182111397385597229003906250000 0.030718443915247917175292968750 0.494693189859390258789062500000 -0.067495323717594146728515625000 0.026781041175127029418945312500 -0.295679420232772827148437500000 -0.111586011946201324462890625000 0.212653964757919311523437500000 0.017332440242171287536621093750 0.324383765459060668945312500000 0.332588076591491699218750000000 0.162749350070953369140625000000 -0.096428528428077697753906250000 0.333678007125854492187500000000 0.094954200088977813720703125000 -0.183597967028617858886718750000 0.111222758889198303222656250000 -0.049686837941408157348632812500 -0.235791102051734924316406250000 0.071574538946151733398437500000 -0.168548226356506347656250000000 -0.330432295799255371093750000000 0.206530779600143432617187500000 -0.026386413723230361938476562500 0.119147919118404388427734375000 -0.095753684639930725097656250000 0.314874619245529174804687500000 0.325189471244812011718750000000 0.111698120832443237304687500000 -0.353477567434310913085937500000 -0.191813886165618896484375000000 -0.179031133651733398437500000000 -0.281709790229797363281250000000 0.057962432503700256347656250000 0.082367636263370513916015625000 -0.498001009225845336914062500000 -0.125864490866661071777343750000 -0.202223062515258789062500000000 0.209713920950889587402343750000 -0.183520898222923278808593750000 -0.085044339299201965332031250000 