-0.167733535170555114746093750000 0.182716980576515197753906250000 0.170515328645706176757812500000 0.180642664432525634765625000000 0.182465061545372009277343750000 0.209747314453125000000000000000 0.256814569234848022460937500000 0.186715811491012573242187500000 0.181031376123428344726562500000 0.214755609631538391113281250000 0.189013972878456115722656250000 0.149688601493835449218750000000 0.154632627964019775390625000000 0.056610506027936935424804687500 0.076222896575927734375000000000 0.168432474136352539062500000000 0.152196556329727172851562500000 0.161806985735893249511718750000 0.084978841245174407958984375000 0.187925517559051513671875000000 0.111287258565425872802734375000 0.159985378384590148925781250000 0.183843955397605895996093750000 0.187149107456207275390625000000 0.151291996240615844726562500000 0.147767439484596252441406250000 0.001541638048365712165832519531 0.080724783241748809814453125000 0.140888318419456481933593750000 0.125122621655464172363281250000 0.156548440456390380859375000000 0.074345380067825317382812500000 0.077651925384998321533203125000 0.094119191169738769531250000000 0.187390029430389404296875000000 0.154614865779876708984375000000 0.109628535807132720947265625000 0.038358967751264572143554687500 0.120698481798171997070312500000 0.039871692657470703125000000000 0.173489481210708618164062500000 0.087053269147872924804687500000 0.122284561395645141601562500000 0.137031629681587219238281250000 0.145006269216537475585937500000 0.115681573748588562011718750000 0.166562423110008239746093750000 0.150908827781677246093750000000 0.177448883652687072753906250000 0.050301849842071533203125000000 0.110820740461349487304687500000 0.059528376907110214233398437500 0.113930046558380126953125000000 0.091262914240360260009765625000 0.072344273328781127929687500000 0.175333544611930847167968750000 0.125366106629371643066406250000 0.126689925789833068847656250000 -0.032401237636804580688476562500 0.168610677123069763183593750000 0.103393644094467163085937500000 0.097054108977317810058593750000 0.056232318282127380371093750000 0.085631929337978363037109375000 -0.010489912703633308410644531250 0.075948968529701232910156250000 0.095711492002010345458984375000 0.068059518933296203613281250000 0.088511779904365539550781250000 0.060749471187591552734375000000 0.074886970221996307373046875000 0.069333732128143310546875000000 0.107379250228404998779296875000 0.086696460843086242675781250000 0.036245021969079971313476562500 -0.092274188995361328125000000000 -0.029289850965142250061035156250 0.099165163934230804443359375000 0.057143330574035644531250000000 0.113398805260658264160156250000 0.137292176485061645507812500000 0.112610705196857452392578125000 0.090265177190303802490234375000 0.064682088792324066162109375000 0.077751405537128448486328125000 0.051912426948547363281250000000 0.142046988010406494140625000000 0.151832133531570434570312500000 0.053450457751750946044921875000 0.082216501235961914062500000000 0.063946574926376342773437500000 0.097850523889064788818359375000 0.113675266504287719726562500000 0.108075805008411407470703125000 0.078045979142189025878906250000 0.077807076275348663330078125000 0.147394329309463500976562500000 0.082922235131263732910156250000 0.032712694257497787475585937500 0.072846204042434692382812500000 0.086609207093715667724609375000 0.038493912667036056518554687500 0.066080130636692047119140625000 0.123705573379993438720703125000 0.087964080274105072021484375000 0.052611622959375381469726562500 0.034023843705654144287109375000 0.099767260253429412841796875000 0.104850076138973236083984375000 0.023978855460882186889648437500 0.102331422269344329833984375000 0.100463673472404479980468750000 0.091846093535423278808593750000 0.126754745841026306152343750000 0.052090693265199661254882812500 -0.004534045699983835220336914062 0.037025973200798034667968750000 0.094134569168090820312500000000 0.032309465110301971435546875000 0.099136956036090850830078125000 0.050273261964321136474609375000 0.071127012372016906738281250000 0.067867711186408996582031250000 0.060237813740968704223632812500 0.001451954711228609085083007812 0.039361733943223953247070312500 0.104635491967201232910156250000 0.027504840865731239318847656250 0.085020959377288818359375000000 0.143595993518829345703125000000 0.083267018198966979980468750000 0.116647809743881225585937500000 0.148979529738426208496093750000 -0.020822720602154731750488281250 0.085469275712966918945312500000 0.104687504470348358154296875000 0.113176122307777404785156250000 0.084294557571411132812500000000 0.093093261122703552246093750000 0.063378117978572845458984375000 0.063953675329685211181640625000 0.075854294002056121826171875000 0.040351144969463348388671875000 0.079010263085365295410156250000 0.100923493504524230957031250000 0.094114050269126892089843750000 0.087379671633243560791015625000 0.008036328479647636413574218750 0.100403308868408203125000000000 -0.026680724695324897766113281250 0.054095100611448287963867187500 0.028938133269548416137695312500 0.041006531566381454467773437500 0.094618834555149078369140625000 0.074721343815326690673828125000 0.060378562659025192260742187500 0.120787672698497772216796875000 0.074949100613594055175781250000 0.049926117062568664550781250000 0.041636582463979721069335937500 0.041806142777204513549804687500 0.049708161503076553344726562500 0.006359536666423082351684570312 0.020978650078177452087402343750 0.122632496058940887451171875000 0.093253158032894134521484375000 -0.047384858131408691406250000000 0.069893702864646911621093750000 0.019684923812747001647949218750 0.054816506803035736083984375000 0.148509383201599121093750000000 0.108724884688854217529296875000 0.109681427478790283203125000000 -0.007870427332818508148193359375 0.174946352839469909667968750000 0.089551120996475219726562500000 0.040078010410070419311523437500 0.091739870607852935791015625000 0.009991854429244995117187500000 0.052007656544446945190429687500 0.060266979038715362548828125000 0.018217490985989570617675781250 0.034184426069259643554687500000 0.054342821240425109863281250000 0.053410068154335021972656250000 0.021477013826370239257812500000 0.080468907952308654785156250000 0.148066550493240356445312500000 0.024343656376004219055175781250 0.089124813675880432128906250000 -0.001392926787957549095153808594 0.033786449581384658813476562500 -0.023423295468091964721679687500 0.066527761518955230712890625000 0.145757719874382019042968750000 0.112151406705379486083984375000 0.034153170883655548095703125000 0.029968056827783584594726562500 -0.006889667827636003494262695312 0.088758684694766998291015625000 0.039447881281375885009765625000 0.114828132092952728271484375000 0.050010737031698226928710937500 0.027170745655894279479980468750 0.059222511947154998779296875000 0.096263542771339416503906250000 0.105192005634307861328125000000 0.048369873315095901489257812500 0.046189777553081512451171875000 0.006465876474976539611816406250 -0.024082209914922714233398437500 0.085954904556274414062500000000 0.064871437847614288330078125000 0.075526311993598937988281250000 0.041141308844089508056640625000 0.023398267105221748352050781250 0.042809400707483291625976562500 0.054505001753568649291992187500 0.099354282021522521972656250000 -0.012687331065535545349121093750 0.043283339589834213256835937500 0.086840674281120300292968750000 0.122173130512237548828125000000 0.082397483289241790771484375000 0.082378111779689788818359375000 0.044422641396522521972656250000 0.059091966599225997924804687500 0.083410672843456268310546875000 0.062185715883970260620117187500 0.063566491007804870605468750000 0.031320866197347640991210937500 0.088336780667304992675781250000 0.081376321613788604736328125000 0.048459187150001525878906250000 0.048786409199237823486328125000 0.084522753953933715820312500000 -0.004514746833592653274536132812 0.077861919999122619628906250000 0.081056177616119384765625000000 0.068353116512298583984375000000 0.025582194328308105468750000000 0.034160938113927841186523437500 0.087674751877784729003906250000 0.053339526057243347167968750000 0.047502536326646804809570312500 -0.011219433508813381195068359375 0.107026979327201843261718750000 -0.042333357036113739013671875000 -0.006357255391776561737060546875 -0.011169267818331718444824218750 0.040373358875513076782226562500 0.056338220834732055664062500000 0.028807887807488441467285156250 0.090457789599895477294921875000 -0.072702884674072265625000000000 -0.010123714804649353027343750000 0.100262582302093505859375000000 -0.071501709520816802978515625000 0.024759704247117042541503906250 0.125603884458541870117187500000 0.120184756815433502197265625000 0.058398723602294921875000000000 0.068353623151779174804687500000 0.088412791490554809570312500000 0.017611857503652572631835937500 0.054502587765455245971679687500 0.057368293404579162597656250000 0.094392009079456329345703125000 0.066366583108901977539062500000 0.056618690490722656250000000000 0.103255823254585266113281250000 0.115706406533718109130859375000 0.008639953099191188812255859375 0.051459155976772308349609375000 -0.024588121101260185241699218750 0.063449643552303314208984375000 0.001221532234922051429748535156 0.048012956976890563964843750000 0.028010059148073196411132812500 0.033564753830432891845703125000 0.024077294394373893737792968750 0.080221161246299743652343750000 -0.047733753919601440429687500000 0.006241680122911930084228515625 0.093256138265132904052734375000 0.072262436151504516601562500000 0.032843831926584243774414062500 0.058010973036289215087890625000 0.022861097007989883422851562500 0.032990787178277969360351562500 0.046358738094568252563476562500 -0.009393250569701194763183593750 0.060124572366476058959960937500 0.072581276297569274902343750000 0.087896920740604400634765625000 -0.012078509666025638580322265625 0.019706495106220245361328125000 0.093222983181476593017578125000 0.076587371528148651123046875000 0.040136579424142837524414062500 0.036697305738925933837890625000 0.075712122023105621337890625000 0.097167141735553741455078125000 0.026381250470876693725585937500 0.063167035579681396484375000000 0.066925026476383209228515625000 0.032054055482149124145507812500 0.040243666619062423706054687500 0.044391695410013198852539062500 0.072556562721729278564453125000 0.034790903329849243164062500000 0.023394241929054260253906250000 0.125530511140823364257812500000 0.034998998045921325683593750000 0.059470638632774353027343750000 0.033845573663711547851562500000 0.020958021283149719238281250000 -0.142500817775726318359375000000 0.008742178790271282196044921875 -0.002662454033270478248596191406 0.045814946293830871582031250000 0.101631559431552886962890625000 0.057871263474225997924804687500 0.020041288807988166809082031250 0.054636865854263305664062500000 0.083529092371463775634765625000 0.056361868977546691894531250000 0.118813782930374145507812500000 -0.029186706990003585815429687500 0.076681107282638549804687500000 -0.016927180811762809753417968750 0.055840078741312026977539062500 0.033832054585218429565429687500 -0.018554573878645896911621093750 0.030735142529010772705078125000 0.025379443541169166564941406250 0.072001852095127105712890625000 0.061377316713333129882812500000 0.004321935120970010757446289062 0.000377726246370002627372741699 0.067308746278285980224609375000 0.092522993683815002441406250000 0.095127560198307037353515625000 -0.026615621522068977355957031250 0.097867488861083984375000000000 0.066630192101001739501953125000 0.075431697070598602294921875000 0.054858993738889694213867187500 0.056320175528526306152343750000 0.062296345829963684082031250000 0.031045194715261459350585937500 0.020510740578174591064453125000 -0.036896474659442901611328125000 0.068343304097652435302734375000 0.019733479246497154235839843750 0.083768457174301147460937500000 0.060179702937602996826171875000 -0.021021269261837005615234375000 0.098005175590515136718750000000 0.061871223151683807373046875000 0.036148000508546829223632812500 0.058968178927898406982421875000 0.070682920515537261962890625000 0.085681684315204620361328125000 0.087607532739639282226562500000 0.143502667546272277832031250000 0.033870521932840347290039062500 0.042085371911525726318359375000 0.102467752993106842041015625000 0.037654224783182144165039062500 0.047238882631063461303710937500 0.099030137062072753906250000000 0.011841019615530967712402343750 0.004872289486229419708251953125 0.046396519988775253295898437500 0.025043712928891181945800781250 -0.027810849249362945556640625000 0.080039083957672119140625000000 0.059423193335533142089843750000 0.000300968124065548181533813477 0.021444287151098251342773437500 0.031292036175727844238281250000 0.033850617706775665283203125000 0.028456473723053932189941406250 0.061382487416267395019531250000 -0.013919283635914325714111328125 0.083093300461769104003906250000 0.041593365371227264404296875000 0.032319400459527969360351562500 0.042565107345581054687500000000 0.017244042828679084777832031250 0.024595346301794052124023437500 0.065665960311889648437500000000 0.032679527997970581054687500000 0.043946605175733566284179687500 0.045431412756443023681640625000 0.120608404278755187988281250000 0.013407753780484199523925781250 0.031099479645490646362304687500 0.076530590653419494628906250000 0.080672778189182281494140625000 0.016217261552810668945312500000 0.015467513352632522583007812500 0.040536485612392425537109375000 0.055982731282711029052734375000 0.023662703111767768859863281250 0.007340272888541221618652343750 0.084358334541320800781250000000 0.055982407182455062866210937500 0.101293176412582397460937500000 -0.007411066908389329910278320312 0.050116237252950668334960937500 0.008300933055579662322998046875 -0.000929276167880743741989135742 0.092252649366855621337890625000 0.051546469330787658691406250000 -0.040634568780660629272460937500 -0.023038236424326896667480468750 0.071464486420154571533203125000 0.096892200410366058349609375000 0.023604426532983779907226562500 0.006240296177566051483154296875 0.026852697134017944335937500000 0.005117702763527631759643554688 0.068901866674423217773437500000 0.013646013103425502777099609375 0.013507575727999210357666015625 0.081318587064743041992187500000 -0.014429539442062377929687500000 0.028468776494264602661132812500 -0.017394000664353370666503906250 -0.009145407937467098236083984375 0.004986759275197982788085937500 0.044724978506565093994140625000 -0.001157975289970636367797851562 0.088065400719642639160156250000 0.027381574735045433044433593750 0.123177945613861083984375000000 0.047450874000787734985351562500 -0.006940262857824563980102539062 0.058132443577051162719726562500 0.023931799456477165222167968750 0.025276793166995048522949218750 -0.069110088050365447998046875000 0.054529365152120590209960937500 -0.059672612696886062622070312500 0.049360495060682296752929687500 0.025835944339632987976074218750 0.102143444120883941650390625000 0.068039126694202423095703125000 0.017961626872420310974121093750 0.026388550177216529846191406250 0.078651338815689086914062500000 0.013005790300667285919189453125 0.050869677215814590454101562500 -0.018406007438898086547851562500 0.021754756569862365722656250000 -0.021873610094189643859863281250 0.120615229010581970214843750000 0.054186046123504638671875000000 -0.010584769770503044128417968750 0.092701211571693420410156250000 0.011463901028037071228027343750 0.027092805132269859313964843750 0.058842379599809646606445312500 -0.043521221727132797241210937500 0.056120693683624267578125000000 -0.041951395571231842041015625000 -0.003980441484600305557250976562 -0.001954824430868029594421386719 0.041677746921777725219726562500 0.015310690738260746002197265625 0.081937499344348907470703125000 0.073195338249206542968750000000 -0.020925041288137435913085937500 0.026162004098296165466308593750 0.089347437024116516113281250000 0.031087124720215797424316406250 -0.003788428846746683120727539062 -0.012262012809514999389648437500 0.000544226728379726409912109375 0.048417367041110992431640625000 -0.039224747568368911743164062500 0.007519234903156757354736328125 0.013728539459407329559326171875 0.018847096711397171020507812500 0.083488047122955322265625000000 0.073876231908798217773437500000 -0.064082413911819458007812500000 -0.083832509815692901611328125000 0.019841834902763366699218750000 -0.012155712582170963287353515625 0.140760421752929687500000000000 -0.056260593235492706298828125000 0.077643550932407379150390625000 0.008147801272571086883544921875 0.057857308536767959594726562500 0.015010289847850799560546875000 0.043255809694528579711914062500 0.021026287227869033813476562500 0.080323711037635803222656250000 0.087840870022773742675781250000 -0.000933725852519273757934570312 0.022734912112355232238769531250 -0.118122719228267669677734375000 0.069201380014419555664062500000 0.099433787167072296142578125000 -0.028269937261939048767089843750 0.067860580980777740478515625000 0.077264748513698577880859375000 0.154701724648475646972656250000 0.062908813357353210449218750000 0.035611998289823532104492187500 0.010222861543297767639160156250 -0.015805829316377639770507812500 -0.072973534464836120605468750000 0.038167245686054229736328125000 0.019817996770143508911132812500 0.085554830729961395263671875000 0.053119126707315444946289062500 0.028181636705994606018066406250 0.018223572522401809692382812500 0.097577705979347229003906250000 0.020333243533968925476074218750 -0.000964306411333382129669189453 0.071448378264904022216796875000 0.039616040885448455810546875000 -0.018973771482706069946289062500 0.018917322158813476562500000000 -0.013674785383045673370361328125 -0.003774308366701006889343261719 0.001103634946048259735107421875 0.020727667957544326782226562500 0.010475282557308673858642578125 0.056154642254114151000976562500 0.052149616181850433349609375000 -0.035531390458345413208007812500 0.036192432045936584472656250000 -0.008585460484027862548828125000 -0.024140685796737670898437500000 -0.011967206373810768127441406250 0.006280035711824893951416015625 -0.001634637475945055484771728516 0.095084711909294128417968750000 0.042357414960861206054687500000 0.101809851825237274169921875000 -0.040541235357522964477539062500 0.023605227470397949218750000000 -0.038624629378318786621093750000 0.049534454941749572753906250000 0.010112803429365158081054687500 0.030530236661434173583984375000 0.084903120994567871093750000000 0.045283850282430648803710937500 0.055730581283569335937500000000 -0.019244777038693428039550781250 0.061026625335216522216796875000 0.041382603347301483154296875000 0.061769321560859680175781250000 -0.006427944637835025787353515625 0.010875514708459377288818359375 -0.014097028411924839019775390625 0.104401871562004089355468750000 0.112404860556125640869140625000 0.039274170994758605957031250000 0.006634175777435302734375000000 0.009451495483517646789550781250 -0.016002479940652847290039062500 0.060232281684875488281250000000 0.110759027302265167236328125000 -0.046379789710044860839843750000 0.112543597817420959472656250000 -0.041603136807680130004882812500 0.053472124040126800537109375000 0.018915476277470588684082031250 0.084169626235961914062500000000 0.042916573584079742431640625000 0.027336193248629570007324218750 0.018706943839788436889648437500 0.004216945730149745941162109375 0.023374425247311592102050781250 0.050365507602691650390625000000 0.009035389870405197143554687500 0.039977554231882095336914062500 -0.003041977062821388244628906250 0.044703368097543716430664062500 0.040340449661016464233398437500 -0.052714232355356216430664062500 0.013210916891694068908691406250 0.014053361490368843078613281250 -0.009666153229773044586181640625 -0.010068329982459545135498046875 0.065424039959907531738281250000 0.005509279668331146240234375000 0.064944408833980560302734375000 0.015719581395387649536132812500 0.039125751703977584838867187500 0.097651049494743347167968750000 0.006136694457381963729858398438 0.060675118118524551391601562500 -0.000694676302373409271240234375 0.032279308885335922241210937500 0.028829066082835197448730468750 -0.003561323275789618492126464844 0.084037989377975463867187500000 0.028058530762791633605957031250 -0.011097547598183155059814453125 0.061134096235036849975585937500 0.030807798728346824645996093750 0.007108463440090417861938476562 -0.056929912418127059936523437500 0.022638622671365737915039062500 0.002211654093116521835327148438 0.016029188409447669982910156250 0.024421643465757369995117187500 0.024024011567234992980957031250 0.090569809079170227050781250000 -0.015432239510118961334228515625 0.031140675768256187438964843750 0.076208770275115966796875000000 0.009329528547823429107666015625 -0.005285507999360561370849609375 -0.009501229040324687957763671875 0.030127620324492454528808593750 0.042369458824396133422851562500 0.013078391551971435546875000000 0.023588793352246284484863281250 0.046274323016405105590820312500 0.013408927246928215026855468750 0.013034466654062271118164062500 0.030400065705180168151855468750 -0.016800366342067718505859375000 0.027165105566382408142089843750 0.030485842376947402954101562500 0.049019649624824523925781250000 0.010761073790490627288818359375 0.054697170853614807128906250000 0.032304406166076660156250000000 0.021123979240655899047851562500 0.045297540724277496337890625000 0.083925686776638031005859375000 -0.006949763279408216476440429688 0.001174963079392910003662109375 0.046536792069673538208007812500 -0.020786473527550697326660156250 0.007598950527608394622802734375 -0.044991705566644668579101562500 0.036403756588697433471679687500 -0.002239584457129240036010742188 0.057508908212184906005859375000 -0.000153690925799310207366943359 -0.029492620378732681274414062500 0.056990031152963638305664062500 -0.027379047125577926635742187500 0.037305627018213272094726562500 -0.027615798637270927429199218750 -0.080451756715774536132812500000 0.026788624003529548645019531250 0.025373572483658790588378906250 0.018876465037465095520019531250 0.074626408517360687255859375000 0.084033690392971038818359375000 -0.038111682981252670288085937500 0.050570067018270492553710937500 -0.064403474330902099609375000000 0.044036835432052612304687500000 0.063692055642604827880859375000 -0.005128205753862857818603515625 0.084323443472385406494140625000 0.048387303948402404785156250000 -0.033695396035909652709960937500 -0.018037818372249603271484375000 0.053990110754966735839843750000 0.044821158051490783691406250000 -0.033906295895576477050781250000 -0.006136053707450628280639648438 -0.018478624522686004638671875000 0.018435969948768615722656250000 -0.034220222383737564086914062500 0.029942067340016365051269531250 -0.015695724636316299438476562500 0.019431045278906822204589843750 -0.029082404449582099914550781250 -0.005586774554103612899780273438 0.037189397960901260375976562500 0.028677919879555702209472656250 -0.003364368109032511711120605469 0.060542412102222442626953125000 0.084875591099262237548828125000 -0.071283914148807525634765625000 -0.001969869714230298995971679688 0.020047206431627273559570312500 0.011863002553582191467285156250 0.035338681191205978393554687500 -0.060661558061838150024414062500 0.063244141638278961181640625000 -0.011358156800270080566406250000 0.029091047123074531555175781250 0.051233004778623580932617187500 -0.082093484699726104736328125000 -0.055189903825521469116210937500 0.000590480281971395015716552734 0.006565340328961610794067382812 -0.005728907417505979537963867188 -0.008708189241588115692138671875 0.060351591557264328002929687500 0.030995650216937065124511718750 0.012155141681432723999023437500 0.010605631396174430847167968750 0.035563159734010696411132812500 -0.025683689862489700317382812500 -0.012519038282334804534912109375 0.000228248420171439647674560547 0.020248599350452423095703125000 -0.000316541671054437756538391113 0.013632119633257389068603515625 -0.024941142648458480834960937500 -0.025618480518460273742675781250 0.017689039930701255798339843750 -0.061820842325687408447265625000 -0.016476681455969810485839843750 0.011716327629983425140380859375 -0.012780490331351757049560546875 0.031050985679030418395996093750 -0.057288002222776412963867187500 0.030979132279753684997558593750 -0.002597586251795291900634765625 0.018484994769096374511718750000 0.097561284899711608886718750000 0.001953199272975325584411621094 0.069899007678031921386718750000 0.018282908946275711059570312500 -0.043612543493509292602539062500 -0.040674064308404922485351562500 0.069046393036842346191406250000 -0.004994685761630535125732421875 -0.020566541701555252075195312500 -0.018075823783874511718750000000 0.011662035249173641204833984375 -0.043670471757650375366210937500 0.073725290596485137939453125000 0.113835535943508148193359375000 0.009495710022747516632080078125 0.016290139406919479370117187500 -0.019263923168182373046875000000 0.027921456843614578247070312500 -0.004339206032454967498779296875 0.016436120495200157165527343750 -0.040918927639722824096679687500 0.080196224153041839599609375000 0.021454881876707077026367187500 -0.012329634279012680053710937500 0.028134159743785858154296875000 0.001178515842184424400329589844 -0.019953016191720962524414062500 0.058759409934282302856445312500 0.050992891192436218261718750000 0.008792673237621784210205078125 -0.002153742127120494842529296875 0.031639661639928817749023437500 0.075714953243732452392578125000 0.020253602415323257446289062500 0.018360730260610580444335937500 0.026141282171010971069335937500 0.028237599879503250122070312500 0.101333029568195343017578125000 -0.012737548910081386566162109375 0.044476121664047241210937500000 0.044626917690038681030273437500 0.011332440190017223358154296875 -0.057554528117179870605468750000 -0.030758911743760108947753906250 0.017708649858832359313964843750 0.008567420765757560729980468750 0.060351014137268066406250000000 -0.015845799818634986877441406250 0.076859712600708007812500000000 0.015656985342502593994140625000 -0.017539300024509429931640625000 0.065325155854225158691406250000 0.054782830178737640380859375000 0.007397525012493133544921875000 0.050007127225399017333984375000 0.035501956939697265625000000000 0.030193930491805076599121093750 0.020848201587796211242675781250 0.021284095942974090576171875000 0.086361020803451538085937500000 -0.006657670717686414718627929688 0.066550560295581817626953125000 -0.074917845427989959716796875000 0.008341139182448387145996093750 0.028291953727602958679199218750 -0.045753818005323410034179687500 0.078796721994876861572265625000 0.025388540700078010559082031250 -0.041077390313148498535156250000 -0.071879260241985321044921875000 0.039075396955013275146484375000 -0.007505649700760841369628906250 0.029689878225326538085937500000 0.012760537676513195037841796875 -0.054959766566753387451171875000 -0.031552609056234359741210937500 0.014532824046909809112548828125 0.106094226241111755371093750000 0.024591645225882530212402343750 0.065811529755592346191406250000 -0.012588044628500938415527343750 -0.024272551760077476501464843750 0.012515179812908172607421875000 -0.002077641664072871208190917969 0.038638506084680557250976562500 -0.030003853142261505126953125000 -0.057381138205528259277343750000 0.049448590725660324096679687500 0.050426427274942398071289062500 -0.058641839772462844848632812500 0.006699504796415567398071289062 -0.010390640236437320709228515625 0.002326391171663999557495117188 -0.000189395359484478831291198730 -0.023999445140361785888671875000 0.015218611806631088256835937500 -0.061125364154577255249023437500 0.078347109258174896240234375000 -0.029256254434585571289062500000 0.010179689154028892517089843750 -0.032709091901779174804687500000 0.002729065017774701118469238281 0.012469230219721794128417968750 -0.016338348388671875000000000000 0.059038322418928146362304687500 -0.048959817737340927124023437500 0.015646325424313545227050781250 0.038850583136081695556640625000 -0.060914915055036544799804687500 0.002277577761560678482055664062 0.092101484537124633789062500000 0.046189963817596435546875000000 -0.030164046213030815124511718750 0.056150116026401519775390625000 -0.056599743664264678955078125000 0.022849190980195999145507812500 -0.007961644791066646575927734375 0.005221230909228324890136718750 -0.012344846501946449279785156250 0.028255958110094070434570312500 0.061499960720539093017578125000 -0.017519859597086906433105468750 0.020221263170242309570312500000 0.013428211212158203125000000000 0.011955744586884975433349609375 -0.000249617383815348148345947266 0.037179805338382720947265625000 0.009702788665890693664550781250 0.050086691975593566894531250000 0.041078463196754455566406250000 0.030366338789463043212890625000 0.034022744745016098022460937500 0.003969214856624603271484375000 0.002610910218209028244018554688 0.003627022961154580116271972656 0.054380685091018676757812500000 -0.061351139098405838012695312500 -0.045537803322076797485351562500 -0.014643997885286808013916015625 0.000970159890130162239074707031 -0.022896371781826019287109375000 0.017400020733475685119628906250 0.001705244882032275199890136719 0.067835748195648193359375000000 0.042284231632947921752929687500 -0.033091146498918533325195312500 -0.045169938355684280395507812500 -0.124236106872558593750000000000 -0.074760064482688903808593750000 0.017379248514771461486816406250 0.002884221728891134262084960938 -0.077234141528606414794921875000 0.025664798915386199951171875000 -0.105189517140388488769531250000 -0.000076525437179952859878540039 -0.050467289984226226806640625000 -0.030786586925387382507324218750 -0.047308940440416336059570312500 -0.026787919923663139343261718750 0.027363015338778495788574218750 0.079440303146839141845703125000 -0.042176973074674606323242187500 -0.033022303134202957153320312500 -0.039696428924798965454101562500 0.055400025099515914916992187500 0.020724171772599220275878906250 -0.037248015403747558593750000000 -0.039661116898059844970703125000 0.022500542923808097839355468750 0.035784829407930374145507812500 0.025767365470528602600097656250 0.052837930619716644287109375000 0.015455941669642925262451171875 -0.004742996767163276672363281250 0.020308274775743484497070312500 -0.028782064095139503479003906250 -0.026538103818893432617187500000 -0.021688915789127349853515625000 -0.002123144688084721565246582031 0.032224074006080627441406250000 -0.011433383449912071228027343750 -0.024298641830682754516601562500 -0.046481661498546600341796875000 0.079530321061611175537109375000 -0.054618388414382934570312500000 0.068489700555801391601562500000 -0.009593815542757511138916015625 -0.031322300434112548828125000000 -0.012738431803882122039794921875 -0.009769391268491744995117187500 0.008311973884701728820800781250 0.007009314838796854019165039062 0.034291807562112808227539062500 0.031808707863092422485351562500 -0.069628752768039703369140625000 0.000766023877076804637908935547 0.078648827970027923583984375000 0.041743498295545578002929687500 -0.003428313881158828735351562500 0.035273618996143341064453125000 0.049311615526676177978515625000 -0.022058794274926185607910156250 -0.005770680028945207595825195312 -0.052884463220834732055664062500 -0.026707751676440238952636718750 -0.084595330059528350830078125000 -0.019666489213705062866210937500 -0.027983563020825386047363281250 -0.009150064550340175628662109375 0.034368429332971572875976562500 -0.017539288848638534545898437500 0.014362111687660217285156250000 -0.018488788977265357971191406250 0.016176413744688034057617187500 -0.004942431580275297164916992188 -0.035497918725013732910156250000 -0.079351216554641723632812500000 0.050844978541135787963867187500 0.055646967142820358276367187500 -0.001956981839612126350402832031 0.035418730229139328002929687500 -0.025346491485834121704101562500 -0.074469305574893951416015625000 0.002163843484595417976379394531 -0.007674128748476505279541015625 -0.021771410480141639709472656250 0.005924633238464593887329101562 0.061278939247131347656250000000 -0.073829442262649536132812500000 0.076678007841110229492187500000 -0.153779491782188415527343750000 -0.015665000304579734802246093750 -0.028644930571317672729492187500 -0.023478036746382713317871093750 0.030489267781376838684082031250 0.003180656582117080688476562500 -0.010599616914987564086914062500 -0.029087567701935768127441406250 -0.075521633028984069824218750000 0.000319748534820973873138427734 -0.032483778893947601318359375000 -0.006961884442716836929321289062 -0.015310977585613727569580078125 -0.078525729477405548095703125000 0.042675599455833435058593750000 0.004295450635254383087158203125 0.048934128135442733764648437500 -0.000633244053460657596588134766 -0.065301246941089630126953125000 -0.088598854839801788330078125000 0.046060547232627868652343750000 -0.057502564042806625366210937500 -0.002124396618455648422241210938 0.016231250017881393432617187500 0.047508575022220611572265625000 -0.003001957898959517478942871094 -0.055002193897962570190429687500 -0.057014532387256622314453125000 -0.009743715636432170867919921875 0.011296549811959266662597656250 0.040371030569076538085937500000 0.000669899047352373600006103516 -0.000043237967474851757287979126 0.070390254259109497070312500000 -0.025783473625779151916503906250 -0.086783207952976226806640625000 0.036833755671977996826171875000 0.003091593040153384208679199219 -0.010126812383532524108886718750 -0.010561951436102390289306640625 -0.029934661462903022766113281250 0.019837154075503349304199218750 -0.031129095703363418579101562500 0.011074501089751720428466796875 -0.009050155058503150939941406250 -0.016896819695830345153808593750 -0.006491864565759897232055664062 -0.003097233362495899200439453125 0.008732374757528305053710937500 0.012590565718710422515869140625 0.025067841634154319763183593750 -0.024856209754943847656250000000 -0.001646237215027213096618652344 -0.025216544046998023986816406250 0.030495511367917060852050781250 0.075451485812664031982421875000 -0.000012360891560092568397521973 -0.033566530793905258178710937500 0.066344775259494781494140625000 -0.004580691456794738769531250000 0.019038481637835502624511718750 0.015865271911025047302246093750 -0.007639156654477119445800781250 -0.016950527206063270568847656250 0.004794250708073377609252929688 0.054788276553153991699218750000 0.061280649155378341674804687500 0.049006182700395584106445312500 0.042326528578996658325195312500 0.040835514664649963378906250000 -0.016798656433820724487304687500 0.034262087196111679077148437500 0.082658901810646057128906250000 -0.069409519433975219726562500000 -0.020668633282184600830078125000 -0.030813898891210556030273437500 -0.038762073963880538940429687500 -0.046669583767652511596679687500 -0.054400186985731124877929687500 -0.019759938120841979980468750000 0.051495179533958435058593750000 0.004649047739803791046142578125 -0.004868672695010900497436523438 -0.026347681879997253417968750000 0.006861640140414237976074218750 -0.033688522875308990478515625000 0.014709773473441600799560546875 -0.036931406706571578979492187500 -0.010355010628700256347656250000 -0.028187589719891548156738281250 0.006004041992127895355224609375 -0.039016716182231903076171875000 -0.050459060817956924438476562500 0.009101091884076595306396484375 0.010674926452338695526123046875 -0.010122171603143215179443359375 -0.015329118818044662475585937500 -0.001739289960823953151702880859 -0.068727374076843261718750000000 -0.071310251951217651367187500000 -0.124570392072200775146484375000 0.018173733726143836975097656250 -0.027800580486655235290527343750 -0.042486682534217834472656250000 -0.057307634502649307250976562500 0.066047236323356628417968750000 -0.008063271641731262207031250000 -0.011886885389685630798339843750 0.057142756879329681396484375000 -0.026606587693095207214355468750 -0.008493764325976371765136718750 0.026285748928785324096679687500 -0.010107208043336868286132812500 0.029936064034700393676757812500 0.015914935618638992309570312500 0.042611751705408096313476562500 0.032224457710981369018554687500 0.015720762312412261962890625000 -0.034758925437927246093750000000 -0.031481008976697921752929687500 -0.088287949562072753906250000000 -0.041828576475381851196289062500 -0.004074408207088708877563476562 -0.089781880378723144531250000000 0.073666773736476898193359375000 0.000219649198697879910469055176 -0.056984744966030120849609375000 0.017326675355434417724609375000 0.048824805766344070434570312500 0.008143187500536441802978515625 0.022162551060318946838378906250 -0.038389813154935836791992187500 -0.002760426606982946395874023438 -0.042188949882984161376953125000 -0.002665219828486442565917968750 -0.009969648905098438262939453125 0.085346773266792297363281250000 -0.011829035356640815734863281250 -0.018118720501661300659179687500 -0.012448155321180820465087890625 0.044665992259979248046875000000 -0.001782555133104324340820312500 -0.008627874776721000671386718750 0.055346317589282989501953125000 -0.041989333927631378173828125000 -0.037436034530401229858398437500 -0.017234098166227340698242187500 -0.088287055492401123046875000000 -0.043919507414102554321289062500 -0.022889340296387672424316406250 -0.008054083213210105895996093750 0.021644448861479759216308593750 -0.065708182752132415771484375000 -0.106290936470031738281250000000 0.000969759596046060323715209961 -0.038316976279020309448242187500 -0.018962079659104347229003906250 0.024061808362603187561035156250 0.006038608495146036148071289062 0.031244948506355285644531250000 0.030294837430119514465332031250 -0.025438537821173667907714843750 -0.035134773701429367065429687500 -0.065302476286888122558593750000 -0.007818990387022495269775390625 -0.003414773615077137947082519531 -0.034993089735507965087890625000 -0.057364359498023986816406250000 -0.051148582249879837036132812500 -0.032688103616237640380859375000 0.005050394218415021896362304688 0.009421258233487606048583984375 -0.052061110734939575195312500000 -0.086207486689090728759765625000 0.009109303355216979980468750000 -0.008265078067779541015625000000 -0.005552044603973627090454101562 0.016879782080650329589843750000 0.018703131005167961120605468750 0.038422111421823501586914062500 -0.055458158254623413085937500000 0.004851283971220254898071289062 0.033844929188489913940429687500 -0.098389767110347747802734375000 0.057563573122024536132812500000 -0.024803649634122848510742187500 0.039577428251504898071289062500 -0.011265491135418415069580078125 0.015371953137218952178955078125 0.009154978208243846893310546875 -0.020638544112443923950195312500 -0.026115857064723968505859375000 0.007429600693285465240478515625 -0.010697498917579650878906250000 0.012796983122825622558593750000 -0.004780097864568233489990234375 -0.001198286190629005432128906250 0.005527680274099111557006835938 -0.113406106829643249511718750000 0.012593662366271018981933593750 0.015349914319813251495361328125 -0.011795707978308200836181640625 0.002028080169111490249633789062 -0.011878968216478824615478515625 -0.009350631386041641235351562500 -0.012574339285492897033691406250 -0.049271643161773681640625000000 -0.019866945222020149230957031250 -0.003400231013074517250061035156 0.031314596533775329589843750000 -0.008816853165626525878906250000 -0.071344606578350067138671875000 0.010885772295296192169189453125 0.003781045554205775260925292969 -0.026974845677614212036132812500 -0.019634371623396873474121093750 -0.036944866180419921875000000000 -0.088893361389636993408203125000 -0.041459664702415466308593750000 -0.015495385043323040008544921875 -0.045724276453256607055664062500 -0.004543574061244726181030273438 -0.012474700808525085449218750000 0.008792776614427566528320312500 -0.025584835559129714965820312500 -0.062762625515460968017578125000 -0.015392501838505268096923828125 0.013707040809094905853271484375 0.039011172950267791748046875000 -0.031917292624711990356445312500 -0.001901168143376708030700683594 0.020418539643287658691406250000 0.034071095287799835205078125000 0.029259849339723587036132812500 -0.052435297518968582153320312500 -0.042698983103036880493164062500 -0.000356476346496492624282836914 -0.064490474760532379150390625000 0.085522800683975219726562500000 -0.046795222908258438110351562500 -0.042584534734487533569335937500 0.026492938399314880371093750000 -0.026970863342285156250000000000 -0.066710382699966430664062500000 -0.028212552890181541442871093750 -0.028070336207747459411621093750 0.035048101097345352172851562500 -0.014448302797973155975341796875 -0.031966906040906906127929687500 -0.032622914761304855346679687500 -0.060017082840204238891601562500 0.060479409992694854736328125000 0.025500297546386718750000000000 -0.072902686893939971923828125000 -0.002586300717666745185852050781 -0.001164341229014098644256591797 -0.082320541143417358398437500000 0.009483665227890014648437500000 -0.021472759544849395751953125000 0.108910359442234039306640625000 0.016380544751882553100585937500 -0.113376207649707794189453125000 -0.003370716702193021774291992188 -0.014744631946086883544921875000 0.011927488259971141815185546875 -0.005166448187083005905151367188 -0.006181030068546533584594726562 -0.012016419321298599243164062500 -0.037863541394472122192382812500 -0.011368382722139358520507812500 -0.013587675988674163818359375000 -0.049954809248447418212890625000 0.004291185643523931503295898438 0.005431893281638622283935546875 0.016659870743751525878906250000 -0.029173683375120162963867187500 -0.001394016086123883724212646484 0.042890351265668869018554687500 -0.034947142004966735839843750000 -0.043172452598810195922851562500 -0.030583942309021949768066406250 -0.009002279490232467651367187500 0.033671591430902481079101562500 0.031275760382413864135742187500 -0.017861993983387947082519531250 -0.061793033033609390258789062500 -0.062078859657049179077148437500 -0.031522635370492935180664062500 0.008982004597783088684082031250 -0.012727699242532253265380859375 0.031216919422149658203125000000 0.004180512391030788421630859375 -0.051333505660295486450195312500 -0.012451424263417720794677734375 -0.047663450241088867187500000000 -0.014392224140465259552001953125 0.011959675699472427368164062500 -0.067334219813346862792968750000 -0.008954027667641639709472656250 -0.122273854911327362060546875000 0.057147342711687088012695312500 -0.007084262091666460037231445312 0.005840214435011148452758789062 -0.018840068951249122619628906250 0.032170444726943969726562500000 0.040836993604898452758789062500 -0.084602423012256622314453125000 -0.046218942850828170776367187500 -0.105864621698856353759765625000 -0.009197727777063846588134765625 -0.015509990043938159942626953125 -0.021238075569272041320800781250 -0.067056849598884582519531250000 -0.056193575263023376464843750000 0.012867964804172515869140625000 0.046929728239774703979492187500 0.039990723133087158203125000000 0.019629815593361854553222656250 -0.073397673666477203369140625000 -0.048946999013423919677734375000 0.009179805405437946319580078125 -0.082036405801773071289062500000 -0.059577420353889465332031250000 -0.034474525600671768188476562500 -0.006947430316358804702758789062 0.012114088051021099090576171875 0.013654805719852447509765625000 0.051258243620395660400390625000 -0.012469306588172912597656250000 -0.143598034977912902832031250000 -0.036727961152791976928710937500 -0.057601798325777053833007812500 -0.058242999017238616943359375000 0.032741487026214599609375000000 -0.022352349013090133666992187500 -0.167576819658279418945312500000 -0.010688465088605880737304687500 -0.029348554089665412902832031250 0.013614424504339694976806640625 0.013812081888318061828613281250 -0.048303529620170593261718750000 -0.001347025739960372447967529297 0.026405703276395797729492187500 0.027557248249650001525878906250 0.073766976594924926757812500000 -0.001085211872123181819915771484 -0.006371989380568265914916992188 0.016508720815181732177734375000 0.016940684989094734191894531250 0.020263314247131347656250000000 -0.050486132502555847167968750000 -0.025104735046625137329101562500 0.010532181710004806518554687500 0.004317216109484434127807617188 0.017853835597634315490722656250 -0.102286428213119506835937500000 -0.019223045557737350463867187500 0.022090369835495948791503906250 0.012031041085720062255859375000 -0.012988745234906673431396484375 -0.033736076205968856811523437500 -0.037523176521062850952148437500 0.027273198589682579040527343750 0.113194540143013000488281250000 0.015199542045593261718750000000 -0.032716248184442520141601562500 -0.054567534476518630981445312500 -0.045077800750732421875000000000 0.015873385593295097351074218750 0.020765330642461776733398437500 -0.038200125098228454589843750000 0.018942264840006828308105468750 -0.050810985267162322998046875000 -0.059236582368612289428710937500 -0.038274403661489486694335937500 -0.000898655038326978683471679688 0.019740041345357894897460937500 -0.027496689930558204650878906250 -0.052974976599216461181640625000 -0.045097425580024719238281250000 -0.018443668261170387268066406250 -0.031010396778583526611328125000 -0.026648357510566711425781250000 -0.078214570879936218261718750000 0.006519705522805452346801757812 -0.006820315960794687271118164062 0.028078414499759674072265625000 -0.014097405597567558288574218750 -0.107539847493171691894531250000 -0.007462567649781703948974609375 0.039545483887195587158203125000 0.012657866813242435455322265625 -0.081455096602439880371093750000 -0.082527197897434234619140625000 -0.001567592495121061801910400391 -0.029208691790699958801269531250 -0.052017632871866226196289062500 -0.039102904498577117919921875000 -0.126064762473106384277343750000 -0.008619231171905994415283203125 -0.024760100990533828735351562500 -0.116532459855079650878906250000 -0.027438312768936157226562500000 -0.135831892490386962890625000000 -0.003706767922267317771911621094 -0.048894755542278289794921875000 -0.015365886501967906951904296875 -0.022925987839698791503906250000 -0.032834243029356002807617187500 -0.036491587758064270019531250000 0.047273062169551849365234375000 -0.031343273818492889404296875000 -0.084631204605102539062500000000 -0.000008732080459594726562500000 -0.020540954545140266418457031250 -0.046425942331552505493164062500 -0.049330033361911773681640625000 -0.045244861394166946411132812500 -0.019744642078876495361328125000 0.024197665974497795104980468750 -0.016961723566055297851562500000 -0.033005151897668838500976562500 -0.002113258698955178260803222656 -0.046550828963518142700195312500 -0.026328915730118751525878906250 -0.050275079905986785888671875000 -0.041342750191688537597656250000 -0.033780310302972793579101562500 -0.153137251734733581542968750000 -0.082810483872890472412109375000 -0.067212492227554321289062500000 -0.023571871221065521240234375000 -0.019107012078166007995605468750 -0.040477834641933441162109375000 -0.022332370281219482421875000000 -0.053499441593885421752929687500 -0.016979854553937911987304687500 -0.114620454609394073486328125000 -0.011951368302106857299804687500 0.005714660510420799255371093750 -0.083718977868556976318359375000 0.010727453045547008514404296875 0.056702956557273864746093750000 -0.035025876015424728393554687500 -0.005911518353968858718872070312 0.022230908274650573730468750000 -0.004797544796019792556762695312 0.051589541137218475341796875000 0.013957262039184570312500000000 0.012836727313697338104248046875 -0.037796139717102050781250000000 -0.019102642312645912170410156250 -0.066799007356166839599609375000 0.057629846036434173583984375000 0.021585239097476005554199218750 0.045658573508262634277343750000 -0.035664241760969161987304687500 -0.006651566829532384872436523438 -0.039251998066902160644531250000 -0.003923685755580663681030273438 -0.056245986372232437133789062500 0.032578930258750915527343750000 0.012517104856669902801513671875 -0.003142821369692683219909667969 -0.034371413290500640869140625000 -0.020185654982924461364746093750 -0.064254082739353179931640625000 -0.008960969746112823486328125000 -0.009618605487048625946044921875 -0.026340963318943977355957031250 0.023597804829478263854980468750 -0.055353000760078430175781250000 -0.009676043875515460968017578125 0.047289177775382995605468750000 -0.045121446251869201660156250000 0.028021214529871940612792968750 0.036759544163942337036132812500 -0.033516012132167816162109375000 -0.030844444409012794494628906250 0.019808478653430938720703125000 -0.007796342950314283370971679688 -0.038009729236364364624023437500 -0.018301386386156082153320312500 0.046402923762798309326171875000 -0.008511092513799667358398437500 -0.068050056695938110351562500000 -0.046044960618019104003906250000 -0.039699025452136993408203125000 -0.007570966146886348724365234375 -0.055656537413597106933593750000 -0.070495471358299255371093750000 -0.003523865947499871253967285156 -0.038225669413805007934570312500 0.036664083600044250488281250000 -0.051132950931787490844726562500 -0.082601077854633331298828125000 -0.075635634362697601318359375000 -0.006527270190417766571044921875 -0.053839560598134994506835937500 -0.035291161388158798217773437500 0.046058855950832366943359375000 -0.076765730977058410644531250000 0.005942440126091241836547851562 0.009279683232307434082031250000 -0.043852053582668304443359375000 0.053047295659780502319335937500 -0.054305974394083023071289062500 -0.060308296233415603637695312500 -0.065812386572360992431640625000 -0.035645443946123123168945312500 -0.082016602158546447753906250000 -0.132898926734924316406250000000 -0.035156086087226867675781250000 -0.022546326741576194763183593750 -0.059213362634181976318359375000 -0.079751074314117431640625000000 -0.034393794834613800048828125000 0.013023407198488712310791015625 0.006181774660944938659667968750 0.006987368687987327575683593750 -0.105464622378349304199218750000 -0.050596963614225387573242187500 -0.043200761079788208007812500000 -0.045509301126003265380859375000 -0.071352496743202209472656250000 -0.078804075717926025390625000000 -0.059597648680210113525390625000 0.010066353715956211090087890625 -0.052435990422964096069335937500 -0.051460038870573043823242187500 -0.066914096474647521972656250000 -0.031968448311090469360351562500 0.018236331641674041748046875000 -0.020265854895114898681640625000 0.067973293364048004150390625000 -0.045005597174167633056640625000 -0.066814742982387542724609375000 0.019734794273972511291503906250 0.029270892962813377380371093750 -0.053385674953460693359375000000 -0.021710280328989028930664062500 0.065134100615978240966796875000 0.064041368663311004638671875000 -0.018231261521577835083007812500 0.028461828827857971191406250000 -0.023517338559031486511230468750 -0.052759364247322082519531250000 0.049239125102758407592773437500 -0.046356558799743652343750000000 -0.005934278480708599090576171875 -0.054439958184957504272460937500 -0.066577933728694915771484375000 -0.036359876394271850585937500000 -0.023295514285564422607421875000 -0.008582163602113723754882812500 -0.056372031569480895996093750000 -0.054523523896932601928710937500 0.006762420758605003356933593750 -0.072109311819076538085937500000 0.061250884085893630981445312500 -0.019238004460930824279785156250 0.003468764713034033775329589844 -0.001018348848447203636169433594 -0.100517466664314270019531250000 -0.039003126323223114013671875000 0.043365493416786193847656250000 0.025639494881033897399902343750 -0.033457253128290176391601562500 -0.060816276818513870239257812500 -0.017929678782820701599121093750 -0.059692312031984329223632812500 -0.048169933259487152099609375000 0.009015545248985290527343750000 -0.053790666162967681884765625000 0.005252127069979906082153320312 -0.018374947831034660339355468750 -0.059494640678167343139648437500 -0.033209834247827529907226562500 -0.050885684788227081298828125000 -0.056453693658113479614257812500 -0.116121366620063781738281250000 -0.039003320038318634033203125000 0.015277884900569915771484375000 -0.025581141933798789978027343750 -0.015450159087777137756347656250 0.021040497347712516784667968750 -0.037541273981332778930664062500 -0.021378895267844200134277343750 -0.068940676748752593994140625000 -0.036256171762943267822265625000 -0.058047242462635040283203125000 -0.015173403546214103698730468750 -0.039968490600585937500000000000 -0.083133406937122344970703125000 -0.023717951029539108276367187500 0.003691554069519042968750000000 -0.005470480769872665405273437500 0.000787253840826451778411865234 -0.040591195225715637207031250000 -0.090943679213523864746093750000 0.035436157137155532836914062500 -0.055426876991987228393554687500 -0.030521249398589134216308593750 0.002839381573721766471862792969 -0.041996676474809646606445312500 0.004062657710164785385131835938 -0.078681297600269317626953125000 -0.037848781794309616088867187500 0.010049169883131980895996093750 -0.074883930385112762451171875000 -0.106053121387958526611328125000 -0.018406765535473823547363281250 0.004802285227924585342407226562 -0.042685292661190032958984375000 0.037026721984148025512695312500 0.003317625727504491806030273438 -0.012948030605912208557128906250 -0.104711659252643585205078125000 -0.052356388419866561889648437500 -0.041993044316768646240234375000 -0.073869049549102783203125000000 -0.067319236695766448974609375000 -0.027001488953828811645507812500 -0.072479061782360076904296875000 0.057953268289566040039062500000 -0.046829678118228912353515625000 -0.029222296550869941711425781250 -0.053892958909273147583007812500 -0.031503908336162567138671875000 -0.045437019318342208862304687500 -0.007492887321859598159790039062 0.021119777113199234008789062500 -0.112424351274967193603515625000 -0.058029148727655410766601562500 -0.006021136417984962463378906250 0.004343277309089899063110351562 0.003029268467798829078674316406 0.008119446225464344024658203125 -0.119641534984111785888671875000 -0.010324899107217788696289062500 -0.010223144665360450744628906250 -0.130400285124778747558593750000 -0.090725533664226531982421875000 -0.038451641798019409179687500000 -0.037232652306556701660156250000 -0.023653648793697357177734375000 -0.012755624018609523773193359375 -0.061978612095117568969726562500 0.021058980375528335571289062500 -0.077695243060588836669921875000 -0.033007260411977767944335937500 -0.113631270825862884521484375000 -0.058666180819272994995117187500 -0.073110021650791168212890625000 0.002313181059435009956359863281 -0.063802875578403472900390625000 -0.013067636638879776000976562500 -0.007524904794991016387939453125 -0.089297071099281311035156250000 -0.014703531749546527862548828125 -0.083156652748584747314453125000 -0.027805536985397338867187500000 -0.020265728235244750976562500000 -0.072148293256759643554687500000 -0.043418385088443756103515625000 -0.057262450456619262695312500000 -0.076899521052837371826171875000 -0.024333141744136810302734375000 -0.046203885227441787719726562500 -0.022176085039973258972167968750 -0.006484368816018104553222656250 -0.052048537880182266235351562500 -0.030281342566013336181640625000 0.041485458612442016601562500000 0.019458025693893432617187500000 -0.038317807018756866455078125000 -0.035923149436712265014648437500 -0.027940232306718826293945312500 -0.024633992463350296020507812500 -0.068196535110473632812500000000 -0.040769051760435104370117187500 0.010285535827279090881347656250 0.053886856883764266967773437500 0.002716471673920750617980957031 -0.052560128271579742431640625000 -0.060013871639966964721679687500 -0.086460620164871215820312500000 -0.018587255850434303283691406250 -0.056722354143857955932617187500 0.032171938568353652954101562500 -0.039008446037769317626953125000 -0.033433292061090469360351562500 -0.022592220455408096313476562500 0.025096295401453971862792968750 -0.048715043812990188598632812500 -0.004436699207872152328491210938 -0.036047447472810745239257812500 -0.110486887395381927490234375000 0.004727421328425407409667968750 -0.034059256315231323242187500000 -0.032186027616262435913085937500 -0.045116245746612548828125000000 -0.047881480306386947631835937500 -0.030631775036454200744628906250 -0.073386318981647491455078125000 0.011050660163164138793945312500 -0.042211923748254776000976562500 -0.020441858097910881042480468750 0.015098989941179752349853515625 -0.012605441734194755554199218750 0.022708350792527198791503906250 -0.011531366966664791107177734375 -0.063213966786861419677734375000 -0.061529465019702911376953125000 -0.060417085886001586914062500000 -0.025162018835544586181640625000 -0.085495717823505401611328125000 -0.040480513125658035278320312500 -0.025672607123851776123046875000 0.010417372919619083404541015625 -0.024420684203505516052246093750 -0.078363113105297088623046875000 -0.056811369955539703369140625000 -0.035561174154281616210937500000 -0.070918910205364227294921875000 -0.020106695592403411865234375000 -0.137074202299118041992187500000 -0.003098156535997986793518066406 0.026014188304543495178222656250 -0.085202135145664215087890625000 0.003984356299042701721191406250 -0.052913263440132141113281250000 -0.037366110831499099731445312500 -0.078053712844848632812500000000 -0.037538491189479827880859375000 -0.115228615701198577880859375000 -0.036738190799951553344726562500 -0.026211692020297050476074218750 -0.023484071716666221618652343750 -0.016741562634706497192382812500 0.079731889069080352783203125000 -0.021469989791512489318847656250 -0.100383304059505462646484375000 -0.088050678372383117675781250000 -0.031327672302722930908203125000 -0.105485618114471435546875000000 -0.021744908764958381652832031250 -0.034013107419013977050781250000 -0.054929219186305999755859375000 -0.062970429658889770507812500000 0.016618283465504646301269531250 0.019594242796301841735839843750 -0.035545390099287033081054687500 -0.072785347700119018554687500000 -0.086971819400787353515625000000 -0.112006887793540954589843750000 -0.033337753266096115112304687500 -0.061950083822011947631835937500 -0.025975536555051803588867187500 -0.044081244617700576782226562500 -0.072368852794170379638671875000 -0.017161289229989051818847656250 -0.049679268151521682739257812500 0.024785952642560005187988281250 -0.017552604898810386657714843750 0.008166410028934478759765625000 -0.129880070686340332031250000000 -0.034473013132810592651367187500 -0.047923892736434936523437500000 0.000076212512794882059097290039 -0.037455491721630096435546875000 -0.035479430109262466430664062500 -0.122212767601013183593750000000 -0.047168262302875518798828125000 -0.057811208069324493408203125000 0.008255232125520706176757812500 -0.107507646083831787109375000000 -0.141544938087463378906250000000 -0.105877488851547241210937500000 -0.074234880506992340087890625000 -0.073777519166469573974609375000 -0.009078732691705226898193359375 0.053371820598840713500976562500 0.016403539106249809265136718750 -0.056216880679130554199218750000 -0.066483452916145324707031250000 -0.009916394017636775970458984375 0.024262160062789916992187500000 -0.035583220422267913818359375000 -0.001652349019423127174377441406 -0.052548456937074661254882812500 -0.052696622908115386962890625000 -0.092715829610824584960937500000 -0.065046615898609161376953125000 0.039373684674501419067382812500 -0.050227072089910507202148437500 0.005588901694864034652709960938 -0.031586293131113052368164062500 -0.027628077194094657897949218750 -0.052774600684642791748046875000 -0.037005055695772171020507812500 -0.176251739263534545898437500000 -0.111106082797050476074218750000 -0.110775187611579895019531250000 -0.101689890027046203613281250000 -0.034271772950887680053710937500 -0.065243363380432128906250000000 -0.055437445640563964843750000000 0.008727650158107280731201171875 -0.061088614165782928466796875000 -0.081012099981307983398437500000 -0.019262356683611869812011718750 -0.060710132122039794921875000000 -0.030053034424781799316406250000 -0.169683352112770080566406250000 -0.058833051472902297973632812500 -0.006700020283460617065429687500 -0.054893445223569869995117187500 0.038959655910730361938476562500 -0.008463964797556400299072265625 -0.126502096652984619140625000000 -0.034328412264585494995117187500 -0.034953940659761428833007812500 -0.022611821070313453674316406250 -0.001491872593760490417480468750 -0.040459107607603073120117187500 -0.060732714831829071044921875000 -0.026602452620863914489746093750 0.001716839498840272426605224609 -0.059727679938077926635742187500 0.015492499805986881256103515625 -0.078931562602519989013671875000 -0.065282136201858520507812500000 -0.061291866004467010498046875000 -0.047789365053176879882812500000 -0.079301930963993072509765625000 -0.076045021414756774902343750000 -0.026846891269087791442871093750 -0.033830687403678894042968750000 -0.043843604624271392822265625000 -0.030613794922828674316406250000 -0.096697896718978881835937500000 0.035844601690769195556640625000 -0.040108606219291687011718750000 -0.059396829456090927124023437500 -0.035521220415830612182617187500 -0.072524912655353546142578125000 -0.009341214783489704132080078125 -0.051867354661226272583007812500 -0.063854634761810302734375000000 -0.048874199390411376953125000000 -0.111826822161674499511718750000 -0.059003666043281555175781250000 -0.086362972855567932128906250000 -0.032397959381341934204101562500 -0.044534362852573394775390625000 0.000401063065510243177413940430 -0.014234819449484348297119140625 -0.053343802690505981445312500000 -0.114612773060798645019531250000 0.015894863754510879516601562500 -0.048100255429744720458984375000 -0.023347238078713417053222656250 -0.027983963489532470703125000000 -0.060761544853448867797851562500 -0.070295147597789764404296875000 -0.022297967225313186645507812500 -0.058757673949003219604492187500 -0.067773476243019104003906250000 -0.031519968062639236450195312500 0.020300121977925300598144531250 -0.034550752490758895874023437500 -0.082774154841899871826171875000 -0.075707651674747467041015625000 0.009332953952252864837646484375 -0.027854096144437789916992187500 -0.071260243654251098632812500000 -0.102551490068435668945312500000 -0.007114558946341276168823242188 -0.051422957330942153930664062500 -0.026717478409409523010253906250 -0.024432407692074775695800781250 -0.084858812391757965087890625000 -0.093414224684238433837890625000 -0.029838090762495994567871093750 -0.043037090450525283813476562500 -0.033097699284553527832031250000 -0.014431934803724288940429687500 -0.029822813346982002258300781250 -0.038171835243701934814453125000 -0.057155709713697433471679687500 -0.037180360406637191772460937500 -0.038693137466907501220703125000 -0.027238313108682632446289062500 -0.078484110534191131591796875000 -0.065875589847564697265625000000 -0.070775233209133148193359375000 -0.035771422088146209716796875000 0.023688867688179016113281250000 -0.075113736093044281005859375000 -0.015448800288140773773193359375 -0.031657040119171142578125000000 -0.060239750891923904418945312500 -0.090086311101913452148437500000 -0.017253074795007705688476562500 -0.096419796347618103027343750000 -0.057774402201175689697265625000 -0.033998828381299972534179687500 -0.076198481023311614990234375000 -0.029947893694043159484863281250 -0.025771597400307655334472656250 -0.034682996571063995361328125000 -0.041847813874483108520507812500 -0.024702565744519233703613281250 -0.099663645029067993164062500000 -0.096029631793498992919921875000 -0.003016749396920204162597656250 0.002765088807791471481323242188 -0.056036446243524551391601562500 -0.031135363504290580749511718750 -0.057971064001321792602539062500 -0.009102934040129184722900390625 -0.050135076045989990234375000000 -0.065117426216602325439453125000 -0.053186677396297454833984375000 0.046333167701959609985351562500 -0.067025877535343170166015625000 -0.056856829673051834106445312500 -0.047122735530138015747070312500 -0.091877020895481109619140625000 -0.042590711265802383422851562500 -0.019545642659068107604980468750 -0.033582527190446853637695312500 -0.053136039525270462036132812500 -0.037327527999877929687500000000 -0.028019478544592857360839843750 0.015338229015469551086425781250 -0.045971877872943878173828125000 0.021753557026386260986328125000 -0.048735279589891433715820312500 0.005862971302121877670288085938 -0.033176843076944351196289062500 -0.096236497163772583007812500000 -0.065099000930786132812500000000 -0.033246442675590515136718750000 -0.003137442516162991523742675781 -0.137312233448028564453125000000 -0.104936942458152770996093750000 -0.028012013062834739685058593750 -0.071968853473663330078125000000 -0.057464361190795898437500000000 -0.053790416568517684936523437500 -0.026546187698841094970703125000 -0.026301078498363494873046875000 -0.060297068208456039428710937500 -0.014568437822163105010986328125 -0.039308864623308181762695312500 0.022760877385735511779785156250 -0.033727537840604782104492187500 -0.058176737278699874877929687500 -0.020194618031382560729980468750 0.012333908118307590484619140625 -0.020591594278812408447265625000 -0.053141772747039794921875000000 -0.059049144387245178222656250000 -0.089767560362815856933593750000 -0.027982294559478759765625000000 -0.126662179827690124511718750000 -0.067644037306308746337890625000 -0.135383158922195434570312500000 -0.090076886117458343505859375000 -0.083104871213436126708984375000 -0.047078993171453475952148437500 -0.077381014823913574218750000000 -0.113002784550189971923828125000 -0.078328184783458709716796875000 -0.076436482369899749755859375000 -0.009910108521580696105957031250 -0.093782730400562286376953125000 -0.077931128442287445068359375000 -0.045815221965312957763671875000 -0.122307054698467254638671875000 -0.036649223417043685913085937500 -0.071609459817409515380859375000 -0.076934307813644409179687500000 -0.032711870968341827392578125000 -0.007981060072779655456542968750 -0.139108613133430480957031250000 -0.061123266816139221191406250000 -0.007956473156809806823730468750 -0.031609419733285903930664062500 -0.057514961808919906616210937500 -0.071206472814083099365234375000 -0.074484065175056457519531250000 0.027529016137123107910156250000 -0.060366753488779067993164062500 -0.028176302090287208557128906250 -0.091472491621971130371093750000 -0.002584315603598952293395996094 -0.067436881363391876220703125000 -0.098424553871154785156250000000 -0.040791880339384078979492187500 -0.042114894837141036987304687500 -0.060286160558462142944335937500 0.003638218622654676437377929688 -0.048386845737695693969726562500 -0.047707021236419677734375000000 0.002343902131542563438415527344 -0.032687738537788391113281250000 -0.032429035753011703491210937500 -0.090256214141845703125000000000 -0.066381439566612243652343750000 -0.072954021394252777099609375000 -0.047722779214382171630859375000 -0.026952156797051429748535156250 -0.064632885158061981201171875000 -0.017011692747473716735839843750 0.006846433971077203750610351562 -0.018773188814520835876464843750 -0.040038336068391799926757812500 -0.070421323180198669433593750000 -0.005875633563846349716186523438 -0.076592989265918731689453125000 0.020778715610504150390625000000 -0.013523175381124019622802734375 -0.030077476054430007934570312500 -0.029437744989991188049316406250 -0.077653795480728149414062500000 -0.041104350239038467407226562500 -0.051806006580591201782226562500 -0.032335493713617324829101562500 -0.039584673941135406494140625000 -0.027244729921221733093261718750 -0.048833031207323074340820312500 -0.027351966127753257751464843750 -0.060759954154491424560546875000 -0.114016316831111907958984375000 -0.073033139109611511230468750000 -0.092825770378112792968750000000 -0.077952943742275238037109375000 -0.016744965687394142150878906250 -0.038452152162790298461914062500 -0.009002531878650188446044921875 -0.056887064129114151000976562500 -0.098865695297718048095703125000 -0.084491588175296783447265625000 -0.023844860494136810302734375000 -0.042933437973260879516601562500 -0.043082542717456817626953125000 -0.036076173186302185058593750000 -0.076906621456146240234375000000 -0.047910124063491821289062500000 -0.037132535129785537719726562500 -0.014954709447920322418212890625 -0.039682023227214813232421875000 -0.048153195530176162719726562500 0.017935324460268020629882812500 -0.110208347439765930175781250000 -0.077524311840534210205078125000 -0.057395551353693008422851562500 0.016244575381278991699218750000 -0.073106214404106140136718750000 -0.012333905324339866638183593750 -0.015315935947000980377197265625 -0.036801271140575408935546875000 -0.086400464177131652832031250000 -0.025423366576433181762695312500 -0.099975496530532836914062500000 -0.070823483169078826904296875000 -0.074277013540267944335937500000 -0.075875870883464813232421875000 -0.045581888407468795776367187500 -0.059550330042839050292968750000 -0.025382453575730323791503906250 -0.063239082694053649902343750000 -0.046946220099925994873046875000 -0.106495991349220275878906250000 -0.018233874812722206115722656250 -0.027164550498127937316894531250 -0.074969813227653503417968750000 -0.028025660663843154907226562500 -0.035287845879793167114257812500 -0.020324200391769409179687500000 -0.051142022013664245605468750000 -0.042135670781135559082031250000 -0.062085699290037155151367187500 -0.001148501061834394931793212891 -0.112058617174625396728515625000 -0.045634303241968154907226562500 -0.035366017371416091918945312500 -0.058264166116714477539062500000 -0.042156890034675598144531250000 -0.042967025190591812133789062500 -0.048387747257947921752929687500 -0.126184523105621337890625000000 -0.059184178709983825683593750000 -0.081434696912765502929687500000 -0.084323488175868988037109375000 -0.017523111775517463684082031250 0.000118373907753266394138336182 -0.053425960242748260498046875000 -0.051485046744346618652343750000 -0.029485424980521202087402343750 -0.028053015470504760742187500000 -0.045316979289054870605468750000 -0.081294126808643341064453125000 -0.048463679850101470947265625000 -0.007555166725069284439086914062 -0.035107195377349853515625000000 -0.044202890247106552124023437500 -0.080660313367843627929687500000 -0.119824975728988647460937500000 0.005319179035723209381103515625 -0.063519798219203948974609375000 -0.111018516123294830322265625000 -0.078066833317279815673828125000 -0.061444669961929321289062500000 -0.090234838426113128662109375000 -0.086318843066692352294921875000 -0.057731170207262039184570312500 -0.051827542483806610107421875000 -0.098679155111312866210937500000 -0.096357047557830810546875000000 -0.018456917256116867065429687500 -0.047550641000270843505859375000 -0.055715452879667282104492187500 -0.076636962592601776123046875000 -0.068155929446220397949218750000 -0.093324497342109680175781250000 -0.038711760193109512329101562500 -0.021508948877453804016113281250 -0.059066403657197952270507812500 -0.053236640989780426025390625000 -0.077512592077255249023437500000 -0.096384719014167785644531250000 -0.034835956990718841552734375000 0.020529475063085556030273437500 -0.041301749646663665771484375000 -0.053763300180435180664062500000 -0.027435064315795898437500000000 -0.090224727988243103027343750000 -0.096398867666721343994140625000 -0.059503495693206787109375000000 -0.058158271014690399169921875000 -0.045794580131769180297851562500 -0.124428808689117431640625000000 -0.048988748341798782348632812500 -0.013865674845874309539794921875 -0.063215516507625579833984375000 -0.110016457736492156982421875000 -0.026345631107687950134277343750 -0.022006891667842864990234375000 0.013634603470563888549804687500 -0.012893371284008026123046875000 -0.065952032804489135742187500000 0.010900005698204040527343750000 -0.058763928711414337158203125000 -0.074843972921371459960937500000 -0.060745175927877426147460937500 -0.056726131588220596313476562500 -0.119128398597240447998046875000 -0.082039073109626770019531250000 -0.078690029680728912353515625000 -0.057029601186513900756835937500 -0.112613610923290252685546875000 -0.041255548596382141113281250000 -0.024244483560323715209960937500 -0.114633813500404357910156250000 -0.024959417060017585754394531250 -0.055717591196298599243164062500 -0.086829461157321929931640625000 -0.012954642064869403839111328125 -0.046207096427679061889648437500 -0.071918845176696777343750000000 0.007763045374304056167602539062 -0.083473652601242065429687500000 -0.050547223538160324096679687500 -0.110210612416267395019531250000 -0.123032197356224060058593750000 0.003245075233280658721923828125 -0.012182979844510555267333984375 -0.153553932905197143554687500000 0.017905017361044883728027343750 -0.055215712636709213256835937500 -0.062176499515771865844726562500 -0.057908318936824798583984375000 -0.039511393755674362182617187500 -0.062636889517307281494140625000 -0.058061797171831130981445312500 -0.022704495117068290710449218750 -0.033056769520044326782226562500 -0.166559010744094848632812500000 -0.063706703484058380126953125000 -0.056295454502105712890625000000 -0.046256892383098602294921875000 -0.053679816424846649169921875000 -0.064603768289089202880859375000 -0.012975137680768966674804687500 -0.014021012932062149047851562500 -0.087483964860439300537109375000 -0.148169219493865966796875000000 -0.017519006505608558654785156250 -0.081356145441532135009765625000 -0.102837368845939636230468750000 -0.003981913439929485321044921875 -0.014039183035492897033691406250 -0.037294447422027587890625000000 -0.107151478528976440429687500000 -0.034275759011507034301757812500 -0.082182303071022033691406250000 -0.056266892701387405395507812500 -0.033894844353199005126953125000 -0.008295719511806964874267578125 -0.051449052989482879638671875000 -0.068832062184810638427734375000 -0.020893653854727745056152343750 -0.067756153643131256103515625000 -0.065420098602771759033203125000 -0.073637798428535461425781250000 -0.069277063012123107910156250000 -0.106517404317855834960937500000 -0.026840401813387870788574218750 -0.076422698795795440673828125000 -0.075752459466457366943359375000 -0.057905204594135284423828125000 -0.002418348798528313636779785156 -0.063639298081398010253906250000 -0.104518622159957885742187500000 -0.026636539027094841003417968750 -0.092371039092540740966796875000 -0.035636834800243377685546875000 -0.015021887607872486114501953125 -0.010270385071635246276855468750 -0.021178225055336952209472656250 -0.017559621483087539672851562500 -0.072504624724388122558593750000 -0.111565969884395599365234375000 -0.065414547920227050781250000000 -0.089421354234218597412109375000 -0.047566242516040802001953125000 -0.057162959128618240356445312500 -0.039645936340093612670898437500 0.024366237223148345947265625000 -0.018671493977308273315429687500 -0.015014706179499626159667968750 -0.074314638972282409667968750000 -0.039954379200935363769531250000 -0.079559162259101867675781250000 -0.093821465969085693359375000000 0.000968611682765185832977294922 -0.037758205085992813110351562500 -0.064028449356555938720703125000 -0.035597119480371475219726562500 -0.052889477461576461791992187500 -0.070390604436397552490234375000 -0.063746996223926544189453125000 -0.012316675856709480285644531250 -0.041302934288978576660156250000 -0.013363841921091079711914062500 -0.097466483712196350097656250000 -0.012144491076469421386718750000 -0.016564993187785148620605468750 -0.073876723647117614746093750000 -0.095952108502388000488281250000 -0.126802399754524230957031250000 -0.012038799002766609191894531250 -0.047248948365449905395507812500 -0.109913893043994903564453125000 0.006955342832952737808227539062 -0.073928192257881164550781250000 -0.001456731115467846393585205078 -0.089461900293827056884765625000 -0.048027716577053070068359375000 -0.075678542256355285644531250000 -0.099463135004043579101562500000 -0.107203766703605651855468750000 -0.030906803905963897705078125000 -0.056736577302217483520507812500 -0.072229556739330291748046875000 -0.102812200784683227539062500000 -0.001504888175986707210540771484 0.049548946321010589599609375000 -0.067205734550952911376953125000 -0.137694418430328369140625000000 -0.060596082359552383422851562500 -0.024509808048605918884277343750 -0.083867184817790985107421875000 -0.131318837404251098632812500000 -0.018324062228202819824218750000 -0.042204327881336212158203125000 0.003070298815146088600158691406 0.047297615557909011840820312500 -0.023813001811504364013671875000 -0.064981684088706970214843750000 -0.073261260986328125000000000000 -0.056010294705629348754882812500 -0.119840972125530242919921875000 -0.023901963606476783752441406250 -0.098784215748310089111328125000 -0.025272803381085395812988281250 -0.017957886680960655212402343750 -0.077703528106212615966796875000 -0.049773618578910827636718750000 -0.114338979125022888183593750000 -0.038895525038242340087890625000 -0.071152165532112121582031250000 -0.131231039762496948242187500000 -0.061764076352119445800781250000 0.041811566799879074096679687500 -0.086189299821853637695312500000 -0.132181018590927124023437500000 -0.067127428948879241943359375000 -0.065988115966320037841796875000 -0.032806050032377243041992187500 0.019954938441514968872070312500 0.016448611393570899963378906250 -0.136133477091789245605468750000 -0.001305613899603486061096191406 -0.024317122995853424072265625000 -0.076913960278034210205078125000 -0.041107386350631713867187500000 -0.074858196079730987548828125000 0.010848423466086387634277343750 -0.091561250388622283935546875000 -0.028460869565606117248535156250 -0.099381782114505767822265625000 -0.081758268177509307861328125000 -0.023226674646139144897460937500 -0.023399701341986656188964843750 -0.079436779022216796875000000000 -0.031695552170276641845703125000 -0.059551697224378585815429687500 -0.016231156885623931884765625000 -0.075098924338817596435546875000 -0.016197506338357925415039062500 -0.060690294951200485229492187500 -0.091792725026607513427734375000 -0.076366111636161804199218750000 -0.061609774827957153320312500000 -0.069352038204669952392578125000 -0.086132965981960296630859375000 -0.065927006304264068603515625000 -0.097984723746776580810546875000 -0.025534365326166152954101562500 -0.082954429090023040771484375000 -0.066840559244155883789062500000 0.008373727090656757354736328125 -0.035778783261775970458984375000 -0.065546557307243347167968750000 0.005626529455184936523437500000 -0.048083525151014328002929687500 -0.098202951252460479736328125000 -0.068939000368118286132812500000 -0.056759286671876907348632812500 -0.125210806727409362792968750000 -0.040081467479467391967773437500 -0.148718476295471191406250000000 -0.061957165598869323730468750000 -0.075138941407203674316406250000 -0.041743475943803787231445312500 -0.115985319018363952636718750000 -0.112313061952590942382812500000 -0.074709974229335784912109375000 -0.121177338063716888427734375000 -0.078683398663997650146484375000 0.008047543466091156005859375000 -0.026562567800283432006835937500 -0.159673541784286499023437500000 -0.011706862598657608032226562500 -0.048326980322599411010742187500 0.044074658304452896118164062500 0.004151449073106050491333007812 -0.125979363918304443359375000000 -0.098316006362438201904296875000 -0.056893251836299896240234375000 -0.054405678063631057739257812500 -0.089471600949764251708984375000 -0.076130673289299011230468750000 -0.092043235898017883300781250000 -0.047016900032758712768554687500 0.017981100827455520629882812500 -0.082809209823608398437500000000 -0.014806169085204601287841796875 -0.043372735381126403808593750000 -0.004934858530759811401367187500 -0.044169850647449493408203125000 0.010798092000186443328857421875 -0.009607577696442604064941406250 -0.074737355113029479980468750000 -0.054091662168502807617187500000 -0.092488467693328857421875000000 -0.074782207608222961425781250000 -0.019241260364651679992675781250 -0.064100004732608795166015625000 -0.073121592402458190917968750000 -0.007710810285061597824096679688 -0.070674262940883636474609375000 -0.069513902068138122558593750000 0.012861395254731178283691406250 -0.049860000610351562500000000000 -0.073757864534854888916015625000 -0.054386448115110397338867187500 -0.094037137925624847412109375000 -0.069583103060722351074218750000 -0.020537717267870903015136718750 -0.052697326987981796264648437500 -0.053913362324237823486328125000 -0.099368125200271606445312500000 -0.077739767730236053466796875000 -0.047437075525522232055664062500 -0.011479170992970466613769531250 -0.032243795692920684814453125000 -0.110950551927089691162109375000 -0.056977711617946624755859375000 -0.045285128057003021240234375000 -0.069036900997161865234375000000 -0.101680226624011993408203125000 -0.071498587727546691894531250000 -0.059749610722064971923828125000 -0.014757790602743625640869140625 -0.026423970237374305725097656250 -0.054246630519628524780273437500 -0.085575558245182037353515625000 -0.073312133550643920898437500000 0.023838616907596588134765625000 -0.051368091255426406860351562500 -0.077526651322841644287109375000 -0.023821206763386726379394531250 -0.079054191708564758300781250000 -0.065807834267616271972656250000 -0.134153723716735839843750000000 -0.106662273406982421875000000000 -0.055739212781190872192382812500 -0.081601336598396301269531250000 -0.072094686329364776611328125000 -0.086455360054969787597656250000 -0.071861296892166137695312500000 -0.089251443743705749511718750000 -0.016322607174515724182128906250 -0.007903297431766986846923828125 -0.091209806501865386962890625000 -0.049024574458599090576171875000 -0.041456032544374465942382812500 -0.057856913655996322631835937500 -0.024661300703883171081542968750 -0.073832273483276367187500000000 -0.053200185298919677734375000000 -0.032805442810058593750000000000 -0.043399147689342498779296875000 -0.082693174481391906738281250000 -0.094446890056133270263671875000 -0.131793618202209472656250000000 0.021794972941279411315917968750 -0.055547636002302169799804687500 -0.082143343985080718994140625000 -0.123913705348968505859375000000 -0.065826639533042907714843750000 0.001600548624992370605468750000 -0.057457368820905685424804687500 -0.014357400126755237579345703125 -0.075003318488597869873046875000 -0.030872965231537818908691406250 -0.085220068693161010742187500000 -0.100832082331180572509765625000 -0.021460926160216331481933593750 -0.038784526288509368896484375000 -0.082845658063888549804687500000 -0.058373991400003433227539062500 -0.017137363553047180175781250000 -0.055032894015312194824218750000 -0.049428116530179977416992187500 -0.107251383364200592041015625000 -0.039084244519472122192382812500 -0.056734219193458557128906250000 -0.060667261481285095214843750000 -0.110371872782707214355468750000 -0.017113536596298217773437500000 -0.060164313763380050659179687500 -0.021155839785933494567871093750 -0.029093993827700614929199218750 -0.082314796745777130126953125000 -0.081401906907558441162109375000 0.008009724318981170654296875000 -0.051125634461641311645507812500 -0.075821533799171447753906250000 -0.079087711870670318603515625000 -0.017506226897239685058593750000 -0.091856181621551513671875000000 -0.110887482762336730957031250000 -0.042628701776266098022460937500 -0.030101193115115165710449218750 -0.046140778809785842895507812500 -0.051181435585021972656250000000 -0.034642335027456283569335937500 -0.075600512325763702392578125000 -0.019569968804717063903808593750 -0.017455751076340675354003906250 -0.071034841239452362060546875000 0.004850501660257577896118164062 -0.068801254034042358398437500000 -0.068728916347026824951171875000 -0.080799929797649383544921875000 -0.090591572225093841552734375000 -0.056646343320608139038085937500 0.011676223017275333404541015625 -0.085245445370674133300781250000 -0.046850062906742095947265625000 -0.055184561759233474731445312500 -0.028027497231960296630859375000 -0.037198025733232498168945312500 -0.047964632511138916015625000000 -0.088552914559841156005859375000 -0.061902653425931930541992187500 -0.068844109773635864257812500000 -0.061160400509834289550781250000 -0.083091787993907928466796875000 -0.080220893025398254394531250000 -0.168408319354057312011718750000 -0.023470625281333923339843750000 0.006278152577579021453857421875 -0.094937667250633239746093750000 -0.038137875497341156005859375000 -0.097270131111145019531250000000 -0.064447201788425445556640625000 -0.068331539630889892578125000000 -0.030365722253918647766113281250 -0.073094397783279418945312500000 -0.028455905616283416748046875000 -0.025018170475959777832031250000 -0.023577248677611351013183593750 -0.071477316319942474365234375000 -0.024791665375232696533203125000 -0.086643137037754058837890625000 -0.105194717645645141601562500000 -0.082191571593284606933593750000 -0.015779580920934677124023437500 -0.118050232529640197753906250000 -0.034792385995388031005859375000 -0.039493549615144729614257812500 -0.024478036910295486450195312500 -0.055633649230003356933593750000 -0.069136403501033782958984375000 -0.098929770290851593017578125000 -0.040269602090120315551757812500 -0.052615348249673843383789062500 -0.055777247995138168334960937500 -0.091677941381931304931640625000 -0.098614595830440521240234375000 -0.096119262278079986572265625000 -0.084080636501312255859375000000 0.056152772158384323120117187500 -0.047527149319648742675781250000 -0.128085613250732421875000000000 -0.077841691672801971435546875000 -0.099401697516441345214843750000 -0.044672556221485137939453125000 -0.021926235407590866088867187500 -0.125375315546989440917968750000 -0.025130705907940864562988281250 -0.047790765762329101562500000000 0.002057624980807304382324218750 -0.090845771133899688720703125000 0.028800541535019874572753906250 -0.074156351387500762939453125000 -0.112473584711551666259765625000 0.007726149633526802062988281250 0.005327071528881788253784179688 -0.126218274235725402832031250000 -0.087363414466381072998046875000 -0.062216579914093017578125000000 -0.061710678040981292724609375000 -0.077694959938526153564453125000 -0.069186791777610778808593750000 -0.035485208034515380859375000000 -0.070650704205036163330078125000 -0.083822749555110931396484375000 -0.067939408123493194580078125000 -0.042996663600206375122070312500 -0.124839544296264648437500000000 -0.082695521414279937744140625000 0.004204764496535062789916992188 -0.066280484199523925781250000000 -0.014775998890399932861328125000 -0.055037498474121093750000000000 0.027357384562492370605468750000 -0.058422267436981201171875000000 -0.037245888262987136840820312500 -0.109313286840915679931640625000 -0.074144870042800903320312500000 -0.106565721333026885986328125000 -0.083631359040737152099609375000 -0.051091451197862625122070312500 -0.064125277101993560791015625000 -0.057304143905639648437500000000 -0.037440195679664611816406250000 -0.046056568622589111328125000000 -0.102128453552722930908203125000 -0.145621880888938903808593750000 -0.063650704920291900634765625000 -0.034719128161668777465820312500 -0.093604668974876403808593750000 -0.059356343001127243041992187500 -0.026313476264476776123046875000 -0.049965914338827133178710937500 -0.070310577750205993652343750000 -0.085056081414222717285156250000 -0.020657723769545555114746093750 -0.128831714391708374023437500000 -0.064872525632381439208984375000 -0.098269052803516387939453125000 -0.066441573202610015869140625000 -0.090367816388607025146484375000 -0.074781708419322967529296875000 -0.024518089368939399719238281250 -0.089700400829315185546875000000 -0.023431817069649696350097656250 -0.058590110391378402709960937500 -0.055246874690055847167968750000 -0.029342355206608772277832031250 -0.063898250460624694824218750000 -0.033413097262382507324218750000 -0.076292790472507476806640625000 -0.086085394024848937988281250000 -0.112705327570438385009765625000 -0.019514486193656921386718750000 -0.054002560675144195556640625000 -0.058963593095541000366210937500 -0.128857746720314025878906250000 -0.120872162282466888427734375000 -0.000007046095561236143112182617 -0.058227639645338058471679687500 -0.147781610488891601562500000000 -0.002366270869970321655273437500 -0.045742373913526535034179687500 -0.087031446397304534912109375000 -0.021683236584067344665527343750 -0.028936978429555892944335937500 -0.079269744455814361572265625000 -0.097958087921142578125000000000 -0.020787298679351806640625000000 -0.055220216512680053710937500000 -0.110003344714641571044921875000 -0.039801292121410369873046875000 -0.074948795139789581298828125000 0.018606688827276229858398437500 -0.086933448910713195800781250000 -0.111722558736801147460937500000 -0.024222109466791152954101562500 0.004874473903328180313110351562 -0.090969510376453399658203125000 -0.054032407701015472412109375000 -0.057245291769504547119140625000 -0.065988294780254364013671875000 -0.067792244255542755126953125000 -0.084872923791408538818359375000 -0.069443985819816589355468750000 -0.169594511389732360839843750000 -0.059147071093320846557617187500 -0.020204652100801467895507812500 -0.088629283010959625244140625000 -0.045800622552633285522460937500 -0.021973554044961929321289062500 -0.075744017958641052246093750000 -0.034044072031974792480468750000 -0.074725605547428131103515625000 -0.046715743839740753173828125000 -0.051262386143207550048828125000 -0.064120806753635406494140625000 -0.111219815909862518310546875000 -0.077546082437038421630859375000 -0.099301248788833618164062500000 0.004062611609697341918945312500 -0.081778869032859802246093750000 -0.043514989316463470458984375000 -0.083087824285030364990234375000 -0.005018946249037981033325195312 -0.047950796782970428466796875000 -0.111478917300701141357421875000 -0.121203184127807617187500000000 -0.051274422556161880493164062500 -0.104236893355846405029296875000 0.008750161156058311462402343750 -0.057769492268562316894531250000 -0.089086174964904785156250000000 -0.046124275773763656616210937500 -0.034632083028554916381835937500 -0.038606110960245132446289062500 -0.046919289976358413696289062500 -0.114672034978866577148437500000 -0.057984281331300735473632812500 -0.036250535398721694946289062500 0.030148653313517570495605468750 -0.152239233255386352539062500000 -0.062604591250419616699218750000 -0.010054871439933776855468750000 -0.081110239028930664062500000000 -0.095597706735134124755859375000 -0.019404182210564613342285156250 -0.093301251530647277832031250000 -0.070298314094543457031250000000 -0.087108284235000610351562500000 -0.126092910766601562500000000000 -0.080986134707927703857421875000 -0.011721210554242134094238281250 -0.031863428652286529541015625000 -0.054245013743638992309570312500 -0.072076842188835144042968750000 -0.055528111755847930908203125000 -0.109119653701782226562500000000 -0.059113066643476486206054687500 -0.086388044059276580810546875000 -0.044318392872810363769531250000 -0.037220139056444168090820312500 -0.103290751576423645019531250000 -0.085347764194011688232421875000 -0.104735054075717926025390625000 -0.140806347131729125976562500000 -0.060368124395608901977539062500 -0.107064343988895416259765625000 -0.072142452001571655273437500000 -0.045213356614112854003906250000 0.018971575424075126647949218750 -0.025705214589834213256835937500 -0.035949490964412689208984375000 -0.103497557342052459716796875000 -0.068265415728092193603515625000 -0.120446927845478057861328125000 -0.061706397682428359985351562500 -0.117192089557647705078125000000 -0.140411496162414550781250000000 -0.048294935375452041625976562500 -0.007549530826508998870849609375 -0.039701078087091445922851562500 -0.083606161177158355712890625000 -0.073425978422164916992187500000 -0.112326689064502716064453125000 -0.088097400963306427001953125000 -0.052225675433874130249023437500 -0.042837321758270263671875000000 -0.068183332681655883789062500000 -0.065659359097480773925781250000 -0.074593588709831237792968750000 -0.052829511463642120361328125000 -0.055968686938285827636718750000 -0.052707653492689132690429687500 -0.020804161205887794494628906250 -0.079051874577999114990234375000 -0.080825008451938629150390625000 -0.150459066033363342285156250000 -0.090929388999938964843750000000 -0.135836020112037658691406250000 -0.042301252484321594238281250000 -0.136268079280853271484375000000 -0.010807030834257602691650390625 -0.074050888419151306152343750000 -0.115446738898754119873046875000 -0.164386481046676635742187500000 -0.017434893175959587097167968750 -0.032160032540559768676757812500 -0.077821686863899230957031250000 -0.072518259286880493164062500000 -0.066820286214351654052734375000 -0.073194667696952819824218750000 -0.125301644206047058105468750000 -0.099264554679393768310546875000 -0.069747693836688995361328125000 -0.074721857905387878417968750000 -0.051209583878517150878906250000 -0.068390950560569763183593750000 -0.017893809825181961059570312500 -0.119527913630008697509765625000 -0.062032625079154968261718750000 -0.055769894272089004516601562500 -0.037695504724979400634765625000 -0.098497703671455383300781250000 -0.095701359212398529052734375000 -0.066136799752712249755859375000 -0.063482575118541717529296875000 -0.099085621535778045654296875000 -0.064620494842529296875000000000 -0.111517339944839477539062500000 -0.047690328210592269897460937500 -0.135438874363899230957031250000 0.002525574993342161178588867188 -0.053036272525787353515625000000 -0.060169856995344161987304687500 -0.161851629614830017089843750000 -0.140929505228996276855468750000 -0.037648152559995651245117187500 -0.086546771228313446044921875000 -0.079009018838405609130859375000 -0.063897363841533660888671875000 -0.062676489353179931640625000000 -0.101524055004119873046875000000 -0.116744399070739746093750000000 -0.041342817246913909912109375000 -0.099682666361331939697265625000 -0.035446025431156158447265625000 -0.094320856034755706787109375000 -0.122713334858417510986328125000 -0.049274642020463943481445312500 -0.124357245862483978271484375000 -0.042035609483718872070312500000 -0.067042902112007141113281250000 -0.109399370849132537841796875000 -0.023064276203513145446777343750 -0.126093119382858276367187500000 -0.040773071348667144775390625000 -0.110709935426712036132812500000 -0.110700108110904693603515625000 -0.084383331239223480224609375000 -0.041919715702533721923828125000 -0.115218937397003173828125000000 -0.006430155131965875625610351562 -0.087509281933307647705078125000 -0.056406632065773010253906250000 -0.103159762918949127197265625000 -0.002211565850302577018737792969 -0.059039331972599029541015625000 -0.064140677452087402343750000000 -0.067041203379631042480468750000 -0.084369771182537078857421875000 -0.075891532003879547119140625000 -0.097266495227813720703125000000 -0.131260454654693603515625000000 -0.072877697646617889404296875000 -0.026073699817061424255371093750 -0.069731034338474273681640625000 -0.120274581015110015869140625000 -0.059273283928632736206054687500 -0.121920049190521240234375000000 -0.080149888992309570312500000000 -0.048268299549818038940429687500 -0.111046485602855682373046875000 -0.021998308598995208740234375000 -0.097689524292945861816406250000 -0.011587383225560188293457031250 -0.108690425753593444824218750000 -0.076630502939224243164062500000 -0.085422493517398834228515625000 -0.154347777366638183593750000000 -0.073023088276386260986328125000 -0.063930571079254150390625000000 -0.008193619549274444580078125000 -0.085222378373146057128906250000 -0.099906153976917266845703125000 -0.042039312422275543212890625000 -0.057302597910165786743164062500 -0.107538685202598571777343750000 -0.118460841476917266845703125000 -0.081683799624443054199218750000 -0.095460653305053710937500000000 -0.050456777215003967285156250000 -0.124789983034133911132812500000 -0.068368323147296905517578125000 -0.099864788353443145751953125000 -0.093278914690017700195312500000 -0.100325442850589752197265625000 -0.169723287224769592285156250000 -0.089214205741882324218750000000 -0.136202871799468994140625000000 -0.045427221804857254028320312500 -0.123915508389472961425781250000 -0.115144833922386169433593750000 -0.064871676266193389892578125000 -0.047680452466011047363281250000 -0.135961174964904785156250000000 -0.023501969873905181884765625000 -0.021392440423369407653808593750 -0.078251607716083526611328125000 -0.099411480128765106201171875000 -0.105320215225219726562500000000 -0.058837220072746276855468750000 -0.026055753231048583984375000000 -0.057277087122201919555664062500 0.003482069820165634155273437500 -0.035785742104053497314453125000 -0.121447712182998657226562500000 -0.119458243250846862792968750000 -0.097913488745689392089843750000 -0.058248404413461685180664062500 -0.101778559386730194091796875000 -0.028761770576238632202148437500 -0.111067108809947967529296875000 -0.072197899222373962402343750000 -0.078544765710830688476562500000 -0.031799301505088806152343750000 -0.124177090823650360107421875000 -0.069332391023635864257812500000 -0.116971082985401153564453125000 -0.127143099904060363769531250000 -0.077166743576526641845703125000 -0.074207790195941925048828125000 -0.110644608736038208007812500000 -0.077518992125988006591796875000 -0.094559952616691589355468750000 -0.018488207831978797912597656250 -0.102224454283714294433593750000 0.007219497114419937133789062500 -0.090815514326095581054687500000 -0.060383457690477371215820312500 -0.154315948486328125000000000000 -0.076111465692520141601562500000 -0.081260487437248229980468750000 -0.105856843292713165283203125000 -0.099207662045955657958984375000 -0.069497615098953247070312500000 -0.056207019835710525512695312500 -0.005241787526756525039672851562 -0.089440815150737762451171875000 -0.061707396060228347778320312500 -0.108142353594303131103515625000 -0.035735964775085449218750000000 -0.082060448825359344482421875000 -0.086002953350543975830078125000 -0.046603862196207046508789062500 -0.114788174629211425781250000000 -0.031245019286870956420898437500 -0.045070804655551910400390625000 -0.033457044512033462524414062500 -0.002748542465269565582275390625 -0.068315029144287109375000000000 -0.093873046338558197021484375000 -0.086069732904434204101562500000 -0.085214160382747650146484375000 -0.094699963927268981933593750000 0.007263592910021543502807617188 -0.158605068922042846679687500000 -0.075226709246635437011718750000 -0.011117701418697834014892578125 -0.040723714977502822875976562500 -0.050718847662210464477539062500 0.024563439190387725830078125000 -0.013479879125952720642089843750 -0.123823121190071105957031250000 -0.062379330396652221679687500000 -0.036203131079673767089843750000 -0.093383483588695526123046875000 -0.105672359466552734375000000000 -0.018238885328173637390136718750 -0.122309371829032897949218750000 -0.036657914519309997558593750000 -0.062886558473110198974609375000 -0.017174167558550834655761718750 -0.060504369437694549560546875000 -0.019467607140541076660156250000 -0.121914416551589965820312500000 -0.082244627177715301513671875000 -0.092636868357658386230468750000 -0.061190735548734664916992187500 -0.080479256808757781982421875000 -0.084182098507881164550781250000 -0.106184430420398712158203125000 -0.089479357004165649414062500000 0.000893894815817475318908691406 -0.067404069006443023681640625000 -0.012872950173914432525634765625 -0.031356323510408401489257812500 -0.113935470581054687500000000000 -0.011388448067009449005126953125 -0.112857326865196228027343750000 -0.047785948961973190307617187500 -0.075633421540260314941406250000 -0.011182446032762527465820312500 -0.089679837226867675781250000000 -0.122513294219970703125000000000 -0.009582628495991230010986328125 -0.054650243371725082397460937500 -0.090156033635139465332031250000 -0.075946666300296783447265625000 -0.023478465154767036437988281250 -0.011719123460352420806884765625 0.023753734305500984191894531250 -0.096205331385135650634765625000 -0.085657231509685516357421875000 -0.075098618865013122558593750000 -0.075464218854904174804687500000 -0.058779451996088027954101562500 -0.110407516360282897949218750000 -0.124533347785472869873046875000 -0.032913058996200561523437500000 -0.086059391498565673828125000000 -0.066797889769077301025390625000 -0.014026360586285591125488281250 -0.048983410000801086425781250000 -0.038041807711124420166015625000 -0.068373344838619232177734375000 -0.025233274325728416442871093750 -0.074699953198432922363281250000 -0.046851355582475662231445312500 -0.086526013910770416259765625000 -0.083948016166687011718750000000 -0.112777732312679290771484375000 -0.086661435663700103759765625000 -0.167136728763580322265625000000 -0.105421401560306549072265625000 -0.112791411578655242919921875000 -0.107662804424762725830078125000 -0.129764541983604431152343750000 -0.108490757644176483154296875000 -0.111591577529907226562500000000 -0.038977030664682388305664062500 -0.033551543951034545898437500000 -0.073162645101547241210937500000 -0.091732770204544067382812500000 -0.089251153171062469482421875000 -0.117105543613433837890625000000 -0.060896359384059906005859375000 -0.107141815125942230224609375000 -0.097604848444461822509765625000 -0.055391754955053329467773437500 -0.131399512290954589843750000000 -0.106701366603374481201171875000 