-0.182223305106163024902343750000 0.218822374939918518066406250000 0.177974000573158264160156250000 0.198272839188575744628906250000 0.222072377800941467285156250000 0.217416822910308837890625000000 0.305441409349441528320312500000 0.209456071257591247558593750000 0.134312525391578674316406250000 0.231378719210624694824218750000 0.250349640846252441406250000000 0.165320068597793579101562500000 0.192258998751640319824218750000 0.020219990983605384826660156250 0.076585829257965087890625000000 0.238101869821548461914062500000 0.191858544945716857910156250000 0.098226621747016906738281250000 0.049058873206377029418945312500 0.226825699210166931152343750000 0.104038842022418975830078125000 0.161744251847267150878906250000 0.187406390905380249023437500000 0.178040787577629089355468750000 0.171952173113822937011718750000 0.118168987333774566650390625000 -0.028411889448761940002441406250 0.111319415271282196044921875000 0.154837459325790405273437500000 0.124590791761875152587890625000 0.141818344593048095703125000000 0.086053453385829925537109375000 0.069532297551631927490234375000 0.101034641265869140625000000000 0.139375314116477966308593750000 0.144588783383369445800781250000 0.078084029257297515869140625000 0.003980703186243772506713867188 0.124023541808128356933593750000 0.062516972422599792480468750000 0.180432081222534179687500000000 0.057680889964103698730468750000 0.124036096036434173583984375000 0.156471967697143554687500000000 0.210384309291839599609375000000 0.136938750743865966796875000000 0.191812694072723388671875000000 0.157982379198074340820312500000 0.147398591041564941406250000000 0.042378537356853485107421875000 0.147628277540206909179687500000 0.061026349663734436035156250000 0.117813609540462493896484375000 0.129575297236442565917968750000 0.065632730722427368164062500000 0.157223045825958251953125000000 0.160303875803947448730468750000 0.095586478710174560546875000000 -0.063187405467033386230468750000 0.165734454989433288574218750000 0.088654346764087677001953125000 0.078068666160106658935546875000 0.043903067708015441894531250000 0.104676358401775360107421875000 -0.007427826058119535446166992188 0.042613007128238677978515625000 0.052088350057601928710937500000 0.039946656674146652221679687500 0.088079549372196197509765625000 0.047377716749906539916992187500 0.078411780297756195068359375000 0.044605929404497146606445312500 0.102303512394428253173828125000 0.076933078467845916748046875000 -0.031413830816745758056640625000 -0.117182172834873199462890625000 -0.064106054604053497314453125000 0.100852839648723602294921875000 0.043659053742885589599609375000 0.108014278113842010498046875000 0.118713192641735076904296875000 0.099687181413173675537109375000 0.047524537891149520874023437500 0.009783914312720298767089843750 0.090434908866882324218750000000 0.045501820743083953857421875000 0.186702936887741088867187500000 0.122170299291610717773437500000 0.076245054602622985839843750000 0.073514409363269805908203125000 0.061169736087322235107421875000 0.062638796865940093994140625000 0.070495180785655975341796875000 0.101043462753295898437500000000 0.097305037081241607666015625000 0.067848138511180877685546875000 0.122423231601715087890625000000 0.069698378443717956542968750000 0.003691112622618675231933593750 0.049482382833957672119140625000 0.099932514131069183349609375000 0.126985400915145874023437500000 0.042859345674514770507812500000 0.155362978577613830566406250000 0.062988959252834320068359375000 0.044944059103727340698242187500 0.056670915335416793823242187500 0.101276688277721405029296875000 0.093946978449821472167968750000 0.013839090242981910705566406250 0.102042436599731445312500000000 0.067194052040576934814453125000 0.028962371870875358581542968750 0.077296458184719085693359375000 0.028884202241897583007812500000 -0.053860340267419815063476562500 0.050773516297340393066406250000 0.044119078665971755981445312500 0.030294086784124374389648437500 0.075869321823120117187500000000 0.021955650299787521362304687500 0.101996719837188720703125000000 0.095903813838958740234375000000 0.068882130086421966552734375000 0.031994421035051345825195312500 0.080221556127071380615234375000 0.139950782060623168945312500000 0.050252798944711685180664062500 0.050669293850660324096679687500 0.122391931712627410888671875000 0.096668049693107604980468750000 0.089892089366912841796875000000 0.103574179112911224365234375000 -0.063829816877841949462890625000 0.100154496729373931884765625000 0.075264886021614074707031250000 0.093378044664859771728515625000 0.128262355923652648925781250000 0.054370917379856109619140625000 0.105530679225921630859375000000 0.050977759063243865966796875000 0.077046610414981842041015625000 0.061655648052692413330078125000 0.059677962213754653930664062500 0.082885384559631347656250000000 0.101017378270626068115234375000 0.079787805676460266113281250000 0.012730069458484649658203125000 0.080199927091598510742187500000 -0.049655191600322723388671875000 0.013638293370604515075683593750 0.068781487643718719482421875000 -0.016268249601125717163085937500 0.056576889008283615112304687500 0.061429958790540695190429687500 0.007767784409224987030029296875 0.076437123119831085205078125000 0.029576081782579421997070312500 -0.009339785203337669372558593750 0.111710861325263977050781250000 -0.006653910502791404724121093750 0.020677421241998672485351562500 -0.037970550358295440673828125000 -0.073895283043384552001953125000 0.117094598710536956787109375000 0.103276193141937255859375000000 -0.061443775892257690429687500000 0.036800321191549301147460937500 0.029664862900972366333007812500 0.014626745134592056274414062500 0.123165376484394073486328125000 0.088604420423507690429687500000 0.075338892638683319091796875000 -0.002592137083411216735839843750 0.062080565840005874633789062500 0.041247729212045669555664062500 -0.002077465411275625228881835938 0.018171848729252815246582031250 0.052170492708683013916015625000 0.044081397354602813720703125000 0.039447095245122909545898437500 -0.003386482829228043556213378906 0.009607168845832347869873046875 0.040031593292951583862304687500 0.011400166898965835571289062500 0.010926553048193454742431640625 0.036506127566099166870117187500 0.116451703011989593505859375000 0.048571426421403884887695312500 0.043333217501640319824218750000 0.030084136873483657836914062500 -0.021290641278028488159179687500 0.030492203310132026672363281250 0.026505410671234130859375000000 0.093147858977317810058593750000 0.120399557054042816162109375000 0.059697419404983520507812500000 0.056104440242052078247070312500 -0.073132060468196868896484375000 0.071415603160858154296875000000 0.023888742551207542419433593750 0.124213054776191711425781250000 0.047879830002784729003906250000 0.032813653349876403808593750000 0.077486902475357055664062500000 0.105138935148715972900390625000 0.159940049052238464355468750000 0.009706341661512851715087890625 0.063602097332477569580078125000 0.010435073636472225189208984375 -0.058486349880695343017578125000 0.095742553472518920898437500000 0.031148541718721389770507812500 0.050993967801332473754882812500 0.028178898617625236511230468750 -0.015041710808873176574707031250 0.028880758211016654968261718750 -0.008030196651816368103027343750 0.085142672061920166015625000000 -0.008814824745059013366699218750 -0.018240388482809066772460937500 0.044056616723537445068359375000 0.069169111549854278564453125000 0.085813462734222412109375000000 0.074730351567268371582031250000 0.082899607717990875244140625000 0.059443399310111999511718750000 0.078700318932533264160156250000 0.049800574779510498046875000000 0.016891608014702796936035156250 0.058139700442552566528320312500 0.050675582140684127807617187500 0.051661629229784011840820312500 0.043313954025506973266601562500 0.028915718197822570800781250000 0.072063222527503967285156250000 -0.008313573896884918212890625000 0.080657720565795898437500000000 0.072793707251548767089843750000 0.046693451702594757080078125000 -0.047576576471328735351562500000 0.035286456346511840820312500000 0.056662682443857192993164062500 0.006624585017561912536621093750 0.046027496457099914550781250000 -0.028013687580823898315429687500 0.060384869575500488281250000000 -0.096172988414764404296875000000 -0.042871199548244476318359375000 -0.032887689769268035888671875000 0.035789515823125839233398437500 0.030174763873219490051269531250 0.012950311414897441864013671875 0.043724320828914642333984375000 -0.099428005516529083251953125000 0.013368120416998863220214843750 0.026647465303540229797363281250 -0.100630901753902435302734375000 -0.024788524955511093139648437500 0.052374012768268585205078125000 0.120625868439674377441406250000 0.048919424414634704589843750000 0.105821207165718078613281250000 0.115045487880706787109375000000 -0.039609242230653762817382812500 0.045330505818128585815429687500 0.060565847903490066528320312500 0.070762038230895996093750000000 0.117297209799289703369140625000 0.040035892277956008911132812500 0.134059593081474304199218750000 0.046695981174707412719726562500 -0.014759366400539875030517578125 -0.011364494450390338897705078125 -0.035198058933019638061523437500 -0.015916092321276664733886718750 -0.032514356076717376708984375000 0.006707294844090938568115234375 0.018137248232960700988769531250 0.087168201804161071777343750000 -0.051008727401494979858398437500 -0.000414022011682391166687011719 -0.058275762945413589477539062500 0.001792087452486157417297363281 0.096237204968929290771484375000 -0.019690534099936485290527343750 0.004676439799368381500244140625 0.000547149567864835262298583984 -0.060161314904689788818359375000 0.012809241190552711486816406250 0.019021773710846900939941406250 -0.020363027229905128479003906250 -0.001794450217857956886291503906 0.034432418644428253173828125000 0.053379505872726440429687500000 -0.004944073967635631561279296875 0.001887826132588088512420654297 0.119591385126113891601562500000 0.029473628848791122436523437500 -0.026258751749992370605468750000 0.010978361591696739196777343750 0.081129997968673706054687500000 0.035077221691608428955078125000 -0.009232566691935062408447265625 0.046991337090730667114257812500 0.129388108849525451660156250000 0.039010070264339447021484375000 0.034034095704555511474609375000 -0.012114629149436950683593750000 0.060283239930868148803710937500 0.017746372148394584655761718750 -0.004773797467350959777832031250 0.056874975562095642089843750000 0.038993883877992630004882812500 0.033028006553649902343750000000 0.034731891006231307983398437500 0.050156809389591217041015625000 -0.162169411778450012207031250000 -0.019605625420808792114257812500 -0.040494538843631744384765625000 0.063068807125091552734375000000 0.065422154963016510009765625000 0.049788862466812133789062500000 0.019011911004781723022460937500 0.037619914859533309936523437500 0.040137864649295806884765625000 0.006999620236456394195556640625 0.051226913928985595703125000000 -0.045738171786069869995117187500 0.059719540178775787353515625000 -0.091516867280006408691406250000 0.004928467795252799987792968750 0.012905060313642024993896484375 0.056148495525121688842773437500 0.022072281688451766967773437500 -0.009242268279194831848144531250 0.003965846262872219085693359375 0.050889808684587478637695312500 -0.042317885905504226684570312500 -0.006077531725168228149414062500 0.048469081521034240722656250000 0.077531643211841583251953125000 0.075978279113769531250000000000 -0.008512140251696109771728515625 -0.015373966656625270843505859375 0.024067157879471778869628906250 0.060078270733356475830078125000 0.065911933779716491699218750000 0.027534808963537216186523437500 0.003257601056247949600219726562 -0.014141727238893508911132812500 -0.012759753502905368804931640625 -0.028824301436543464660644531250 0.022449823096394538879394531250 0.014985174871981143951416015625 0.086998544633388519287109375000 0.044847290962934494018554687500 -0.033060733228921890258789062500 0.071351692080497741699218750000 0.032177705317735671997070312500 0.023295292630791664123535156250 0.038183744996786117553710937500 0.074920877814292907714843750000 0.088656291365623474121093750000 0.066640041768550872802734375000 0.121990568935871124267578125000 0.034506630152463912963867187500 0.010810040868818759918212890625 0.090197503566741943359375000000 0.044409055262804031372070312500 0.046217754483222961425781250000 0.042674999684095382690429687500 0.034323189407587051391601562500 0.031706534326076507568359375000 0.052336577326059341430664062500 -0.035476054996252059936523437500 -0.030004078522324562072753906250 0.091366238892078399658203125000 0.077904418110847473144531250000 -0.014311524108052253723144531250 0.038081645965576171875000000000 0.009529928676784038543701171875 0.028841454535722732543945312500 0.007862637750804424285888671875 0.045698493719100952148437500000 -0.063163906335830688476562500000 0.064466498792171478271484375000 0.065683633089065551757812500000 0.087180159986019134521484375000 0.017713231965899467468261718750 -0.011707109399139881134033203125 -0.009978082031011581420898437500 0.013687199912965297698974609375 -0.017144307494163513183593750000 0.007398560177534818649291992188 0.037709720432758331298828125000 0.030746465548872947692871093750 -0.020982593297958374023437500000 -0.011109326966106891632080078125 0.028288476169109344482421875000 0.048244073987007141113281250000 0.049849268049001693725585937500 0.022327953949570655822753906250 -0.030848668888211250305175781250 -0.012031774036586284637451171875 0.013521005399525165557861328125 -0.022200217470526695251464843750 0.011929957196116447448730468750 0.053096119314432144165039062500 0.071226224303245544433593750000 -0.055942278355360031127929687500 0.052311576902866363525390625000 -0.023144697770476341247558593750 -0.002429597312584519386291503906 0.040120985358953475952148437500 0.006537645589560270309448242188 -0.054887171834707260131835937500 -0.014363206923007965087890625000 0.085704430937767028808593750000 0.092856593430042266845703125000 0.026906453073024749755859375000 -0.034439016133546829223632812500 0.045014046132564544677734375000 0.021958339959383010864257812500 0.052846934646368026733398437500 -0.018915494903922080993652343750 0.019129179418087005615234375000 0.057104170322418212890625000000 -0.047572601586580276489257812500 -0.010545060969889163970947265625 0.029930686578154563903808593750 -0.040291942656040191650390625000 -0.006359871476888656616210937500 0.049651212990283966064453125000 -0.018523173406720161437988281250 0.075676962733268737792968750000 -0.020650694146752357482910156250 0.057431533932685852050781250000 0.001120207831263542175292968750 -0.036275044083595275878906250000 0.032630562782287597656250000000 0.000822856090962886810302734375 -0.004586386028677225112915039062 -0.060993034392595291137695312500 0.069188080728054046630859375000 -0.093414470553398132324218750000 0.027880256995558738708496093750 0.012187673710286617279052734375 0.073209628462791442871093750000 0.037265289574861526489257812500 0.025555159896612167358398437500 -0.002102638594806194305419921875 0.098890639841556549072265625000 -0.055586226284503936767578125000 0.008986935019493103027343750000 -0.050949938595294952392578125000 -0.027624351903796195983886718750 -0.061884816735982894897460937500 0.052186135202646255493164062500 0.014629195444285869598388671875 -0.048875212669372558593750000000 0.047214478254318237304687500000 -0.045064471662044525146484375000 -0.029417598620057106018066406250 0.033717978745698928833007812500 -0.089654810726642608642578125000 0.018808973953127861022949218750 -0.080984108150005340576171875000 0.007854434661567211151123046875 0.018014296889305114746093750000 0.012208024971187114715576171875 -0.071526236832141876220703125000 -0.014859601855278015136718750000 0.032587118446826934814453125000 -0.045964680612087249755859375000 0.052302226424217224121093750000 0.084066703915596008300781250000 0.000802544818725436925888061523 0.064917244017124176025390625000 -0.040388356894254684448242187500 -0.014790215529501438140869140625 0.016978936269879341125488281250 -0.063130922615528106689453125000 -0.059684500098228454589843750000 -0.040634203702211380004882812500 0.008671078830957412719726562500 0.038581535220146179199218750000 0.072347603738307952880859375000 -0.073493279516696929931640625000 -0.110240504145622253417968750000 -0.007874747738242149353027343750 -0.070393547415733337402343750000 0.062631972134113311767578125000 -0.050694920122623443603515625000 0.072582282125949859619140625000 -0.029666565358638763427734375000 0.025999942794442176818847656250 0.008061467669904232025146484375 0.062655456364154815673828125000 0.003868043189868330955505371094 0.038928668946027755737304687500 0.095578141510486602783203125000 0.011285410262644290924072265625 -0.030761409550905227661132812500 -0.130578473210334777832031250000 0.074557937681674957275390625000 -0.001819051336497068405151367188 -0.050977695733308792114257812500 0.011386967264115810394287109375 0.038344621658325195312500000000 0.112219028174877166748046875000 0.091098524630069732666015625000 0.048928432166576385498046875000 -0.015475517138838768005371093750 -0.036000672727823257446289062500 -0.105549551546573638916015625000 0.019854573532938957214355468750 0.016445841640233993530273437500 0.040022771805524826049804687500 -0.014711968600749969482421875000 -0.032688122242689132690429687500 0.009113490581512451171875000000 0.114536002278327941894531250000 -0.016876963898539543151855468750 0.009685254655778408050537109375 0.108118794858455657958984375000 0.066931381821632385253906250000 0.049118582159280776977539062500 -0.030936893075704574584960937500 0.011862367391586303710937500000 -0.005504866596311330795288085938 -0.006423949263989925384521484375 0.002014898695051670074462890625 0.006749576888978481292724609375 0.001037119189277291297912597656 -0.005812024697661399841308593750 -0.078965403139591217041015625000 -0.009731203317642211914062500000 -0.022098144516348838806152343750 -0.007796922232955694198608398438 -0.032361295074224472045898437500 0.037586811929941177368164062500 -0.042351886630058288574218750000 0.081711307168006896972656250000 -0.059551358222961425781250000000 0.061723705381155014038085937500 -0.033919718116521835327148437500 -0.026709178462624549865722656250 -0.093143895268440246582031250000 -0.019353581592440605163574218750 -0.006844440475106239318847656250 0.012166716158390045166015625000 0.040541965514421463012695312500 -0.006738041993230581283569335938 0.025585919618606567382812500000 -0.027842139825224876403808593750 -0.004151271656155586242675781250 0.071720406413078308105468750000 0.031426355242729187011718750000 -0.012771052308380603790283203125 -0.000008176721166819334030151367 -0.010051270946860313415527343750 0.043132450431585311889648437500 0.088402487337589263916015625000 -0.021267119795083999633789062500 0.052272990345954895019531250000 -0.009544944390654563903808593750 -0.052794076502323150634765625000 0.039837285876274108886718750000 0.084599219262599945068359375000 -0.008539739064872264862060546875 0.069737948477268218994140625000 -0.034797802567481994628906250000 0.024446830153465270996093750000 0.029496479779481887817382812500 0.027467425912618637084960937500 0.050977222621440887451171875000 0.004071884322911500930786132812 -0.020150167867541313171386718750 -0.036215897649526596069335937500 -0.053561672568321228027343750000 0.012859159149229526519775390625 0.035901818424463272094726562500 0.008500998839735984802246093750 -0.038802493363618850708007812500 0.019183307886123657226562500000 -0.000857405480928719043731689453 -0.080770045518875122070312500000 -0.026997018605470657348632812500 -0.027208048850297927856445312500 0.038540996611118316650390625000 -0.028972469270229339599609375000 0.045177105814218521118164062500 0.021566227078437805175781250000 0.022834239527583122253417968750 -0.037788677960634231567382812500 -0.006350931711494922637939453125 0.057517692446708679199218750000 0.032160889357328414916992187500 0.029781391844153404235839843750 0.005514861550182104110717773438 0.023610167205333709716796875000 0.007607834879308938980102539062 -0.029507825151085853576660156250 0.040112618356943130493164062500 0.013453772291541099548339843750 -0.017644517123699188232421875000 0.041962970048189163208007812500 0.001441334723494946956634521484 -0.050528388470411300659179687500 -0.090256705880165100097656250000 -0.034025549888610839843750000000 -0.039626870304346084594726562500 -0.049670115113258361816406250000 0.008827259764075279235839843750 0.029131447896361351013183593750 -0.001315819332376122474670410156 -0.026163101196289062500000000000 -0.040789443999528884887695312500 0.031465552747249603271484375000 0.034958116710186004638671875000 0.001332708518020808696746826172 -0.045237798243761062622070312500 -0.082787312567234039306640625000 0.052621047943830490112304687500 -0.068448543548583984375000000000 0.026026219129562377929687500000 0.032215572893619537353515625000 -0.024250356480479240417480468750 -0.007944575510919094085693359375 -0.015851259231567382812500000000 -0.028907928615808486938476562500 0.041344739496707916259765625000 0.010654347948729991912841796875 -0.006025447975844144821166992188 0.000773748557548969984054565430 0.039749167859554290771484375000 -0.014119584113359451293945312500 0.017665108665823936462402343750 0.021938908845186233520507812500 0.058461628854274749755859375000 -0.063614837825298309326171875000 0.016481997445225715637207031250 0.014567422680556774139404296875 -0.073858968913555145263671875000 -0.020478578284382820129394531250 -0.041180402040481567382812500000 -0.053151760250329971313476562500 -0.060635507106781005859375000000 -0.021778387948870658874511718750 0.000499831163324415683746337891 -0.063573688268661499023437500000 0.011743282899260520935058593750 -0.016685608774423599243164062500 -0.033699493855237960815429687500 -0.034947797656059265136718750000 -0.119061753153800964355468750000 -0.018655052408576011657714843750 -0.013978937640786170959472656250 -0.029164126142859458923339843750 0.039883196353912353515625000000 0.046722512692213058471679687500 -0.088493026793003082275390625000 0.007058512419462203979492187500 -0.059935551136732101440429687500 -0.015137517824769020080566406250 -0.008410234935581684112548828125 -0.054080005735158920288085937500 0.016782155260443687438964843750 -0.026107052341103553771972656250 -0.097402699291706085205078125000 -0.038207892328500747680664062500 -0.021145116537809371948242187500 0.022681174799799919128417968750 -0.032021619379520416259765625000 -0.034445729106664657592773437500 0.015900870785117149353027343750 -0.016102848574519157409667968750 -0.091887943446636199951171875000 0.001994486432522535324096679688 -0.047511324286460876464843750000 0.017267933115363121032714843750 -0.070207998156547546386718750000 0.015946453437209129333496093750 0.023647112771868705749511718750 -0.027925048023462295532226562500 -0.059249896556138992309570312500 0.062107715755701065063476562500 0.041068416088819503784179687500 -0.078249685466289520263671875000 -0.023890428245067596435546875000 0.032956086099147796630859375000 -0.034471385180950164794921875000 -0.009183593094348907470703125000 -0.036696065217256546020507812500 0.048064164817333221435546875000 -0.042212583124637603759765625000 -0.064973495900630950927734375000 -0.032151132822036743164062500000 -0.110760390758514404296875000000 -0.098905824124813079833984375000 -0.027816526591777801513671875000 -0.010893089696764945983886718750 -0.053658127784729003906250000000 -0.019514126703143119812011718750 -0.005872065201401710510253906250 -0.008821854367852210998535156250 0.016903134062886238098144531250 -0.020249154418706893920898437500 -0.007371834944933652877807617188 -0.053774412721395492553710937500 -0.051546033471822738647460937500 0.002867187140509486198425292969 -0.014804944396018981933593750000 -0.047511208802461624145507812500 -0.047392126172780990600585937500 -0.081900186836719512939453125000 -0.012055484578013420104980468750 -0.052318278700113296508789062500 -0.055453050881624221801757812500 0.015969363972544670104980468750 -0.053612545132637023925781250000 -0.007790116593241691589355468750 0.056795828044414520263671875000 -0.076181858777999877929687500000 0.046596758067607879638671875000 0.034435577690601348876953125000 0.070598669350147247314453125000 0.045854486525058746337890625000 -0.024975454434752464294433593750 -0.007088740821927785873413085938 0.007513193879276514053344726562 -0.103492654860019683837890625000 -0.025826442986726760864257812500 0.056935939937829971313476562500 -0.029896873980760574340820312500 -0.029187144711613655090332031250 -0.016387930139899253845214843750 -0.064437873661518096923828125000 -0.057843025773763656616210937500 0.004256855230778455734252929688 0.042771093547344207763671875000 0.049737017601728439331054687500 -0.019587570801377296447753906250 -0.062481556087732315063476562500 0.017558844760060310363769531250 0.000333105243043974041938781738 0.023212639614939689636230468750 0.002921652514487504959106445312 0.020529553294181823730468750000 -0.006908639334142208099365234375 -0.029916297644376754760742187500 0.033340316265821456909179687500 -0.003603343851864337921142578125 -0.074770122766494750976562500000 0.031243331730365753173828125000 0.037110615521669387817382812500 0.003285517683252692222595214844 -0.002919471589848399162292480469 -0.008907232433557510375976562500 0.004894623998552560806274414062 -0.021814133971929550170898437500 -0.062908552587032318115234375000 -0.044707149267196655273437500000 0.048315044492483139038085937500 0.074771068990230560302734375000 -0.032268840819597244262695312500 -0.059074390679597854614257812500 -0.057474877685308456420898437500 -0.034886896610260009765625000000 -0.088293157517910003662109375000 0.009289270266890525817871093750 0.002094732830300927162170410156 -0.063282050192356109619140625000 0.014349532313644886016845703125 -0.024055814370512962341308593750 0.013706252910196781158447265625 -0.060809500515460968017578125000 -0.044683832675218582153320312500 -0.051653653383255004882812500000 -0.008526149205863475799560546875 0.025123924016952514648437500000 -0.031969167292118072509765625000 0.002499685855582356452941894531 -0.030992638319730758666992187500 -0.053198393434286117553710937500 -0.052988424897193908691406250000 0.053829595446586608886718750000 -0.040199317038059234619140625000 -0.000429909327067434787750244141 -0.114563480019569396972656250000 0.021515682339668273925781250000 0.027065215632319450378417968750 -0.043285772204399108886718750000 0.051482725888490676879882812500 -0.031918369233608245849609375000 -0.075474999845027923583984375000 -0.075521722435951232910156250000 0.038963943719863891601562500000 -0.024662056937813758850097656250 0.019087834283709526062011718750 -0.017627600580453872680664062500 -0.095491126179695129394531250000 -0.096280649304389953613281250000 0.011718439869582653045654296875 0.040530037134885787963867187500 -0.011499620042741298675537109375 0.045882493257522583007812500000 -0.021465603262186050415039062500 -0.042221311479806900024414062500 -0.000004349189111962914466857910 -0.045473661273717880249023437500 -0.031322490423917770385742187500 -0.055545475333929061889648437500 -0.088708393275737762451171875000 -0.019835945218801498413085937500 -0.012909775599837303161621093750 -0.075979322195053100585937500000 -0.049389299005270004272460937500 -0.026462720707058906555175781250 -0.023469435051083564758300781250 -0.027366468682885169982910156250 -0.068619698286056518554687500000 -0.013823170214891433715820312500 -0.080895960330963134765625000000 0.001130510820075869560241699219 -0.067779324948787689208984375000 0.054989024996757507324218750000 -0.047576639801263809204101562500 -0.087265551090240478515625000000 -0.002388442168012261390686035156 -0.010046197101473808288574218750 0.003761277068406343460083007812 -0.025067126378417015075683593750 -0.018856473267078399658203125000 -0.042841792106628417968750000000 -0.054377444088459014892578125000 -0.044841337949037551879882812500 -0.002211146755144000053405761719 -0.056637346744537353515625000000 -0.087730444967746734619140625000 0.002608460839837789535522460938 -0.052380174398422241210937500000 -0.011128711514174938201904296875 -0.022979430854320526123046875000 -0.051632449030876159667968750000 -0.055797975510358810424804687500 -0.012007645331323146820068359375 0.027379451319575309753417968750 -0.059142380952835083007812500000 -0.025548553094267845153808593750 0.054991155862808227539062500000 -0.031890988349914550781250000000 -0.085826963186264038085937500000 -0.013310298323631286621093750000 -0.032686274498701095581054687500 0.023303467780351638793945312500 0.026168232783675193786621093750 -0.019399551674723625183105468750 -0.014246840029954910278320312500 -0.011620010249316692352294921875 -0.032359343022108078002929687500 -0.059603858739137649536132812500 0.002900179009884595870971679688 -0.092384375631809234619140625000 -0.022393055260181427001953125000 -0.064814634621143341064453125000 -0.037951402366161346435546875000 -0.073948957026004791259765625000 -0.003214341588318347930908203125 -0.065179824829101562500000000000 0.051999948918819427490234375000 0.025314457714557647705078125000 -0.086589328944683074951171875000 -0.068680994212627410888671875000 -0.155442938208580017089843750000 -0.074010759592056274414062500000 -0.035423010587692260742187500000 -0.030851509422063827514648437500 -0.128781855106353759765625000000 0.025502208620309829711914062500 -0.076192818582057952880859375000 0.022474333643913269042968750000 -0.046937279403209686279296875000 -0.055467810481786727905273437500 -0.085901007056236267089843750000 -0.048796754330396652221679687500 -0.009998900815844535827636718750 -0.004543336573988199234008789062 -0.151027768850326538085937500000 0.020441019907593727111816406250 -0.048470258712768554687500000000 -0.005722715985029935836791992188 -0.046245317906141281127929687500 -0.082655683159828186035156250000 -0.074903301894664764404296875000 -0.013253827579319477081298828125 -0.039415363222360610961914062500 -0.023102186620235443115234375000 0.029758512973785400390625000000 -0.001000608201138675212860107422 -0.032947357743978500366210937500 0.013063426129519939422607421875 -0.015806863084435462951660156250 -0.059686757624149322509765625000 -0.018526274710893630981445312500 -0.021534781903028488159179687500 -0.005129112862050533294677734375 -0.016159759834408760070800781250 -0.011130782775580883026123046875 -0.057917483150959014892578125000 0.018284553661942481994628906250 -0.032760269939899444580078125000 0.048566412180662155151367187500 -0.040217477828264236450195312500 -0.051380027085542678833007812500 -0.052064247429370880126953125000 -0.009343355894088745117187500000 -0.057286389172077178955078125000 -0.031739741563796997070312500000 0.050193890929222106933593750000 -0.050630867481231689453125000000 -0.092049099504947662353515625000 -0.001569818472489714622497558594 0.004114113748073577880859375000 0.002445403486490249633789062500 0.019961088895797729492187500000 -0.035905595868825912475585937500 0.023301905021071434020996093750 -0.069235101342201232910156250000 -0.049034439027309417724609375000 -0.047116566449403762817382812500 -0.033108010888099670410156250000 -0.090912625193595886230468750000 -0.075513340532779693603515625000 -0.022750074043869972229003906250 -0.027226904407143592834472656250 -0.004123135935515165328979492188 -0.021345233544707298278808593750 -0.035374056547880172729492187500 -0.115082398056983947753906250000 -0.008356423117220401763916015625 -0.047763101756572723388671875000 -0.084259517490863800048828125000 -0.094078481197357177734375000000 -0.017090717330574989318847656250 -0.008591033518314361572265625000 -0.015327165834605693817138671875 -0.004719807766377925872802734375 -0.047604877501726150512695312500 -0.102068044245243072509765625000 -0.006887672469019889831542968750 -0.053238276392221450805664062500 0.019975574687123298645019531250 -0.021331164985895156860351562500 0.032325055450201034545898437500 -0.094004727900028228759765625000 0.003059195121750235557556152344 -0.181980773806571960449218750000 -0.077316008508205413818359375000 -0.066965028643608093261718750000 -0.007312958128750324249267578125 0.000539719534572213888168334961 -0.024532672017812728881835937500 -0.057045679539442062377929687500 -0.031204465776681900024414062500 -0.036795847117900848388671875000 -0.058969568461179733276367187500 -0.030324632301926612854003906250 0.016039412468671798706054687500 -0.042669754475355148315429687500 -0.076979987323284149169921875000 -0.000996577087789773941040039062 -0.037570960819721221923828125000 0.037476588040590286254882812500 0.006722406484186649322509765625 -0.084967590868473052978515625000 -0.112173214554786682128906250000 0.008147803135216236114501953125 -0.039430543780326843261718750000 -0.017852358520030975341796875000 -0.010085255838930606842041015625 0.020100180059671401977539062500 -0.048092663288116455078125000000 -0.143318697810173034667968750000 -0.085688397288322448730468750000 -0.055491913110017776489257812500 0.024102685973048210144042968750 0.000915851676836609840393066406 -0.036597426980733871459960937500 -0.012169164605438709259033203125 0.006086532957851886749267578125 -0.006167692132294178009033203125 -0.123433746397495269775390625000 -0.047276649624109268188476562500 -0.093452520668506622314453125000 -0.073621340095996856689453125000 -0.027787111699581146240234375000 -0.069849379360675811767578125000 0.022521166130900382995605468750 0.029919605702161788940429687500 0.040653176605701446533203125000 -0.029687643051147460937500000000 -0.073987767100334167480468750000 -0.026735499501228332519531250000 -0.005528075620532035827636718750 0.035962086170911788940429687500 -0.035015407949686050415039062500 0.039960455149412155151367187500 -0.012278398498892784118652343750 -0.056480642408132553100585937500 -0.025614451617002487182617187500 -0.008368405513465404510498046875 0.037877485156059265136718750000 0.056238908320665359497070312500 -0.019634438678622245788574218750 0.052591968327760696411132812500 -0.063964270055294036865234375000 -0.039276868104934692382812500000 0.030356667935848236083984375000 -0.028565229848027229309082031250 -0.066505007445812225341796875000 -0.036554060876369476318359375000 0.006920475512742996215820312500 -0.003520262427628040313720703125 -0.078493490815162658691406250000 0.001747860223986208438873291016 -0.055624652653932571411132812500 -0.043766699731349945068359375000 -0.001870492938905954360961914062 0.047102320939302444458007812500 -0.043884754180908203125000000000 -0.060414902865886688232421875000 -0.013112558051943778991699218750 -0.054305400699377059936523437500 -0.054845325648784637451171875000 -0.119296588003635406494140625000 -0.017997786402702331542968750000 0.056859832257032394409179687500 -0.017288882285356521606445312500 -0.096450723707675933837890625000 -0.035083130002021789550781250000 -0.045438576489686965942382812500 -0.050085671246051788330078125000 -0.008972706273198127746582031250 -0.091839030385017395019531250000 -0.072383686900138854980468750000 -0.051618456840515136718750000000 -0.053259495645761489868164062500 -0.020497361198067665100097656250 -0.074016846716403961181640625000 -0.005693797487765550613403320312 -0.011889304034411907196044921875 -0.003514046780765056610107421875 -0.029415315017104148864746093750 -0.020096689462661743164062500000 -0.079300343990325927734375000000 -0.053240962326526641845703125000 -0.151997923851013183593750000000 -0.062381546944379806518554687500 -0.086001314222812652587890625000 -0.012118385173380374908447265625 -0.127240106463432312011718750000 -0.022788884118199348449707031250 -0.025205101817846298217773437500 -0.092936173081398010253906250000 -0.028562504798173904418945312500 -0.030635049566626548767089843750 0.053106404840946197509765625000 0.046441860496997833251953125000 -0.035939805209636688232421875000 0.033537562936544418334960937500 -0.017328651621937751770019531250 -0.028810262680053710937500000000 0.012467273510992527008056640625 0.014318951405584812164306640625 -0.025904161855578422546386718750 -0.088346041738986968994140625000 -0.053567636758089065551757812500 -0.017987327650189399719238281250 -0.044614903628826141357421875000 -0.073886878788471221923828125000 0.051417656242847442626953125000 -0.049989137798547744750976562500 -0.089893713593482971191406250000 -0.012082491070032119750976562500 0.056581158190965652465820312500 -0.024106528609991073608398437500 0.008871610276401042938232421875 -0.032679554075002670288085937500 -0.064467743039131164550781250000 -0.053050357848405838012695312500 -0.044450737535953521728515625000 -0.085585407912731170654296875000 0.065271660685539245605468750000 -0.043337237089872360229492187500 -0.021024243906140327453613281250 -0.034112282097339630126953125000 0.056022554636001586914062500000 -0.072402141988277435302734375000 -0.039837192744016647338867187500 0.022792764008045196533203125000 -0.067161343991756439208984375000 -0.025957237929105758666992187500 -0.068764485418796539306640625000 -0.118645049631595611572265625000 -0.058125283569097518920898437500 -0.013821607455611228942871093750 -0.066798098385334014892578125000 -0.054967846721410751342773437500 -0.077214464545249938964843750000 -0.110408999025821685791015625000 -0.045797899365425109863281250000 -0.067393384873867034912109375000 -0.040590915828943252563476562500 0.026020020246505737304687500000 -0.020482249557971954345703125000 -0.086177587509155273437500000000 0.004662241321057081222534179688 -0.063927888870239257812500000000 -0.113605067133903503417968750000 -0.065059594810009002685546875000 -0.096955925226211547851562500000 -0.059805907309055328369140625000 -0.038884241133928298950195312500 -0.108856640756130218505859375000 -0.084396444261074066162109375000 0.013990546576678752899169921875 -0.060035116970539093017578125000 -0.105234570801258087158203125000 -0.016450000926852226257324218750 -0.159714698791503906250000000000 -0.041140776127576828002929687500 -0.041500147432088851928710937500 -0.043866492807865142822265625000 -0.016312941908836364746093750000 -0.049073670059442520141601562500 0.037900608032941818237304687500 -0.084635697305202484130859375000 -0.061622835695743560791015625000 -0.036996815353631973266601562500 -0.107703782618045806884765625000 0.002886676229536533355712890625 -0.069038957357406616210937500000 0.009049651212990283966064453125 -0.024410495534539222717285156250 0.011159937828779220581054687500 0.006940872874110937118530273438 -0.065613605082035064697265625000 -0.046233341097831726074218750000 -0.017872909083962440490722656250 -0.052659388631582260131835937500 -0.053342778235673904418945312500 -0.010306443087756633758544921875 -0.036672223359346389770507812500 -0.060275435447692871093750000000 -0.140268385410308837890625000000 -0.031710203737020492553710937500 -0.031586915254592895507812500000 0.015825984999537467956542968750 -0.035397835075855255126953125000 -0.055090565234422683715820312500 -0.060629323124885559082031250000 -0.050966136157512664794921875000 -0.025077167898416519165039062500 -0.030045557767152786254882812500 -0.106124475598335266113281250000 0.015334674157202243804931640625 -0.112471610307693481445312500000 -0.061228349804878234863281250000 0.023091038689017295837402343750 -0.041279483586549758911132812500 -0.076614908874034881591796875000 -0.058365810662508010864257812500 -0.104140669107437133789062500000 -0.115393221378326416015625000000 -0.127440705895423889160156250000 -0.099976725876331329345703125000 -0.046682611107826232910156250000 0.014213316142559051513671875000 -0.063180230557918548583984375000 0.019849652424454689025878906250 -0.084492817521095275878906250000 -0.051561143249273300170898437500 -0.047746423631906509399414062500 -0.000967184547334909439086914062 0.053747501224279403686523437500 -0.052455574274063110351562500000 0.014023343101143836975097656250 -0.009841259568929672241210937500 -0.067343920469284057617187500000 0.026571346446871757507324218750 -0.052629150450229644775390625000 -0.046468455344438552856445312500 -0.020005492493510246276855468750 -0.055316075682640075683593750000 0.013717015273869037628173828125 -0.087538927793502807617187500000 -0.057250946760177612304687500000 -0.042321246117353439331054687500 -0.078024022281169891357421875000 -0.082821071147918701171875000000 -0.051191300153732299804687500000 -0.088015951216220855712890625000 -0.005837384611368179321289062500 -0.019205855205655097961425781250 -0.040090523660182952880859375000 -0.046049296855926513671875000000 -0.077253244817256927490234375000 0.035962671041488647460937500000 0.005091086961328983306884765625 -0.147564053535461425781250000000 -0.065205372869968414306640625000 -0.049449883401393890380859375000 -0.092311613261699676513671875000 -0.022998411208391189575195312500 -0.058726243674755096435546875000 -0.005708243697881698608398437500 -0.004010458942502737045288085938 -0.118687003850936889648437500000 -0.083647534251213073730468750000 -0.039188522845506668090820312500 -0.036348067224025726318359375000 -0.064883023500442504882812500000 0.002269349293783307075500488281 -0.035311132669448852539062500000 -0.019178871065378189086914062500 -0.042035635560750961303710937500 0.019156703725457191467285156250 -0.071127295494079589843750000000 -0.073070518672466278076171875000 -0.023775309324264526367187500000 0.026674836874008178710937500000 -0.066175542771816253662109375000 -0.029703296720981597900390625000 -0.030027991160750389099121093750 -0.052446104586124420166015625000 -0.052836913615465164184570312500 -0.048952877521514892578125000000 -0.044327411800622940063476562500 -0.019369319081306457519531250000 0.001477116602472960948944091797 -0.088394567370414733886718750000 -0.103048533201217651367187500000 -0.103273555636405944824218750000 -0.082082025706768035888671875000 -0.021170545369386672973632812500 -0.063178531825542449951171875000 0.022464752197265625000000000000 -0.028071872889995574951171875000 -0.072266377508640289306640625000 -0.001215000869706273078918457031 -0.060026776045560836791992187500 -0.013294677250087261199951171875 -0.032777305692434310913085937500 -0.109916158020496368408203125000 -0.005845227278769016265869140625 -0.121034391224384307861328125000 -0.016986150294542312622070312500 -0.005015253089368343353271484375 -0.008500227704644203186035156250 -0.026773037388920783996582031250 0.019175220280885696411132812500 -0.003576690563932061195373535156 -0.087286084890365600585937500000 -0.101739324629306793212890625000 -0.202756106853485107421875000000 -0.035193417221307754516601562500 -0.033090837299823760986328125000 -0.056223914027214050292968750000 -0.122798644006252288818359375000 -0.112023979425430297851562500000 -0.060701217502355575561523437500 0.027906686067581176757812500000 -0.007215667515993118286132812500 -0.030800540000200271606445312500 -0.100828446447849273681640625000 -0.062685102224349975585937500000 -0.054816283285617828369140625000 -0.104817681014537811279296875000 0.005255289375782012939453125000 -0.063440836966037750244140625000 -0.053132418543100357055664062500 -0.027916204184293746948242187500 0.004982681479305028915405273438 0.001136022503487765789031982422 -0.040006991475820541381835937500 -0.171464070677757263183593750000 -0.073427341878414154052734375000 -0.086589001119136810302734375000 -0.097182616591453552246093750000 0.014248831197619438171386718750 -0.055099863559007644653320312500 -0.182344675064086914062500000000 -0.106409288942813873291015625000 -0.049846600741147994995117187500 -0.008086722344160079956054687500 -0.042558394372463226318359375000 -0.078414812684059143066406250000 -0.040982335805892944335937500000 0.004232439212501049041748046875 0.023653289303183555603027343750 0.007315954193472862243652343750 -0.028593463823199272155761718750 -0.050736751407384872436523437500 -0.006024588830769062042236328125 0.010432878509163856506347656250 0.010203027166426181793212890625 -0.079194746911525726318359375000 -0.050630848854780197143554687500 -0.073159873485565185546875000000 0.005680368747562170028686523438 -0.035527937114238739013671875000 -0.137906849384307861328125000000 -0.073973134160041809082031250000 -0.073540441691875457763671875000 -0.048149187117815017700195312500 -0.038249272853136062622070312500 -0.072810217738151550292968750000 -0.025649357587099075317382812500 0.000328035996062681078910827637 -0.012113901786506175994873046875 0.004420645534992218017578125000 -0.070045217871665954589843750000 -0.075444743037223815917968750000 -0.093871332705020904541015625000 -0.022568590939044952392578125000 -0.007837648503482341766357421875 -0.033139429986476898193359375000 -0.046994853764772415161132812500 -0.088069669902324676513671875000 -0.079520061612129211425781250000 -0.166505411267280578613281250000 -0.058730632066726684570312500000 0.015662159770727157592773437500 -0.046603750437498092651367187500 -0.052546564489603042602539062500 -0.046386271715164184570312500000 -0.014937086030840873718261718750 -0.078406520187854766845703125000 -0.023570390418171882629394531250 -0.080207072198390960693359375000 -0.027285732328891754150390625000 -0.044850438833236694335937500000 -0.086164988577365875244140625000 -0.066975653171539306640625000000 -0.099882893264293670654296875000 -0.068755373358726501464843750000 -0.047755505889654159545898437500 -0.063423350453376770019531250000 -0.099726580083370208740234375000 -0.121308952569961547851562500000 -0.017344757914543151855468750000 -0.070060364902019500732421875000 -0.043914910405874252319335937500 -0.041247084736824035644531250000 -0.090219594538211822509765625000 -0.030791278928518295288085937500 -0.025785133242607116699218750000 -0.131197080016136169433593750000 -0.060476329177618026733398437500 -0.199563682079315185546875000000 -0.080287441611289978027343750000 -0.103065088391304016113281250000 -0.048206880688667297363281250000 -0.051347784698009490966796875000 -0.077569656074047088623046875000 -0.031359363347291946411132812500 0.021895000711083412170410156250 -0.035645514726638793945312500000 -0.058384664356708526611328125000 0.000142654520459473133087158203 -0.079206928610801696777343750000 -0.111687332391738891601562500000 -0.088491365313529968261718750000 -0.083078183233737945556640625000 -0.044287495315074920654296875000 -0.061759229749441146850585937500 -0.065948605537414550781250000000 -0.069399461150169372558593750000 -0.052745029330253601074218750000 -0.022057499736547470092773437500 -0.033508874475955963134765625000 -0.120398551225662231445312500000 -0.026494087651371955871582031250 -0.065225459635257720947265625000 -0.148167043924331665039062500000 -0.105216771364212036132812500000 -0.121486008167266845703125000000 -0.037161618471145629882812500000 -0.109061881899833679199218750000 -0.067289717495441436767578125000 -0.087286859750747680664062500000 -0.060630947351455688476562500000 -0.075419776141643524169921875000 -0.094773270189762115478515625000 -0.050061121582984924316406250000 -0.036914560943841934204101562500 -0.090533584356307983398437500000 -0.068359628319740295410156250000 0.077022701501846313476562500000 -0.035593472421169281005859375000 -0.032074552029371261596679687500 -0.043355870991945266723632812500 -0.036018643528223037719726562500 0.023910297080874443054199218750 0.026050660759210586547851562500 -0.068652026355266571044921875000 -0.047367833554744720458984375000 -0.021099587902426719665527343750 -0.033515878021717071533203125000 0.009020852856338024139404296875 -0.049320194870233535766601562500 -0.046311717480421066284179687500 -0.038715999573469161987304687500 -0.041810579597949981689453125000 -0.013553492724895477294921875000 -0.081419110298156738281250000000 -0.018928991630673408508300781250 -0.014714526012539863586425781250 0.025912195444107055664062500000 0.014200283214449882507324218750 -0.075930058956146240234375000000 -0.080496668815612792968750000000 -0.159033030271530151367187500000 -0.034588109701871871948242187500 -0.028381826356053352355957031250 -0.089366160333156585693359375000 -0.014319393783807754516601562500 -0.077128797769546508789062500000 -0.037521865218877792358398437500 0.009332865476608276367187500000 -0.100270725786685943603515625000 -0.060786809772253036499023437500 -0.023000527173280715942382812500 -0.062669642269611358642578125000 -0.084304586052894592285156250000 -0.016458824276924133300781250000 -0.026185130700469017028808593750 -0.035528976470232009887695312500 -0.077290460467338562011718750000 -0.015300899744033813476562500000 -0.072904050350189208984375000000 -0.099301733076572418212890625000 -0.050538536161184310913085937500 -0.076131641864776611328125000000 -0.021995492279529571533203125000 -0.093283891677856445312500000000 -0.079937241971492767333984375000 -0.021892331540584564208984375000 -0.073386408388614654541015625000 -0.005230065900832414627075195312 -0.058494072407484054565429687500 -0.117040798068046569824218750000 -0.097268387675285339355468750000 -0.066692560911178588867187500000 -0.053788948804140090942382812500 -0.063417486846446990966796875000 -0.012088847346603870391845703125 -0.078064315021038055419921875000 -0.033338110893964767456054687500 -0.016546474769711494445800781250 -0.046408910304307937622070312500 -0.055403430014848709106445312500 -0.020349245518445968627929687500 -0.101500846445560455322265625000 -0.081960566341876983642578125000 -0.070850290358066558837890625000 -0.176838055253028869628906250000 -0.171616569161415100097656250000 -0.027417831122875213623046875000 -0.069509521126747131347656250000 -0.097398258745670318603515625000 -0.119506470859050750732421875000 -0.082457497715950012207031250000 -0.078789010643959045410156250000 -0.034021601080894470214843750000 0.005073653534054756164550781250 -0.081132516264915466308593750000 -0.058604065328836441040039062500 -0.098791852593421936035156250000 -0.069592125713825225830078125000 -0.080616936087608337402343750000 -0.079920805990695953369140625000 -0.189517498016357421875000000000 -0.030346380546689033508300781250 -0.072375342249870300292968750000 -0.077759809792041778564453125000 -0.117339864373207092285156250000 -0.064447753131389617919921875000 -0.035218961536884307861328125000 -0.062173318117856979370117187500 -0.037708200514316558837890625000 -0.089810021221637725830078125000 -0.092693775892257690429687500000 -0.066697582602500915527343750000 -0.064301475882530212402343750000 -0.116022095084190368652343750000 -0.042344849556684494018554687500 0.009233109652996063232421875000 -0.013688765466213226318359375000 -0.038991805166006088256835937500 -0.001619450864382088184356689453 -0.061591859906911849975585937500 -0.075389832258224487304687500000 -0.001001111115328967571258544922 -0.042606424540281295776367187500 -0.027244821190834045410156250000 -0.081409849226474761962890625000 -0.100851945579051971435546875000 -0.047325193881988525390625000000 -0.019564669579267501831054687500 -0.013654084876179695129394531250 -0.095449030399322509765625000000 -0.078505039215087890625000000000 -0.036035411059856414794921875000 -0.074058674275875091552734375000 -0.026967231184244155883789062500 -0.031932227313518524169921875000 -0.060297098010778427124023437500 -0.041980687528848648071289062500 -0.090852111577987670898437500000 -0.034976616501808166503906250000 -0.007740334607660770416259765625 -0.042727209627628326416015625000 -0.070977032184600830078125000000 -0.068587839603424072265625000000 -0.073394700884819030761718750000 -0.063011050224304199218750000000 -0.046462915837764739990234375000 -0.067430958151817321777343750000 -0.090082667768001556396484375000 -0.115225501358509063720703125000 0.005140447989106178283691406250 -0.067508153617382049560546875000 -0.057411834597587585449218750000 -0.062474749982357025146484375000 -0.098273418843746185302734375000 -0.123981535434722900390625000000 -0.102489151060581207275390625000 -0.040030620992183685302734375000 -0.087160766124725341796875000000 -0.115079589188098907470703125000 -0.008935650810599327087402343750 -0.071643412113189697265625000000 -0.057788409292697906494140625000 -0.087420575320720672607421875000 -0.049401640892028808593750000000 -0.057901307940483093261718750000 -0.024927880614995956420898437500 -0.053630676120519638061523437500 -0.071274995803833007812500000000 -0.074032433331012725830078125000 -0.007199326064437627792358398438 -0.030456252396106719970703125000 -0.036718409508466720581054687500 -0.083779379725456237792968750000 -0.112353667616844177246093750000 -0.022878961637616157531738281250 -0.090129703283309936523437500000 -0.091801747679710388183593750000 -0.063649460673332214355468750000 -0.016961993649601936340332031250 -0.052226971834897994995117187500 -0.138353571295738220214843750000 -0.064529843628406524658203125000 0.037299677729606628417968750000 -0.013847330585122108459472656250 -0.144943282008171081542968750000 -0.093195825815200805664062500000 -0.048780895769596099853515625000 -0.058833934366703033447265625000 -0.011410157196223735809326171875 0.029665036126971244812011718750 -0.086700268089771270751953125000 -0.111472912132740020751953125000 -0.071218147873878479003906250000 -0.113174483180046081542968750000 -0.083308152854442596435546875000 -0.105571404099464416503906250000 -0.053825456649065017700195312500 -0.104320175945758819580078125000 -0.012918573804199695587158203125 -0.073037087917327880859375000000 -0.035237535834312438964843750000 0.021133348345756530761718750000 -0.054028887301683425903320312500 -0.034724980592727661132812500000 -0.057220280170440673828125000000 -0.062771260738372802734375000000 -0.150578394532203674316406250000 -0.074211388826370239257812500000 -0.071674667298793792724609375000 0.016142943874001502990722656250 -0.040088221430778503417968750000 -0.011158451437950134277343750000 -0.069103255867958068847656250000 -0.083711609244346618652343750000 -0.054795056581497192382812500000 -0.199073985219001770019531250000 -0.069750569760799407958984375000 -0.107811801135540008544921875000 -0.097962528467178344726562500000 -0.027288282290101051330566406250 -0.046701788902282714843750000000 -0.084984585642814636230468750000 -0.087683662772178649902343750000 -0.083056375384330749511718750000 -0.127975910902023315429687500000 -0.184099882841110229492187500000 -0.125006079673767089843750000000 -0.109238773584365844726562500000 -0.076825737953186035156250000000 -0.131365254521369934082031250000 -0.024618152529001235961914062500 -0.107550323009490966796875000000 -0.144876852631568908691406250000 -0.053985375910997390747070312500 -0.088556118309497833251953125000 -0.099123641848564147949218750000 -0.038907811045646667480468750000 -0.126719430088996887207031250000 -0.099916033446788787841796875000 -0.074955284595489501953125000000 -0.149758785963058471679687500000 -0.035193961113691329956054687500 -0.106636591255664825439453125000 -0.103568732738494873046875000000 -0.040272217243909835815429687500 -0.085879057645797729492187500000 -0.066047012805938720703125000000 -0.017551532015204429626464843750 -0.052501335740089416503906250000 -0.057990118861198425292968750000 -0.043101802468299865722656250000 -0.074427478015422821044921875000 -0.068417198956012725830078125000 -0.123196892440319061279296875000 -0.133813440799713134765625000000 -0.000091171299573034048080444336 0.032950580120086669921875000000 -0.011189281009137630462646484375 -0.057317059487104415893554687500 -0.118931658565998077392578125000 -0.093555137515068054199218750000 -0.037445276975631713867187500000 -0.099616445600986480712890625000 0.011336606927216053009033203125 -0.081295199692249298095703125000 -0.036790400743484497070312500000 -0.038865562528371810913085937500 0.003875631140545010566711425781 -0.052280548959970474243164062500 -0.029551312327384948730468750000 -0.097442969679832458496093750000 -0.112400494515895843505859375000 -0.081819720566272735595703125000 -0.050762768834829330444335937500 -0.053693063557147979736328125000 -0.046456951647996902465820312500 -0.075942091643810272216796875000 -0.090551383793354034423828125000 -0.111305512487888336181640625000 -0.006202947814017534255981445312 -0.017148559913039207458496093750 -0.020225411280989646911621093750 -0.005727533716708421707153320312 -0.005317059811204671859741210938 -0.013285348191857337951660156250 -0.034283060580492019653320312500 -0.129098489880561828613281250000 -0.075975023210048675537109375000 -0.094271272420883178710937500000 -0.066981621086597442626953125000 -0.109196856617927551269531250000 -0.082288615405559539794921875000 -0.087940759956836700439453125000 -0.044194202870130538940429687500 -0.056968439370393753051757812500 -0.125194996595382690429687500000 -0.110389962792396545410156250000 -0.103097259998321533203125000000 -0.098355263471603393554687500000 -0.108580879867076873779296875000 -0.147739306092262268066406250000 -0.018540995195508003234863281250 -0.026505108922719955444335937500 -0.110548540949821472167968750000 -0.040943529456853866577148437500 -0.111628271639347076416015625000 -0.100356496870517730712890625000 -0.038699790835380554199218750000 -0.058296393603086471557617187500 -0.122920319437980651855468750000 -0.097411364316940307617187500000 -0.109407961368560791015625000000 -0.075021944940090179443359375000 -0.008446206338703632354736328125 -0.020229620859026908874511718750 -0.047127231955528259277343750000 -0.014387191273272037506103515625 -0.146768346428871154785156250000 -0.080619499087333679199218750000 -0.135312929749488830566406250000 0.020871737971901893615722656250 -0.078240677714347839355468750000 -0.033644739538431167602539062500 -0.098021313548088073730468750000 -0.024468651041388511657714843750 -0.039082806557416915893554687500 -0.079650104045867919921875000000 -0.103184685111045837402343750000 -0.050978977233171463012695312500 -0.123236469924449920654296875000 -0.082754932343959808349609375000 -0.072603963315486907958984375000 -0.018407179042696952819824218750 -0.075813680887222290039062500000 -0.076056934893131256103515625000 -0.154196724295616149902343750000 -0.065954722464084625244140625000 -0.054140467196702957153320312500 -0.046809025108814239501953125000 -0.052133422344923019409179687500 -0.214909493923187255859375000000 -0.057206980884075164794921875000 -0.124294124543666839599609375000 -0.048743180930614471435546875000 -0.071088075637817382812500000000 -0.063213899731636047363281250000 -0.183413475751876831054687500000 -0.099783569574356079101562500000 -0.055632673203945159912109375000 -0.014356851577758789062500000000 -0.122860118746757507324218750000 -0.159478247165679931640625000000 -0.169345661997795104980468750000 -0.158780321478843688964843750000 -0.070906378328800201416015625000 -0.025416953489184379577636718750 -0.035939857363700866699218750000 -0.069891661405563354492187500000 -0.073716804385185241699218750000 -0.108802102506160736083984375000 -0.072138659656047821044921875000 -0.106684133410453796386718750000 -0.121602870523929595947265625000 -0.041297242045402526855468750000 -0.056492332369089126586914062500 -0.012587931007146835327148437500 -0.104244947433471679687500000000 -0.095635451376438140869140625000 -0.038551725447177886962890625000 -0.040063709020614624023437500000 0.009975257329642772674560546875 0.036014851182699203491210937500 -0.061333194375038146972656250000 -0.069760337471961975097656250000 -0.076290711760520935058593750000 -0.183503970503807067871093750000 -0.132275938987731933593750000000 -0.138539135456085205078125000000 -0.103849984705448150634765625000 -0.018081327900290489196777343750 -0.048743318766355514526367187500 -0.090164214372634887695312500000 -0.064391173422336578369140625000 -0.043045178055763244628906250000 -0.086408585309982299804687500000 -0.039369057863950729370117187500 -0.087861157953739166259765625000 -0.064038932323455810546875000000 -0.185815289616584777832031250000 -0.093653395771980285644531250000 -0.069924086332321166992187500000 -0.096475988626480102539062500000 -0.010100266896188259124755859375 -0.019635358825325965881347656250 -0.167786777019500732421875000000 -0.119556039571762084960937500000 -0.085537530481815338134765625000 -0.082789637148380279541015625000 -0.074636824429035186767578125000 -0.035083364695310592651367187500 -0.082234516739845275878906250000 -0.083942107856273651123046875000 -0.042560148984193801879882812500 -0.079741194844245910644531250000 -0.060658104717731475830078125000 -0.093422055244445800781250000000 -0.129673793911933898925781250000 -0.074653260409832000732421875000 -0.038821198046207427978515625000 -0.053192742168903350830078125000 -0.104124449193477630615234375000 -0.086924016475677490234375000000 -0.041058495640754699707031250000 -0.102514944970607757568359375000 -0.138730287551879882812500000000 -0.119461618363857269287109375000 -0.067635551095008850097656250000 -0.054153077304363250732421875000 -0.093338206410408020019531250000 -0.051062721759080886840820312500 -0.119017362594604492187500000000 -0.073772042989730834960937500000 -0.088429607450962066650390625000 -0.085974514484405517578125000000 -0.037239771336317062377929687500 -0.138291165232658386230468750000 -0.119753226637840270996093750000 -0.087765447795391082763671875000 -0.015679333359003067016601562500 -0.116875149309635162353515625000 -0.039446238428354263305664062500 -0.018471494317054748535156250000 -0.089714251458644866943359375000 -0.147995635867118835449218750000 -0.061502508819103240966796875000 -0.102091252803802490234375000000 -0.028905844315886497497558593750 -0.070919305086135864257812500000 -0.104871630668640136718750000000 -0.098159410059452056884765625000 -0.058676533401012420654296875000 -0.065905727446079254150390625000 -0.107448793947696685791015625000 -0.123001076281070709228515625000 -0.042021557688713073730468750000 -0.095086522400379180908203125000 -0.164511471986770629882812500000 -0.058925177901983261108398437500 -0.066028364002704620361328125000 -0.062339872121810913085937500000 -0.087536223232746124267578125000 -0.130300581455230712890625000000 -0.057824283838272094726562500000 -0.099176399409770965576171875000 -0.091383926570415496826171875000 -0.095821551978588104248046875000 -0.027008114382624626159667968750 -0.137867569923400878906250000000 -0.091812655329704284667968750000 -0.095803543925285339355468750000 -0.040317852050065994262695312500 -0.077272064983844757080078125000 -0.081797264516353607177734375000 -0.014930261299014091491699218750 -0.099367171525955200195312500000 -0.115604102611541748046875000000 -0.094482950866222381591796875000 -0.123098507523536682128906250000 -0.069016620516777038574218750000 -0.115237936377525329589843750000 -0.091579690575599670410156250000 -0.048136096447706222534179687500 -0.011614815331995487213134765625 -0.062432222068309783935546875000 -0.076707281172275543212890625000 -0.069852285087108612060546875000 -0.046047188341617584228515625000 -0.112807363271713256835937500000 -0.074500627815723419189453125000 -0.092520862817764282226562500000 -0.059716816991567611694335937500 -0.161827251315116882324218750000 -0.114583447575569152832031250000 -0.100064255297183990478515625000 -0.034217886626720428466796875000 -0.071800187230110168457031250000 -0.125376716256141662597656250000 0.001912545645609498023986816406 -0.104769349098205566406250000000 -0.120223715901374816894531250000 -0.050998851656913757324218750000 -0.058881059288978576660156250000 -0.081803195178508758544921875000 -0.061524145305156707763671875000 -0.084436632692813873291015625000 -0.026071283966302871704101562500 -0.031733445823192596435546875000 -0.101397998631000518798828125000 -0.138115704059600830078125000000 -0.051663856953382492065429687500 -0.098231352865695953369140625000 -0.083936594426631927490234375000 -0.037662867456674575805664062500 -0.187027186155319213867187500000 -0.081114619970321655273437500000 -0.058745551854372024536132812500 -0.103321947157382965087890625000 -0.149340078234672546386718750000 -0.102012470364570617675781250000 -0.051713779568672180175781250000 -0.013644821941852569580078125000 -0.063752517104148864746093750000 -0.061851408332586288452148437500 -0.061495829373598098754882812500 -0.052980676293373107910156250000 -0.098089449107646942138671875000 -0.072278946638107299804687500000 -0.087298355996608734130859375000 -0.122831687331199645996093750000 -0.038355406373739242553710937500 -0.143783703446388244628906250000 -0.155761152505874633789062500000 -0.005920246243476867675781250000 -0.114556483924388885498046875000 -0.089023075997829437255859375000 -0.097969211637973785400390625000 -0.007045939564704895019531250000 -0.034111499786376953125000000000 -0.073266074061393737792968750000 -0.094312608242034912109375000000 -0.067020408809185028076171875000 -0.031452141702175140380859375000 -0.039404079318046569824218750000 -0.080066457390785217285156250000 -0.051603753119707107543945312500 -0.034358553588390350341796875000 -0.035313103348016738891601562500 -0.061101768165826797485351562500 -0.093423165380954742431640625000 -0.107967458665370941162109375000 -0.093694120645523071289062500000 -0.138620585203170776367187500000 -0.042157329618930816650390625000 -0.147403597831726074218750000000 -0.134811311960220336914062500000 -0.164853781461715698242187500000 -0.078531950712203979492187500000 -0.155450940132141113281250000000 -0.113934718072414398193359375000 -0.165362641215324401855468750000 -0.113841854035854339599609375000 -0.093246594071388244628906250000 -0.034647952765226364135742187500 -0.116023346781730651855468750000 -0.087628059089183807373046875000 -0.108463026583194732666015625000 -0.067732892930507659912109375000 -0.102338589727878570556640625000 -0.082922525703907012939453125000 -0.095690362155437469482421875000 -0.079915806651115417480468750000 -0.148934736847877502441406250000 -0.110763072967529296875000000000 -0.059246934950351715087890625000 -0.066994398832321166992187500000 -0.101980350911617279052734375000 -0.039809543639421463012695312500 -0.117789886891841888427734375000 -0.071597136557102203369140625000 -0.080106936395168304443359375000 -0.089785769581794738769531250000 -0.108684398233890533447265625000 -0.021630981937050819396972656250 -0.115629166364669799804687500000 -0.135376498103141784667968750000 -0.115394957363605499267578125000 -0.086121067404747009277343750000 -0.046628966927528381347656250000 -0.040712818503379821777343750000 -0.076964303851127624511718750000 -0.054974704980850219726562500000 -0.031981144100427627563476562500 -0.103671416640281677246093750000 -0.105372995138168334960937500000 -0.159706920385360717773437500000 -0.075839057564735412597656250000 -0.117915734648704528808593750000 -0.083617016673088073730468750000 -0.054927457123994827270507812500 -0.069472320377826690673828125000 -0.056027516722679138183593750000 -0.029912589117884635925292968750 -0.095755875110626220703125000000 -0.104293480515480041503906250000 -0.053019829094409942626953125000 -0.058168858289718627929687500000 -0.118927001953125000000000000000 -0.043527282774448394775390625000 -0.019592892378568649291992187500 -0.051734052598476409912109375000 -0.074015446007251739501953125000 -0.192784652113914489746093750000 -0.064250648021697998046875000000 -0.050957649946212768554687500000 -0.059910632669925689697265625000 -0.083087123930454254150390625000 -0.040448792278766632080078125000 -0.079890333116054534912109375000 -0.118277348577976226806640625000 -0.088877275586128234863281250000 -0.102165937423706054687500000000 -0.157809823751449584960937500000 -0.054783217608928680419921875000 -0.108794711530208587646484375000 -0.013271726667881011962890625000 -0.088845953345298767089843750000 -0.057783666998147964477539062500 -0.095364876091480255126953125000 -0.105385527014732360839843750000 -0.045683406293392181396484375000 -0.143644466996192932128906250000 -0.051987454295158386230468750000 -0.036161519587039947509765625000 -0.046287428587675094604492187500 -0.100799024105072021484375000000 -0.093564942479133605957031250000 -0.065312981605529785156250000000 0.002009935909882187843322753906 -0.043577238917350769042968750000 -0.070223294198513031005859375000 -0.065820053219795227050781250000 -0.097656063735485076904296875000 -0.110817812383174896240234375000 -0.016950935125350952148437500000 -0.062342487275600433349609375000 -0.105597227811813354492187500000 -0.042614672333002090454101562500 -0.070588506758213043212890625000 -0.009231216274201869964599609375 -0.136856660246849060058593750000 -0.081759758293628692626953125000 -0.101582653820514678955078125000 -0.089667074382305145263671875000 -0.055833704769611358642578125000 -0.110867574810981750488281250000 -0.062561273574829101562500000000 -0.110835164785385131835937500000 -0.040208116173744201660156250000 -0.077789731323719024658203125000 -0.069353297352790832519531250000 -0.157013088464736938476562500000 -0.081369355320930480957031250000 -0.074474163353443145751953125000 -0.023493615910410881042480468750 0.001401972374878823757171630859 -0.081242114305496215820312500000 -0.043313667178153991699218750000 -0.103077031672000885009765625000 -0.064389333128929138183593750000 -0.125268936157226562500000000000 -0.027549698948860168457031250000 -0.115199990570545196533203125000 -0.072216704487800598144531250000 -0.127118930220603942871093750000 -0.115615971386432647705078125000 -0.106720186769962310791015625000 -0.081237651407718658447265625000 -0.079265519976615905761718750000 -0.149790525436401367187500000000 -0.088055759668350219726562500000 -0.080546647310256958007812500000 -0.059762518852949142456054687500 -0.013730316422879695892333984375 -0.058233380317687988281250000000 -0.051080230623483657836914062500 -0.061642918735742568969726562500 -0.051934242248535156250000000000 -0.104967556893825531005859375000 -0.066016323864459991455078125000 -0.072559058666229248046875000000 -0.094673179090023040771484375000 -0.107257179915904998779296875000 -0.147529736161231994628906250000 -0.048347938805818557739257812500 -0.114924594759941101074218750000 -0.170796483755111694335937500000 -0.056860975921154022216796875000 -0.080131240189075469970703125000 -0.130226254463195800781250000000 -0.109832137823104858398437500000 -0.101407237350940704345703125000 -0.177072688937187194824218750000 -0.062448933720588684082031250000 -0.075615860521793365478515625000 -0.109256744384765625000000000000 -0.155086189508438110351562500000 -0.130976304411888122558593750000 -0.047485660761594772338867187500 -0.037264298647642135620117187500 -0.135275453329086303710937500000 -0.060748267918825149536132812500 -0.119461759924888610839843750000 -0.102393552660942077636718750000 -0.117925226688385009765625000000 -0.030992880463600158691406250000 -0.131156817078590393066406250000 -0.018118919804692268371582031250 -0.124643787741661071777343750000 -0.027464561164379119873046875000 -0.063079848885536193847656250000 -0.106425032019615173339843750000 -0.086455337703227996826171875000 -0.066676892340183258056640625000 -0.083404317498207092285156250000 -0.121873296797275543212890625000 -0.102793507277965545654296875000 -0.119504183530807495117187500000 -0.088767327368259429931640625000 -0.104379601776599884033203125000 -0.131948009133338928222656250000 -0.131446450948715209960937500000 -0.108915872871875762939453125000 -0.048192359507083892822265625000 -0.134282529354095458984375000000 -0.056482028216123580932617187500 -0.078724674880504608154296875000 0.011657354421913623809814453125 -0.029131269082427024841308593750 -0.058507472276687622070312500000 -0.058129090815782546997070312500 -0.104040399193763732910156250000 -0.079043515026569366455078125000 -0.146615684032440185546875000000 -0.068244859576225280761718750000 -0.125932842493057250976562500000 -0.104270175099372863769531250000 -0.104344531893730163574218750000 -0.110699340701103210449218750000 -0.179832786321640014648437500000 -0.067392483353614807128906250000 -0.094370268285274505615234375000 -0.154628634452819824218750000000 -0.032407198101282119750976562500 -0.098576195538043975830078125000 -0.131885960698127746582031250000 -0.115000598132610321044921875000 -0.064780563116073608398437500000 -0.114548794925212860107421875000 -0.012217041105031967163085937500 -0.121711835265159606933593750000 -0.106199152767658233642578125000 -0.143810197710990905761718750000 -0.153364762663841247558593750000 -0.055204372853040695190429687500 -0.078013084828853607177734375000 -0.156233742833137512207031250000 -0.028339080512523651123046875000 -0.097298070788383483886718750000 -0.100905917584896087646484375000 -0.132485866546630859375000000000 -0.065567627549171447753906250000 -0.103517726063728332519531250000 -0.102205254137516021728515625000 -0.053714375942945480346679687500 -0.060924604535102844238281250000 -0.140997648239135742187500000000 -0.063602402806282043457031250000 -0.118887990713119506835937500000 -0.087417468428611755371093750000 -0.072272479534149169921875000000 -0.049907367676496505737304687500 -0.128771871328353881835937500000 -0.078233130276203155517578125000 -0.106085792183876037597656250000 -0.079175509512424468994140625000 -0.052755307406187057495117187500 -0.101704247295856475830078125000 -0.140187174081802368164062500000 -0.107967384159564971923828125000 -0.040163855999708175659179687500 -0.072862148284912109375000000000 -0.141482621431350708007812500000 -0.058757595717906951904296875000 -0.106470555067062377929687500000 -0.135619610548019409179687500000 -0.059642206877470016479492187500 -0.102613627910614013671875000000 -0.039558753371238708496093750000 -0.116227991878986358642578125000 -0.051497917622327804565429687500 -0.079856999218463897705078125000 -0.134889721870422363281250000000 -0.061901502311229705810546875000 -0.157566130161285400390625000000 -0.093162417411804199218750000000 -0.019152151420712471008300781250 -0.117931291460990905761718750000 -0.121337875723838806152343750000 -0.062675006687641143798828125000 -0.026475520804524421691894531250 -0.081859052181243896484375000000 -0.171068981289863586425781250000 -0.093051202595233917236328125000 -0.104671470820903778076171875000 -0.079769566655158996582031250000 -0.051306873559951782226562500000 -0.074183441698551177978515625000 -0.076573096215724945068359375000 -0.052777476608753204345703125000 -0.111393354833126068115234375000 -0.166982710361480712890625000000 -0.103974349796772003173828125000 -0.161274418234825134277343750000 -0.076596572995185852050781250000 -0.101856619119644165039062500000 -0.044034600257873535156250000000 0.011635368689894676208496093750 -0.082473717629909515380859375000 -0.034841306507587432861328125000 -0.116697669029235839843750000000 -0.058107677847146987915039062500 -0.128833413124084472656250000000 -0.150597140192985534667968750000 -0.068927854299545288085937500000 -0.086313709616661071777343750000 -0.091001652181148529052734375000 -0.077895671129226684570312500000 -0.153046309947967529296875000000 -0.114632047712802886962890625000 -0.122387982904911041259765625000 -0.016817145049571990966796875000 -0.074476607143878936767578125000 -0.045774433761835098266601562500 -0.148862972855567932128906250000 -0.045678883790969848632812500000 -0.064773902297019958496093750000 -0.095965310931205749511718750000 -0.153675213456153869628906250000 -0.245451956987380981445312500000 -0.148003339767456054687500000000 -0.097229950129985809326171875000 -0.114550381898880004882812500000 -0.070739954710006713867187500000 -0.094950124621391296386718750000 -0.061890769749879837036132812500 -0.104739993810653686523437500000 -0.046655695885419845581054687500 -0.043262124061584472656250000000 -0.103392526507377624511718750000 -0.119025066494941711425781250000 -0.067435652017593383789062500000 -0.078217633068561553955078125000 -0.105253718793392181396484375000 -0.168043047189712524414062500000 -0.077744610607624053955078125000 -0.103292167186737060546875000000 -0.130254551768302917480468750000 -0.140290468931198120117187500000 -0.110245704650878906250000000000 -0.044187251478433609008789062500 -0.108688376843929290771484375000 -0.178064778447151184082031250000 -0.106657899916172027587890625000 -0.084982432425022125244140625000 -0.083079755306243896484375000000 -0.051956180483102798461914062500 -0.096295349299907684326171875000 -0.122367374598979949951171875000 -0.198240399360656738281250000000 -0.120192132890224456787109375000 -0.159416824579238891601562500000 -0.107599027454853057861328125000 -0.081996217370033264160156250000 -0.041370339691638946533203125000 -0.132349923253059387207031250000 -0.131582930684089660644531250000 -0.095425993204116821289062500000 -0.143741548061370849609375000000 -0.144766375422477722167968750000 -0.062302421778440475463867187500 -0.170976743102073669433593750000 -0.081346862018108367919921875000 0.012109342031180858612060546875 -0.136093705892562866210937500000 -0.084908552467823028564453125000 -0.097680263221263885498046875000 -0.102867290377616882324218750000 -0.093652375042438507080078125000 -0.045704245567321777343750000000 -0.038017060607671737670898437500 -0.180908158421516418457031250000 -0.087445355951786041259765625000 -0.045728858560323715209960937500 -0.164266332983970642089843750000 -0.090217247605323791503906250000 -0.124145060777664184570312500000 0.003319367300719022750854492188 -0.135602220892906188964843750000 -0.100210256874561309814453125000 -0.068765655159950256347656250000 -0.109029874205589294433593750000 -0.010046523995697498321533203125 -0.104033023118972778320312500000 -0.079809866845607757568359375000 -0.053450640290975570678710937500 -0.085829876363277435302734375000 -0.091930828988552093505859375000 -0.115653552114963531494140625000 -0.108277224004268646240234375000 -0.070200726389884948730468750000 -0.071737140417098999023437500000 -0.103872366249561309814453125000 -0.064457729458808898925781250000 -0.093775086104869842529296875000 -0.124707616865634918212890625000 -0.067812435328960418701171875000 -0.112453371286392211914062500000 -0.052107438445091247558593750000 -0.068252615630626678466796875000 -0.119739875197410583496093750000 -0.071753025054931640625000000000 -0.052763313055038452148437500000 -0.154771104454994201660156250000 -0.039245035499334335327148437500 -0.082593612372875213623046875000 -0.093322917819023132324218750000 -0.026149235665798187255859375000 -0.106094807386398315429687500000 -0.087161935865879058837890625000 -0.045536432415246963500976562500 -0.150637999176979064941406250000 -0.098883271217346191406250000000 -0.114726647734642028808593750000 -0.111072555184364318847656250000 -0.121006339788436889648437500000 -0.096880204975605010986328125000 -0.102851420640945434570312500000 -0.151656970381736755371093750000 -0.117132842540740966796875000000 -0.067975744605064392089843750000 -0.073159076273441314697265625000 -0.181173816323280334472656250000 -0.047683741897344589233398437500 -0.102757051587104797363281250000 -0.010665743611752986907958984375 -0.095069974660873413085937500000 -0.185326173901557922363281250000 -0.062457937747240066528320312500 -0.087245456874370574951171875000 -0.108181983232498168945312500000 -0.068419761955738067626953125000 -0.104775138199329376220703125000 -0.157797798514366149902343750000 -0.033024068921804428100585937500 0.035620585083961486816406250000 -0.180626824498176574707031250000 0.003788065398111939430236816406 -0.077466547489166259765625000000 -0.049318294972181320190429687500 -0.048832822591066360473632812500 -0.009297308512032032012939453125 -0.037226509302854537963867187500 -0.127907380461692810058593750000 -0.064103342592716217041015625000 -0.067086912691593170166015625000 -0.114828921854496002197265625000 -0.105883151292800903320312500000 -0.088083043694496154785156250000 -0.113339826464653015136718750000 -0.104578860104084014892578125000 -0.108515277504920959472656250000 -0.126827523112297058105468750000 -0.116133831441402435302734375000 -0.128558218479156494140625000000 -0.039229504764080047607421875000 -0.125925719738006591796875000000 -0.123534411191940307617187500000 -0.129772469401359558105468750000 -0.092252686619758605957031250000 -0.079766564071178436279296875000 -0.052648626267910003662109375000 -0.167456939816474914550781250000 -0.075718075037002563476562500000 -0.038294352591037750244140625000 -0.087493762373924255371093750000 -0.037279438227415084838867187500 -0.091020718216896057128906250000 -0.070299714803695678710937500000 -0.041456408798694610595703125000 -0.017264189198613166809082031250 -0.143047615885734558105468750000 -0.140517130494117736816406250000 -0.075525909662246704101562500000 -0.078882724046707153320312500000 -0.051909059286117553710937500000 -0.146583735942840576171875000000 -0.130134716629981994628906250000 -0.052453957498073577880859375000 -0.082601301372051239013671875000 -0.036039922386407852172851562500 0.004184105433523654937744140625 -0.080648243427276611328125000000 -0.091309741139411926269531250000 -0.043454505503177642822265625000 -0.162424743175506591796875000000 -0.099408499896526336669921875000 -0.101889640092849731445312500000 -0.113121397793292999267578125000 -0.102210044860839843750000000000 -0.125573217868804931640625000000 -0.103722378611564636230468750000 -0.087754063308238983154296875000 -0.085662603378295898437500000000 -0.058216035366058349609375000000 -0.174934193491935729980468750000 -0.032483611255884170532226562500 -0.132901847362518310546875000000 -0.110993228852748870849609375000 -0.067165441811084747314453125000 -0.141087293624877929687500000000 -0.103098578751087188720703125000 -0.055328030139207839965820312500 -0.125154435634613037109375000000 -0.005613034591078758239746093750 -0.134006530046463012695312500000 -0.113362081348896026611328125000 -0.043821137398481369018554687500 -0.041649002581834793090820312500 -0.081059589982032775878906250000 -0.128512471914291381835937500000 -0.094590269029140472412109375000 -0.052172698080539703369140625000 -0.073244102299213409423828125000 -0.045414432883262634277343750000 -0.157201722264289855957031250000 -0.070502310991287231445312500000 -0.089646734297275543212890625000 -0.156037241220474243164062500000 -0.147681817412376403808593750000 -0.084821142256259918212890625000 -0.089679583907127380371093750000 -0.071084178984165191650390625000 -0.055916998535394668579101562500 -0.066674202680587768554687500000 -0.068799175322055816650390625000 -0.071206659078598022460937500000 -0.040869582444429397583007812500 -0.106684476137161254882812500000 -0.088785804808139801025390625000 -0.105066329240798950195312500000 -0.061045140027999877929687500000 -0.069440133869647979736328125000 -0.000399715005187317728996276855 -0.074462622404098510742187500000 -0.124891147017478942871093750000 -0.165030062198638916015625000000 -0.072688445448875427246093750000 -0.123625047504901885986328125000 -0.072930611670017242431640625000 -0.143039092421531677246093750000 -0.029582666233181953430175781250 -0.149865522980690002441406250000 -0.088057309389114379882812500000 -0.025521576404571533203125000000 -0.135784149169921875000000000000 -0.081730023026466369628906250000 -0.101997964084148406982421875000 -0.043477900326251983642578125000 -0.084949031472206115722656250000 -0.093359179794788360595703125000 -0.028712596744298934936523437500 -0.103168189525604248046875000000 -0.000905602239072322845458984375 -0.109903104603290557861328125000 -0.085415996611118316650390625000 -0.093680895864963531494140625000 -0.089495189487934112548828125000 -0.121598035097122192382812500000 -0.066957004368305206298828125000 -0.113969542086124420166015625000 -0.088307134807109832763671875000 -0.153065919876098632812500000000 -0.112409196794033050537109375000 -0.119029067456722259521484375000 -0.106261834502220153808593750000 -0.127574086189270019531250000000 -0.083106257021427154541015625000 -0.085264906287193298339843750000 -0.115685097873210906982421875000 -0.118683144450187683105468750000 -0.089827150106430053710937500000 -0.183228582143783569335937500000 -0.074729107320308685302734375000 -0.042943727225065231323242187500 -0.151270672678947448730468750000 -0.093738496303558349609375000000 -0.088082484900951385498046875000 -0.092283114790916442871093750000 -0.098357059061527252197265625000 -0.015336791053414344787597656250 -0.064036771655082702636718750000 -0.118530802428722381591796875000 -0.105328962206840515136718750000 -0.136911287903785705566406250000 -0.031501881778240203857421875000 -0.045623883605003356933593750000 -0.119338169693946838378906250000 -0.137429043650627136230468750000 -0.079303093254566192626953125000 -0.096866182982921600341796875000 -0.123308211565017700195312500000 -0.053083129227161407470703125000 -0.043822348117828369140625000000 -0.042402453720569610595703125000 -0.122926861047744750976562500000 -0.105059094727039337158203125000 -0.105258129537105560302734375000 -0.042395833879709243774414062500 -0.080262266099452972412109375000 -0.075630269944667816162109375000 -0.095553323626518249511718750000 -0.174574568867683410644531250000 -0.140555113554000854492187500000 -0.116630189120769500732421875000 -0.026838526129722595214843750000 -0.137887075543403625488281250000 -0.153918057680130004882812500000 -0.144737377762794494628906250000 -0.131312593817710876464843750000 -0.114863090217113494873046875000 -0.124926298856735229492187500000 -0.112676933407783508300781250000 -0.105079263448715209960937500000 -0.088313288986682891845703125000 -0.056435454636812210083007812500 -0.125518202781677246093750000000 -0.088976733386516571044921875000 -0.081060387194156646728515625000 -0.128995686769485473632812500000 -0.016039943322539329528808593750 -0.010376436635851860046386718750 -0.118029780685901641845703125000 -0.134004622697830200195312500000 -0.093796633183956146240234375000 -0.064057208597660064697265625000 -0.140200600028038024902343750000 -0.171062216162681579589843750000 -0.063315026462078094482421875000 -0.100486986339092254638671875000 -0.134823501110076904296875000000 -0.047798696905374526977539062500 -0.054641690105199813842773437500 -0.088807195425033569335937500000 -0.122027225792407989501953125000 -0.078132390975952148437500000000 -0.045314010232686996459960937500 -0.042801350355148315429687500000 -0.076563566923141479492187500000 -0.075821757316589355468750000000 -0.098549909889698028564453125000 -0.091494396328926086425781250000 -0.090103544294834136962890625000 -0.147561803460121154785156250000 -0.141462504863739013671875000000 -0.105327025055885314941406250000 -0.107586324214935302734375000000 -0.074223481118679046630859375000 -0.025869002565741539001464843750 -0.094459027051925659179687500000 -0.062272571027278900146484375000 -0.163322687149047851562500000000 -0.153438135981559753417968750000 -0.114810734987258911132812500000 -0.136360406875610351562500000000 -0.177397355437278747558593750000 -0.058942474424839019775390625000 -0.104327365756034851074218750000 -0.066878914833068847656250000000 -0.142374306917190551757812500000 -0.039437137544155120849609375000 -0.065798930823802947998046875000 -0.156939089298248291015625000000 -0.129648655652999877929687500000 -0.096809230744838714599609375000 -0.102107875049114227294921875000 -0.108886748552322387695312500000 -0.163846135139465332031250000000 -0.081437982618808746337890625000 -0.074332818388938903808593750000 -0.057176921516656875610351562500 -0.065121300518512725830078125000 -0.079413130879402160644531250000 -0.115782216191291809082031250000 -0.125308230519294738769531250000 -0.081727944314479827880859375000 -0.082478635013103485107421875000 -0.128263652324676513671875000000 -0.214412167668342590332031250000 -0.059330444782972335815429687500 -0.121166318655014038085937500000 -0.087864078581333160400390625000 -0.064242318272590637207031250000 -0.128304108977317810058593750000 -0.016270240768790245056152343750 -0.105994656682014465332031250000 -0.180071592330932617187500000000 -0.029079217463731765747070312500 -0.100797474384307861328125000000 -0.117173478007316589355468750000 -0.095666930079460144042968750000 -0.106436036527156829833984375000 -0.126376643776893615722656250000 -0.129025533795356750488281250000 -0.069477520883083343505859375000 -0.032448496669530868530273437500 -0.126851394772529602050781250000 -0.007262759841978549957275390625 -0.079724408686161041259765625000 -0.032686680555343627929687500000 -0.121221385896205902099609375000 -0.070855386555194854736328125000 -0.089446008205413818359375000000 -0.151020556688308715820312500000 -0.145226344466209411621093750000 -0.077615723013877868652343750000 -0.131361290812492370605468750000 -0.124546281993389129638671875000 -0.124650351703166961669921875000 -0.144841969013214111328125000000 -0.070578359067440032958984375000 -0.185528829693794250488281250000 -0.088527709245681762695312500000 -0.038544379174709320068359375000 -0.134226113557815551757812500000 -0.103678770363330841064453125000 -0.082508653402328491210937500000 -0.104488238692283630371093750000 -0.074361033737659454345703125000 -0.106397993862628936767578125000 -0.060768309980630874633789062500 -0.059646312147378921508789062500 -0.098418205976486206054687500000 -0.164849817752838134765625000000 -0.093436993658542633056640625000 -0.084511153399944305419921875000 -0.074393235146999359130859375000 -0.127628028392791748046875000000 -0.122422449290752410888671875000 -0.151561692357063293457031250000 -0.011125381104648113250732421875 -0.078006297349929809570312500000 -0.088034853339195251464843750000 -0.129056572914123535156250000000 -0.139754384756088256835937500000 -0.118051022291183471679687500000 -0.042722273617982864379882812500 -0.151786044239997863769531250000 -0.116544634103775024414062500000 -0.104470722377300262451171875000 -0.021823897957801818847656250000 -0.088863760232925415039062500000 -0.102185033261775970458984375000 -0.087821997702121734619140625000 -0.057689465582370758056640625000 -0.089141756296157836914062500000 0.022074948996305465698242187500 -0.176766410470008850097656250000 -0.052354630082845687866210937500 -0.028369706124067306518554687500 -0.094991542398929595947265625000 -0.109295606613159179687500000000 -0.126608982682228088378906250000 -0.106864884495735168457031250000 -0.135561466217041015625000000000 -0.138184696435928344726562500000 -0.067400440573692321777343750000 -0.159499153494834899902343750000 -0.088572598993778228759765625000 -0.065815620124340057373046875000 -0.096307307481765747070312500000 -0.085868217051029205322265625000 -0.091364771127700805664062500000 -0.102901563048362731933593750000 -0.085511207580566406250000000000 -0.089815258979797363281250000000 -0.120911598205566406250000000000 -0.035869561135768890380859375000 -0.160610452294349670410156250000 -0.100525982677936553955078125000 -0.162887543439865112304687500000 -0.149650514125823974609375000000 -0.099758364260196685791015625000 -0.074309088289737701416015625000 -0.183648258447647094726562500000 -0.064455494284629821777343750000 -0.078292533755302429199218750000 -0.062763057649135589599609375000 -0.099964946508407592773437500000 -0.117325760424137115478515625000 -0.104643754661083221435546875000 -0.187887370586395263671875000000 -0.096556909382343292236328125000 -0.143909141421318054199218750000 -0.190261527895927429199218750000 -0.136118754744529724121093750000 -0.084846705198287963867187500000 -0.097661778330802917480468750000 -0.071065142750740051269531250000 -0.084654361009597778320312500000 -0.134872391819953918457031250000 -0.106195531785488128662109375000 -0.069404274225234985351562500000 -0.149292394518852233886718750000 -0.132189333438873291015625000000 -0.090442441403865814208984375000 -0.142394751310348510742187500000 -0.091715909540653228759765625000 -0.057810720056295394897460937500 -0.085117720067501068115234375000 -0.029200728982686996459960937500 -0.111967667937278747558593750000 -0.128526747226715087890625000000 -0.188367426395416259765625000000 -0.139657050371170043945312500000 -0.131986200809478759765625000000 -0.062929332256317138671875000000 -0.109320677816867828369140625000 -0.062316749244928359985351562500 -0.130118981003761291503906250000 -0.120758786797523498535156250000 -0.106898948550224304199218750000 -0.067647226154804229736328125000 -0.077446907758712768554687500000 -0.079525731503963470458984375000 -0.146289870142936706542968750000 -0.121171750128269195556640625000 -0.083767347037792205810546875000 -0.179614380002021789550781250000 -0.121588826179504394531250000000 -0.147014617919921875000000000000 -0.113433480262756347656250000000 -0.116295203566551208496093750000 -0.078402139246463775634765625000 -0.106583312153816223144531250000 -0.187414586544036865234375000000 -0.096472300589084625244140625000 -0.017787665128707885742187500000 -0.070423111319541931152343750000 -0.132662549614906311035156250000 -0.159714400768280029296875000000 -0.131947264075279235839843750000 -0.097976297140121459960937500000 -0.144757077097892761230468750000 -0.049988273531198501586914062500 -0.093943364918231964111328125000 -0.123085796833038330078125000000 -0.170345619320869445800781250000 -0.111513838171958923339843750000 -0.136715233325958251953125000000 -0.091081209480762481689453125000 -0.179798558354377746582031250000 -0.138702705502510070800781250000 -0.075450874865055084228515625000 -0.122887231409549713134765625000 -0.144423782825469970703125000000 -0.117502763867378234863281250000 -0.067767173051834106445312500000 -0.148051396012306213378906250000 -0.127378374338150024414062500000 -0.108155481517314910888671875000 -0.146814763545989990234375000000 0.009113104082643985748291015625 -0.131210848689079284667968750000 -0.106201708316802978515625000000 -0.097374588251113891601562500000 -0.082822300493717193603515625000 -0.089729748666286468505859375000 -0.141201138496398925781250000000 -0.162066310644149780273437500000 -0.052833981812000274658203125000 -0.090680710971355438232421875000 -0.112622216343879699707031250000 -0.166716754436492919921875000000 -0.135057166218757629394531250000 -0.124790057539939880371093750000 -0.096158914268016815185546875000 -0.108228094875812530517578125000 -0.075395382940769195556640625000 -0.066586203873157501220703125000 -0.143809527158737182617187500000 -0.130599886178970336914062500000 -0.108730703592300415039062500000 -0.113117143511772155761718750000 -0.102864690124988555908203125000 -0.123299419879913330078125000000 -0.152356550097465515136718750000 -0.109405629336833953857421875000 -0.120100341737270355224609375000 -0.179922476410865783691406250000 -0.140409737825393676757812500000 -0.073184750974178314208984375000 -0.122854076325893402099609375000 -0.138871803879737854003906250000 -0.103442698717117309570312500000 -0.138068005442619323730468750000 -0.121456079185009002685546875000 -0.143695950508117675781250000000 -0.067709244787693023681640625000 -0.024410476908087730407714843750 -0.207804515957832336425781250000 -0.052627306431531906127929687500 -0.124993056058883666992187500000 -0.124257937073707580566406250000 -0.112850442528724670410156250000 -0.176573649048805236816406250000 -0.111591957509517669677734375000 -0.118418768048286437988281250000 -0.095617912709712982177734375000 -0.116188511252403259277343750000 -0.025670662522315979003906250000 -0.115399047732353210449218750000 -0.143706738948822021484375000000 -0.114838786423206329345703125000 -0.181315526366233825683593750000 -0.116948179900646209716796875000 -0.127587080001831054687500000000 -0.136524513363838195800781250000 -0.156300559639930725097656250000 -0.130977764725685119628906250000 -0.142980664968490600585937500000 -0.125387728214263916015625000000 -0.140972271561622619628906250000 -0.182232394814491271972656250000 -0.150520130991935729980468750000 -0.176403075456619262695312500000 -0.075374111533164978027343750000 -0.202771589159965515136718750000 -0.065168857574462890625000000000 -0.118326500058174133300781250000 -0.108235843479633331298828125000 -0.189806371927261352539062500000 -0.039488825947046279907226562500 -0.140176668763160705566406250000 -0.114181898534297943115234375000 -0.133539825677871704101562500000 -0.119541637599468231201171875000 -0.080004200339317321777343750000 0.022261917591094970703125000000 -0.110404565930366516113281250000 -0.080379068851470947265625000000 -0.134241014719009399414062500000 -0.138632982969284057617187500000 -0.075448304414749145507812500000 -0.133596092462539672851562500000 -0.062630325555801391601562500000 -0.108989343047142028808593750000 -0.132882282137870788574218750000 -0.132888868451118469238281250000 -0.107776224613189697265625000000 -0.104183778166770935058593750000 -0.066216751933097839355468750000 -0.137447252869606018066406250000 -0.121904484927654266357421875000 -0.079617813229560852050781250000 -0.141082316637039184570312500000 -0.160010918974876403808593750000 -0.102366156876087188720703125000 -0.131870478391647338867187500000 -0.092036955058574676513671875000 -0.204637020826339721679687500000 -0.113676264882087707519531250000 -0.097519405186176300048828125000 -0.055759381502866744995117187500 -0.125471055507659912109375000000 -0.103305734694004058837890625000 -0.190060079097747802734375000000 -0.110926888883113861083984375000 -0.094411291182041168212890625000 -0.139066353440284729003906250000 -0.170059233903884887695312500000 -0.114054903388023376464843750000 -0.050456877797842025756835937500 -0.083112262189388275146484375000 -0.144976690411567687988281250000 -0.048465974628925323486328125000 -0.120395146310329437255859375000 -0.075890950858592987060546875000 -0.085922576487064361572265625000 -0.101131319999694824218750000000 -0.108600541949272155761718750000 -0.124666154384613037109375000000 -0.112120434641838073730468750000 -0.063428603112697601318359375000 -0.085594676434993743896484375000 -0.129028737545013427734375000000 -0.076947838068008422851562500000 -0.084513545036315917968750000000 -0.166766792535781860351562500000 -0.127440512180328369140625000000 -0.102342270314693450927734375000 -0.077538654208183288574218750000 -0.157990768551826477050781250000 -0.088213391602039337158203125000 -0.055844850838184356689453125000 -0.077659681439399719238281250000 -0.099143922328948974609375000000 -0.056880891323089599609375000000 -0.160669505596160888671875000000 -0.131329566240310668945312500000 -0.106253951787948608398437500000 -0.045451927930116653442382812500 -0.113250292837619781494140625000 -0.149120420217514038085937500000 -0.091977983713150024414062500000 -0.072277292609214782714843750000 -0.025072572752833366394042968750 -0.118773281574249267578125000000 -0.013283620588481426239013671875 -0.094519712030887603759765625000 -0.084889508783817291259765625000 -0.119862169027328491210937500000 -0.122148871421813964843750000000 -0.078811623156070709228515625000 -0.093366973102092742919921875000 -0.120101824402809143066406250000 -0.142484188079833984375000000000 -0.152852788567543029785156250000 -0.114616654813289642333984375000 -0.007717940490692853927612304688 -0.091260440647602081298828125000 -0.091705664992332458496093750000 -0.064966410398483276367187500000 -0.138140499591827392578125000000 -0.066299155354499816894531250000 -0.113221831619739532470703125000 -0.116334751248359680175781250000 -0.114924170076847076416015625000 -0.073598057031631469726562500000 -0.048864834010601043701171875000 -0.120478525757789611816406250000 -0.070206627249717712402343750000 -0.065845064818859100341796875000 -0.107050769031047821044921875000 -0.143138557672500610351562500000 -0.066630773246288299560546875000 -0.034049272537231445312500000000 -0.067038640379905700683593750000 -0.142123579978942871093750000000 -0.103745400905609130859375000000 -0.063442841172218322753906250000 -0.131957083940505981445312500000 -0.040457099676132202148437500000 -0.129937052726745605468750000000 -0.156684383749961853027343750000 -0.060029264539480209350585937500 -0.065172903239727020263671875000 -0.097672961652278900146484375000 -0.244809493422508239746093750000 -0.112584643065929412841796875000 -0.121423244476318359375000000000 -0.169773489236831665039062500000 -0.088027156889438629150390625000 -0.162275239825248718261718750000 -0.115043327212333679199218750000 -0.099064998328685760498046875000 -0.150663331151008605957031250000 -0.109069615602493286132812500000 -0.117752119898796081542968750000 -0.187906011939048767089843750000 -0.101631484925746917724609375000 -0.155040219426155090332031250000 -0.124298140406608581542968750000 -0.144485354423522949218750000000 -0.123279176652431488037109375000 -0.128512427210807800292968750000 -0.158204540610313415527343750000 