0.107395797967910766601562500000 0.090678289532661437988281250000 -0.490813285112380981445312500000 -0.206226319074630737304687500000 0.339465081691741943359375000000 0.183414757251739501953125000000 0.144625678658485412597656250000 -0.022137599065899848937988281250 0.198295220732688903808593750000 0.391449630260467529296875000000 -0.069681860506534576416015625000 -0.036866966634988784790039062500 0.112013138830661773681640625000 0.038506541401147842407226562500 0.039766706526279449462890625000 0.165155842900276184082031250000 -0.574817657470703125000000000000 -0.179655447602272033691406250000 -0.075048483908176422119140625000 -0.075047865509986877441406250000 -0.212065204977989196777343750000 0.483017176389694213867187500000 -0.508599936962127685546875000000 -0.154773235321044921875000000000 0.069945573806762695312500000000 -0.309506475925445556640625000000 0.379125416278839111328125000000 -0.028196832165122032165527343750 -0.512578070163726806640625000000 -0.229645222425460815429687500000 0.570541083812713623046875000000 0.148978158831596374511718750000 -0.285234421491622924804687500000 -0.198465168476104736328125000000 -0.293126523494720458984375000000 0.264716476202011108398437500000 -0.145539313554763793945312500000 -0.138689830899238586425781250000 0.126360535621643066406250000000 -0.144217565655708312988281250000 0.028035750612616539001464843750 -0.249146565794944763183593750000 -0.381685376167297363281250000000 -0.257711797952651977539062500000 0.339170932769775390625000000000 -0.092749349772930145263671875000 -0.090145096182823181152343750000 0.324609011411666870117187500000 0.186602964997291564941406250000 0.081112682819366455078125000000 0.193398818373680114746093750000 0.113847590982913970947265625000 -0.080207727849483489990234375000 -0.095962442457675933837890625000 0.045359529554843902587890625000 -0.538831949234008789062500000000 -0.173512533307075500488281250000 -0.176146104931831359863281250000 -0.483362644910812377929687500000 0.467645764350891113281250000000 -0.261673271656036376953125000000 0.063835889101028442382812500000 0.090787000954151153564453125000 0.218562737107276916503906250000 0.309628814458847045898437500000 -0.473216593265533447265625000000 -0.298147201538085937500000000000 -0.157639861106872558593750000000 0.004566573537886142730712890625 -0.214405268430709838867187500000 0.129993304610252380371093750000 -0.332311928272247314453125000000 -0.493109464645385742187500000000 0.287294358015060424804687500000 0.188249856233596801757812500000 0.374014049768447875976562500000 -0.159776046872138977050781250000 -0.151016384363174438476562500000 0.077021114528179168701171875000 -0.070647411048412322998046875000 -0.473171830177307128906250000000 -0.308790683746337890625000000000 0.127031117677688598632812500000 -0.382461160421371459960937500000 0.441411107778549194335937500000 -0.453176110982894897460937500000 0.155988529324531555175781250000 0.405546694993972778320312500000 0.155674949288368225097656250000 0.065787911415100097656250000000 0.228128492832183837890625000000 -0.393275916576385498046875000000 0.056477885693311691284179687500 0.602913081645965576171875000000 -0.194063827395439147949218750000 0.486751049757003784179687500000 0.526638209819793701171875000000 -0.138336628675460815429687500000 -0.149899110198020935058593750000 -0.238883465528488159179687500000 0.151667073369026184082031250000 0.146788179874420166015625000000 -0.196959748864173889160156250000 -0.050662584602832794189453125000 -0.071622304618358612060546875000 -0.126488342881202697753906250000 -0.231437146663665771484375000000 0.105545602738857269287109375000 0.014420503750443458557128906250 0.119145967066287994384765625000 -0.373230159282684326171875000000 0.557743132114410400390625000000 -0.152602151036262512207031250000 0.284944325685501098632812500000 -0.331274271011352539062500000000 0.031012594699859619140625000000 -0.596492171287536621093750000000 -0.311331748962402343750000000000 -0.120853044092655181884765625000 -0.108548909425735473632812500000 0.068621873855590820312500000000 -0.227239459753036499023437500000 0.055794987827539443969726562500 0.249066144227981567382812500000 0.582301557064056396484375000000 -0.527449190616607666015625000000 -0.606563627719879150390625000000 -0.325802683830261230468750000000 