-0.004141773097217082977294921875 -0.398455709218978881835937500000 -0.152211755514144897460937500000 -0.108963862061500549316406250000 0.502357959747314453125000000000 -0.269578129053115844726562500000 0.303451031446456909179687500000 0.190730109810829162597656250000 -0.608221769332885742187500000000 -0.478347152471542358398437500000 -0.046077769249677658081054687500 0.270800024271011352539062500000 0.118860162794589996337890625000 -0.016638461500406265258789062500 -0.208867430686950683593750000000 -0.191072732210159301757812500000 -0.515854120254516601562500000000 -0.352378666400909423828125000000 -0.206088647246360778808593750000 -0.018521396443247795104980468750 0.053935091942548751831054687500 -0.351499617099761962890625000000 0.200705528259277343750000000000 0.050326664000749588012695312500 0.148197948932647705078125000000 0.385683715343475341796875000000 0.142457067966461181640625000000 0.064110428094863891601562500000 -0.380284070968627929687500000000 -0.213821515440940856933593750000 -0.126453965902328491210937500000 -0.080568566918373107910156250000 0.415017813444137573242187500000 -0.100820280611515045166015625000 0.130207598209381103515625000000 0.048895694315433502197265625000 -0.331564366817474365234375000000 0.222848370671272277832031250000 0.084580816328525543212890625000 -0.182880818843841552734375000000 0.063122920691967010498046875000 -0.092138759791851043701171875000 0.115647330880165100097656250000 0.233193963766098022460937500000 -0.295344233512878417968750000000 -0.359657794237136840820312500000 -0.227399617433547973632812500000 -0.228077769279479980468750000000 0.073481701314449310302734375000 -0.019311536103487014770507812500 -0.250117987394332885742187500000 0.175794720649719238281250000000 -0.008139586076140403747558593750 -0.044959980994462966918945312500 0.077415056526660919189453125000 0.241245985031127929687500000000 0.347760051488876342773437500000 0.309137135744094848632812500000 -0.017091747373342514038085937500 -0.276820987462997436523437500000 0.078517973423004150390625000000 0.091420456767082214355468750000 0.433836698532104492187500000000 0.509359359741210937500000000000 0.163789540529251098632812500000 -0.008870039135217666625976562500 -0.081689856946468353271484375000 -0.415037721395492553710937500000 0.260392069816589355468750000000 0.494194060564041137695312500000 0.143125474452972412109375000000 0.445905506610870361328125000000 -0.070981688797473907470703125000 0.183711871504783630371093750000 0.190769240260124206542968750000 0.230418637394905090332031250000 0.174471512436866760253906250000 0.409691005945205688476562500000 -0.257277458906173706054687500000 0.210640415549278259277343750000 0.298281997442245483398437500000 -0.162183791399002075195312500000 0.173607662320137023925781250000 -0.074254877865314483642578125000 0.363422185182571411132812500000 0.387976735830307006835937500000 -0.155610531568527221679687500000 0.211444988846778869628906250000 0.158201545476913452148437500000 0.541877090930938720703125000000 0.085597775876522064208984375000 -0.085895143449306488037109375000 0.078332051634788513183593750000 -0.314550012350082397460937500000 0.040847495198249816894531250000 0.010079124942421913146972656250 0.030643098056316375732421875000 -0.278324455022811889648437500000 0.339806765317916870117187500000 0.160527855157852172851562500000 -0.191321641206741333007812500000 0.434984356164932250976562500000 -0.214857921004295349121093750000 0.189245373010635375976562500000 -0.382135242223739624023437500000 -0.558284461498260498046875000000 -0.395074695348739624023437500000 0.251125514507293701171875000000 0.283564418554306030273437500000 0.564008414745330810546875000000 -0.154794126749038696289062500000 0.038638193160295486450195312500 -0.147228956222534179687500000000 -0.131575629115104675292968750000 0.166687965393066406250000000000 0.299892544746398925781250000000 0.194557979702949523925781250000 0.517367422580718994140625000000 -0.210217013955116271972656250000 0.133973032236099243164062500000 0.365207999944686889648437500000 0.150988236069679260253906250000 -0.184061497449874877929687500000 0.084372587502002716064453125000 -0.424119919538497924804687500000 -0.057240679860115051269531250000 -0.478517174720764160156250000000 0.096211090683937072753906250000 